[{"read_out":[[-0.040251880884171,-0.13224965333939,-0.11936216801405,0.16464817523956,0.55219435691833,-0.045069232583046,0.0011749709956348,0.057537633925676],[-0.043056417256594,-0.16697517037392,-0.15205259621143,0.19763046503067,0.64801371097565,-0.067958027124405,-0.010170262306929,0.063339374959469],[-0.042114973068237,-0.17121039330959,-0.15626256167889,0.19995880126953,0.65157204866409,-0.072576895356178,-0.013480257242918,0.062508709728718],[-0.047293551266193,-0.15610426664352,-0.14093023538589,0.194057315588,0.65040957927704,-0.053510405123234,0.0010581742972136,0.067653395235538]],"w_k":[[0.22674018144608,-0.62358820438385,-0.56982362270355,0.58703088760376,0.93090289831161,-0.39772653579712,-0.20050010085106,-0.12430866807699],[0.22674018144608,-0.62358820438385,-0.56982362270355,0.58703088760376,0.93090289831161,-0.39772653579712,-0.20050010085106,-0.12430866807699],[0.22674018144608,-0.62358820438385,-0.56982362270355,0.58703088760376,0.93090289831161,-0.39772653579712,-0.20050010085106,-0.12430866807699],[0.22674018144608,-0.62358820438385,-0.56982362270355,0.58703088760376,0.93090289831161,-0.39772653579712,-0.20050010085106,-0.12430866807699]],"episode_frame":1,"batch_sel":1,"write_weights":[[0.73040908575058,0.26959091424942,0.26959091424942,0,0,0,0,0,0.26959091424942,0.26959091424942],[0.73040908575058,0.26959091424942,0.26959091424942,0,0,0,0,0,0.26959091424942,0.26959091424942],[0.73040908575058,0.26959091424942,0.26959091424942,0,0,0,0,0,0.26959091424942,0.26959091424942],[0.73040908575058,0.26959091424942,0.26959091424942,0,0,0,0,0,0.26959091424942,0.26959091424942]],"input":[0.4182476636488,0.46262968238443,0.30720432312228,0.26398297422566,0.41417853906751,0.69205787475221,0.43470242479816,0.29728143755347,0,0,0],"memory":[[-0.21939373016357,-0.17012380063534,-0.12442967295647,0.43305516242981,1.7717795372009,0.18065129220486,0.25306820869446,0.27489548921585],[-0.059086106717587,-0.38223248720169,-0.35492998361588,0.40029346942902,1.2334012985229,-0.21177043020725,-0.082530684769154,0.097679644823074],[-0.059086106717587,-0.38223248720169,-0.35492998361588,0.40029346942902,1.2334012985229,-0.21177043020725,-0.082530684769154,0.097679644823074],[9.9999999747524e-07,9.9999999747524e-07,9.9999999747524e-07,9.9999999747524e-07,9.9999999747524e-07,9.9999999747524e-07,9.9999999747524e-07,9.9999999747524e-07],[9.9999999747524e-07,9.9999999747524e-07,9.9999999747524e-07,9.9999999747524e-07,9.9999999747524e-07,9.9999999747524e-07,9.9999999747524e-07,9.9999999747524e-07],[9.9999999747524e-07,9.9999999747524e-07,9.9999999747524e-07,9.9999999747524e-07,9.9999999747524e-07,9.9999999747524e-07,9.9999999747524e-07,9.9999999747524e-07],[9.9999999747524e-07,9.9999999747524e-07,9.9999999747524e-07,9.9999999747524e-07,9.9999999747524e-07,9.9999999747524e-07,9.9999999747524e-07,9.9999999747524e-07],[9.9999999747524e-07,9.9999999747524e-07,9.9999999747524e-07,9.9999999747524e-07,9.9999999747524e-07,9.9999999747524e-07,9.9999999747524e-07,9.9999999747524e-07],[-0.059086106717587,-0.38223248720169,-0.35492998361588,0.40029346942902,1.2334012985229,-0.21177043020725,-0.082530684769154,0.097679644823074],[-0.059087105095387,-0.38223350048065,-0.35493099689484,0.40029245615005,1.2334003448486,-0.21177142858505,-0.082531683146954,0.097678646445274]],"read_weights":[[0.10258620977402,0.075083769857883,0.075083769857883,0.11941573768854,0.11941573768854,0.11941573768854,0.11941573768854,0.11941573768854,0.075083769857883,0.075083747506142],[0.089310549199581,0.099273160099983,0.099273160099983,0.1027193441987,0.1027193441987,0.1027193441987,0.1027193441987,0.1027193441987,0.099273160099983,0.099273279309273],[0.081044428050518,0.10296299308538,0.10296299308538,0.10142072290182,0.10142072290182,0.10142072290182,0.10142072290182,0.10142072290182,0.10296299308538,0.10296306014061],[0.11995641887188,0.08875311166048,0.08875311166048,0.10500624775887,0.10500624775887,0.10500624775887,0.10500624775887,0.10500624775887,0.08875311166048,0.088753014802933]],"gt":[1,0,0],"r_k":[[-0.37748450040817,0.20495514571667,0.34049895405769,-0.58307361602783,-0.10212370753288,0.47560200095177,0.4182958304882,-0.24518522620201],[-0.18929953873158,0.23720960319042,-0.20779041945934,-0.44812387228012,0.068794183433056,-0.28735846281052,-0.20965713262558,-0.1313541084528],[0.51980608701706,0.14959852397442,-0.12971739470959,-0.17853839695454,0.051778879016638,-0.2435582280159,-0.6493319272995,-0.36719077825546],[-0.18880246579647,-0.21744707226753,0.51353830099106,0.01410149410367,-0.067793548107147,0.51656001806259,0.50446826219559,0.58024191856384]],"pred_proba":[0.27416884899139,0.25614231824875,0.46968883275986]},{"read_out":[[-0.34582424163818,-0.010171154513955,0.044737953692675,0.52700555324554,1.0169659852982,0.47901782393456,0.5668613910675,0.19982601702213],[-0.37622529268265,0.038155503571033,0.100914016366,0.53202247619629,0.93483257293701,0.56793010234833,0.64919781684875,0.21215419471264],[-0.39914220571518,0.078531377017498,0.14705377817154,0.53266370296478,0.86212795972824,0.63813483715057,0.71316039562225,0.2208160161972],[-0.30097806453705,-0.089387655258179,-0.045308172702789,0.52600711584091,1.1490386724472,0.34207779169083,0.44275718927383,0.18180295825005]],"w_k":[[-0.23999613523483,-0.37898224592209,-0.080468095839024,0.92117989063263,0.94000720977783,0.74061095714569,0.58539712429047,0.064188785851002],[-0.23999613523483,-0.37898224592209,-0.080468095839024,0.92117989063263,0.94000720977783,0.74061095714569,0.58539712429047,0.064188785851002],[-0.23999613523483,-0.37898224592209,-0.080468095839024,0.92117989063263,0.94000720977783,0.74061095714569,0.58539712429047,0.064188785851002],[-0.23999613523483,-0.37898224592209,-0.080468095839024,0.92117989063263,0.94000720977783,0.74061095714569,0.58539712429047,0.064188785851002]],"episode_frame":2,"batch_sel":1,"write_weights":[[0.11338347196579,0.083889938890934,0.083889938890934,0.15404692292213,0.15404692292213,0.15404692292213,0.15404692292213,0.099252492189407,0.083889938890934,0.083889842033386],[0.11338347196579,0.083889938890934,0.083889938890934,0.15404692292213,0.15404692292213,0.15404692292213,0.15404692292213,0.099252492189407,0.083889938890934,0.083889842033386],[0.11338347196579,0.083889938890934,0.083889938890934,0.15404692292213,0.15404692292213,0.15404692292213,0.15404692292213,0.099252492189407,0.083889938890934,0.083889842033386],[0.11338347196579,0.083889938890934,0.083889938890934,0.15404692292213,0.15404692292213,0.15404692292213,0.15404692292213,0.099252492189407,0.083889938890934,0.083889842033386]],"input":[0.024268121924251,0.35857174918056,0.59076701058075,0.048817479750142,0.91785945231095,0.65575766772963,0.33067937823944,0.40892961528152,1,0,0],"memory":[[-0.35664501786232,-0.063258275389671,-0.033771976828575,0.57819926738739,1.9337246417999,0.41136991977692,0.48095095157623,0.2928854227066],[-0.18147727847099,-0.28591084480286,-0.26682558655739,0.51269149780273,1.3532766103745,-0.0049826800823212,0.13071212172508,0.12036756426096],[-0.18147727847099,-0.28591084480286,-0.26682558655739,0.51269149780273,1.3532766103745,-0.0049826800823212,0.13071212172508,0.12036756426096],[-0.55584365129471,0.23761682212353,0.349469602108,0.63003128767014,0.70007485151291,1.0230190753937,1.092679977417,0.30032300949097],[-0.55584365129471,0.23761682212353,0.349469602108,0.63003128767014,0.70007485151291,1.0230190753937,1.092679977417,0.30032300949097],[-0.55584466457367,0.23761582374573,0.34946858882904,0.63003027439117,0.70007383823395,1.0230181217194,1.0926790237427,0.30032199621201],[-0.55584365129471,0.23761682212353,0.349469602108,0.63003128767014,0.70007485151291,1.0230190753937,1.092679977417,0.30032300949097],[-0.13921310007572,0.099724918603897,0.093282826244831,0.14595614373684,0.1571974158287,0.24047808349133,0.24157229065895,0.023369492962956],[-0.18147727847099,-0.28591084480286,-0.26682558655739,0.51269149780273,1.3532766103745,-0.0049826800823212,0.13071212172508,0.12036756426096],[-0.18147826194763,-0.28591191768646,-0.26682657003403,0.51269042491913,1.3532755374908,-0.00498366355896,0.13071113824844,0.12036657333374]],"read_weights":[[0.099139668047428,0.096956916153431,0.096956916153431,0.10120692104101,0.10120692104101,0.10120693594217,0.10120692104101,0.10820497572422,0.096956916153431,0.096956953406334],[0.083949066698551,0.075251616537571,0.075251616537571,0.12363291531801,0.12363291531801,0.12363287806511,0.12363291531801,0.12051287293434,0.075251616537571,0.075251542031765],[0.073077701032162,0.056335773319006,0.056335773319006,0.14072151482105,0.14072151482105,0.14072148501873,0.14072151482105,0.13869319856167,0.056335773319006,0.0563356988132],[0.10729599744081,0.13602955639362,0.13602955639362,0.069269075989723,0.069269075989723,0.069269083440304,0.069269075989723,0.071509353816509,0.13602955639362,0.1360297203064]],"gt":[0,1,0],"r_k":[[0.23124741017818,0.28043094277382,-0.48384127020836,-0.55151426792145,-0.11634672433138,0.38599818944931,-0.13548251986504,-0.49756062030792],[0.55910849571228,-0.63516557216644,0.92806309461594,0.77502781152725,-0.25228083133698,0.68521547317505,0.86306709051132,-0.21603742241859],[0.047044400125742,0.15679767727852,0.60943603515625,0.3292381465435,-0.4576835334301,0.80088782310486,0.7411812543869,0.37368005514145],[0.35517424345016,-0.0040273615159094,-0.6594146490097,-0.58875197172165,-0.13529990613461,-0.82863759994507,-0.707739174366,-0.52969574928284]],"pred_proba":[0.32226207852364,0.1956754475832,0.48206242918968]},{"read_out":[[-0.209846124053,-0.0017782412469387,-0.2272729575634,0.38413885235786,0.55581951141357,0.18361575901508,0.46500054001808,0.11257912218571],[-0.22730864584446,-0.017652664333582,-0.22050221264362,0.39261314272881,0.6759729385376,0.18801741302013,0.45347711443901,0.12715454399586],[-0.23926548659801,0.023334175348282,-0.19901226460934,0.40486747026443,0.54630100727081,0.24938882887363,0.53281182050705,0.12451221048832],[-0.070700295269489,-0.09834249317646,-0.34058728814125,0.25797799229622,0.51481539011002,-0.10757018625736,0.15760578215122,0.048301588743925]],"w_k":[[0.74733781814575,-0.53869211673737,-0.54425549507141,0.57504832744598,-0.75953555107117,-0.76627022027969,-0.53964018821716,-0.3262245953083],[0.74733781814575,-0.53869211673737,-0.54425549507141,0.57504832744598,-0.75953555107117,-0.76627022027969,-0.53964018821716,-0.3262245953083],[0.74733781814575,-0.53869211673737,-0.54425549507141,0.57504832744598,-0.75953555107117,-0.76627022027969,-0.53964018821716,-0.3262245953083],[0.74733781814575,-0.53869211673737,-0.54425549507141,0.57504832744598,-0.75953555107117,-0.76627022027969,-0.53964018821716,-0.3262245953083]],"episode_frame":3,"batch_sel":1,"write_weights":[[0.082939155399799,0.10515002161264,0.10515002161264,0.053544573485851,0.28055065870285,0.28055065870285,0.28055065870285,0.28228238224983,0.10515002161264,0.10515014827251],[0.082939155399799,0.10515002161264,0.10515002161264,0.053544573485851,0.28055065870285,0.28055065870285,0.28055065870285,0.28228238224983,0.10515002161264,0.10515014827251],[0.082939155399799,0.10515002161264,0.10515002161264,0.053544573485851,0.28055065870285,0.28055065870285,0.28055065870285,0.28228238224983,0.10515002161264,0.10515014827251],[0.082939155399799,0.10515002161264,0.10515002161264,0.053544573485851,0.28055065870285,0.28055065870285,0.28055065870285,0.28228238224983,0.10515002161264,0.10515014827251]],"input":[0.024268121924251,0.35857174918056,0.59076701058075,0.048817479750142,0.91785945231095,0.65575766772963,0.33067937823944,0.40892961528152,0,1,0],"memory":[[-0.36660394072533,-0.024467423558235,-0.11657088249922,0.43912160396576,1.8236050605774,0.32767999172211,0.46160662174225,0.28904801607132],[-0.1756185144186,-0.2327987998724,-0.34013226628304,0.37128007411957,1.2191753387451,-0.10797911137342,0.093166619539261,0.1314365118742],[-0.1756185144186,-0.2327987998724,-0.34013226628304,0.37128007411957,1.2191753387451,-0.10797911137342,0.093166619539261,0.1314365118742],[-0.61508738994598,0.26160877943039,0.22575053572655,0.44888690114021,0.63123309612274,0.9679326415062,1.1143047809601,0.26166012883186],[-0.17561990022659,0.10501797497272,-0.24943709373474,0.45543971657753,0.016654551029205,0.27246069908142,0.67401480674744,0.073813289403915],[-0.17562091350555,0.10501697659492,-0.24943804740906,0.45543870329857,0.016653537750244,0.2724597454071,0.67401385307312,0.073812276124954],[-0.17561990022659,0.10501797497272,-0.24943709373474,0.45543971657753,0.016654551029205,0.27246069908142,0.67401480674744,0.073813289403915],[0.38463532924652,-0.13253675401211,-0.59832358360291,-0.17148523032665,-0.68616926670074,-0.75461304187775,-0.42290511727333,-0.2258228957653],[-0.1756185144186,-0.2327987998724,-0.34013226628304,0.37128007411957,1.2191753387451,-0.10797911137342,0.093166619539261,0.1314365118742],[-0.17561939358711,-0.2327997982502,-0.34013321995735,0.37127900123596,1.2191741466522,-0.10798022896051,0.093165501952171,0.1314355880022]],"read_weights":[[0.08553372323513,0.073573023080826,0.073573023080826,0.13075466454029,0.13959600031376,0.13959616422653,0.13959600031376,0.070631332695484,0.073573023080826,0.073573023080826],[0.1045349240303,0.087756045162678,0.087756045162678,0.1346096098423,0.12028937786818,0.12028922140598,0.12028937786818,0.048963457345963,0.087756045162678,0.087755940854549],[0.085408814251423,0.063550636172295,0.063550636172295,0.16204853355885,0.15190500020981,0.151904925704,0.15190500020981,0.042625337839127,0.063550636172295,0.063550561666489],[0.081279397010803,0.10374610126019,0.10374610126019,0.05304978787899,0.064698755741119,0.064698785543442,0.064698755741119,0.2565900683403,0.10374610126019,0.10374621301889]],"gt":[0,1,0],"r_k":[[-0.60254591703415,0.53116142749786,-0.50858700275421,-0.10147494822741,-0.21726575493813,0.61782306432724,0.41789054870605,-0.63141667842865],[0.58484321832657,-0.50954759120941,0.86685073375702,0.45944461226463,0.20714795589447,0.5106560587883,0.91492831707001,-0.23228807747364],[-0.15528252720833,0.020117206498981,0.14159198105335,0.0017263573827222,-0.25377115607262,0.66550034284592,0.80958783626556,0.38841259479523],[0.27365154027939,0.34352445602417,-0.48565575480461,-0.3422189950943,-0.095494076609612,-0.57244747877121,-0.63111007213593,-0.029929682612419]],"pred_proba":[0.17121978104115,0.49512493610382,0.33365520834923]},{"read_out":[[-0.19546718895435,0.078745767474174,-0.27977377176285,0.21680296957493,0.15594652295113,0.10054165869951,0.46584126353264,0.1373752951622],[-0.20918339490891,0.050300091505051,-0.27998468279839,0.24328653514385,0.32124310731888,0.093005955219269,0.44689771533012,0.16322574019432],[-0.24131861329079,0.10137517750263,-0.25600883364677,0.23591740429401,0.16979981958866,0.18430268764496,0.54899555444717,0.1423122882843],[0.033582486212254,-0.010130731388927,-0.36760523915291,0.097125753760338,-0.043619051575661,-0.28806948661804,0.070546895265579,0.10177330672741]],"w_k":[[0.6974071264267,-0.39468106627464,-0.31714433431625,0.69417631626129,-0.8469540476799,-0.65120077133179,-0.34575840830803,-0.035003744065762],[0.6974071264267,-0.39468106627464,-0.31714433431625,0.69417631626129,-0.8469540476799,-0.65120077133179,-0.34575840830803,-0.035003744065762],[0.6974071264267,-0.39468106627464,-0.31714433431625,0.69417631626129,-0.8469540476799,-0.65120077133179,-0.34575840830803,-0.035003744065762],[0.6974071264267,-0.39468106627464,-0.31714433431625,0.69417631626129,-0.8469540476799,-0.65120077133179,-0.34575840830803,-0.035003744065762]],"episode_frame":4,"batch_sel":1,"write_weights":[[0.072874695062637,0.19642329216003,0.19642329216003,0.047564171254635,0.058008577674627,0.058008603751659,0.058008577674627,0.23005735874176,0.19642329216003,0.196423381567],[0.072874695062637,0.19642329216003,0.19642329216003,0.047564171254635,0.058008577674627,0.058008603751659,0.058008577674627,0.23005735874176,0.19642329216003,0.196423381567],[0.072874695062637,0.19642329216003,0.19642329216003,0.047564171254635,0.058008577674627,0.058008603751659,0.058008577674627,0.23005735874176,0.19642329216003,0.196423381567],[0.072874695062637,0.19642329216003,0.19642329216003,0.047564171254635,0.058008577674627,0.058008603751659,0.058008577674627,0.23005735874176,0.19642329216003,0.196423381567]],"input":[0.024268121924251,0.35857174918056,0.59076701058075,0.048817479750142,0.91785945231095,0.65575766772963,0.33067937823944,0.40892961528152,0,1,0],"memory":[[-0.41529697179794,0.032537341117859,-0.15234819054604,0.29423865675926,1.6905611753464,0.30713674426079,0.48653823137283,0.32285380363464],[0.031163170933723,-0.23140671849251,-0.51529848575592,0.3394119143486,0.60369867086411,-0.46570527553558,-0.047346442937851,0.20667523145676],[0.031163170933723,-0.23140671849251,-0.51529848575592,0.3394119143486,0.60369867086411,-0.46570527553558,-0.047346442937851,0.20667523145676],[-0.7169833779335,0.30797052383423,0.14854052662849,0.26711896061897,0.52007555961609,0.97935712337494,1.1767345666885,0.26650750637054],[-0.25743979215622,0.15538015961647,-0.31852656602859,0.28617787361145,-0.10421416163445,0.26410093903542,0.71821284294128,0.085503302514553],[-0.25744062662125,0.15537914633751,-0.31852748990059,0.28617703914642,-0.10421520471573,0.26409980654716,0.71821171045303,0.085502304136753],[-0.25743979215622,0.15538015961647,-0.31852656602859,0.28617787361145,-0.10421416163445,0.26410093903542,0.71821284294128,0.085503302514553],[0.43472787737846,0.040108859539032,-0.55271697044373,-0.3645024895668,-0.94575375318527,-0.92422091960907,-0.52404475212097,-0.094239801168442],[0.031163170933723,-0.23140671849251,-0.51529848575592,0.3394119143486,0.60369867086411,-0.46570527553558,-0.047346442937851,0.20667523145676],[0.20678183436394,0.0013921558856964,-0.1751661002636,-0.03186808526516,-0.61547672748566,-0.35772627592087,-0.14051321148872,0.075238779187202]],"read_weights":[[0.08779701590538,0.057137779891491,0.057137779891491,0.14072017371655,0.14779414236546,0.14779427647591,0.14779414236546,0.080243967473507,0.057137779891491,0.076442986726761],[0.12905962765217,0.083173006772995,0.083173006772995,0.14991131424904,0.11892164498568,0.11892146617174,0.11892164498568,0.053701732307673,0.083173006772995,0.061043590307236],[0.083025902509689,0.045960702002048,0.045960702002048,0.16848091781139,0.16411130130291,0.16411124169827,0.16411130130291,0.052432768046856,0.045960702002048,0.065844535827637],[0.059666313230991,0.096226043999195,0.096226043999195,0.050304282456636,0.064437866210938,0.064437925815582,0.064437866210938,0.22296872735023,0.096226043999195,0.18506893515587]],"gt":[0,1,0],"r_k":[[-0.51442462205887,0.43906682729721,-0.40395405888557,-0.47208106517792,-0.25523695349693,0.62139570713043,0.41203793883324,-0.67436170578003],[0.47303283214569,-0.49002408981323,0.83352643251419,0.27773359417915,0.37233024835587,0.35743674635887,0.89482766389847,-0.28917363286018],[-0.12465422600508,0.090348787605762,0.080021776258945,-0.16399909555912,-0.32492518424988,0.67440986633301,0.75318825244904,0.17525663971901],[0.10054988414049,0.2256626188755,-0.17252412438393,-0.29674497246742,-0.14914172887802,-0.28150242567062,-0.19795751571655,0.004888167604804]],"pred_proba":[0.095291055738926,0.71041244268417,0.19429652392864]},{"read_out":[[-0.25805816054344,0.12631259858608,-0.3261741399765,0.11528231948614,-0.010884258896112,0.092507645487785,0.50483429431915,0.19898009300232],[-0.22187885642052,0.081205673515797,-0.34314748644829,0.1319223344326,0.12306489050388,0.0096446648240089,0.41466385126114,0.22423061728477],[-0.27515780925751,0.13575479388237,-0.32280468940735,0.11685927957296,-0.023283075541258,0.12106361985207,0.53631675243378,0.19724200665951],[-0.12838597595692,0.076844230294228,-0.32995739579201,0.090326830744743,-0.081661134958267,-0.1001949608326,0.29178074002266,0.20712521672249]],"w_k":[[0.65877091884613,-0.40366476774216,-0.38166898488998,0.67835676670074,-0.71486008167267,-0.64890450239182,-0.37811589241028,-0.048081856220961],[0.65877091884613,-0.40366476774216,-0.38166898488998,0.67835676670074,-0.71486008167267,-0.64890450239182,-0.37811589241028,-0.048081856220961],[0.65877091884613,-0.40366476774216,-0.38166898488998,0.67835676670074,-0.71486008167267,-0.64890450239182,-0.37811589241028,-0.048081856220961],[0.65877091884613,-0.40366476774216,-0.38166898488998,0.67835676670074,-0.71486008167267,-0.64890450239182,-0.37811589241028,-0.048081856220961]],"episode_frame":5,"batch_sel":1,"write_weights":[[0.053905423730612,0.086935251951218,0.18348702788353,0.14199909567833,0.058216277509928,0.058216329663992,0.058216277509928,0.29799246788025,0.18348702788353,0.16720020771027],[0.053905423730612,0.086935251951218,0.18348702788353,0.14199909567833,0.058216277509928,0.058216329663992,0.058216277509928,0.29799246788025,0.18348702788353,0.16720020771027],[0.053905423730612,0.086935251951218,0.18348702788353,0.14199909567833,0.058216277509928,0.058216329663992,0.058216277509928,0.29799246788025,0.18348702788353,0.16720020771027],[0.053905423730612,0.086935251951218,0.18348702788353,0.14199909567833,0.058216277509928,0.058216329663992,0.058216277509928,0.29799246788025,0.18348702788353,0.16720020771027]],"input":[0.024268121924251,0.35857174918056,0.59076701058075,0.048817479750142,0.91785945231095,0.65575766772963,0.33067937823944,0.40892961528152,0,1,0],"memory":[[-0.47842198610306,0.072387866675854,-0.19467696547508,0.15397673845291,1.5719683170319,0.30987164378166,0.52103495597839,0.35778868198395],[0.0077398978173733,-0.16734167933464,-0.51941722631454,0.22094401717186,0.47591605782509,-0.49974435567856,-0.049044597893953,0.26210367679596],[0.19229876995087,-0.24263174831867,-0.69751435518265,0.30273866653442,0.083674073219299,-0.78883731365204,-0.20243157446384,0.29500791430473],[-0.64045226573944,0.27200162410736,-0.10704475641251,0.16380916535854,0.027774453163147,0.69908881187439,1.061695933342,0.32041573524475],[-0.34359121322632,0.20177033543587,-0.38381046056747,0.11866402626038,-0.2021259367466,0.24676299095154,0.73023468255997,0.11145034432411],[-0.34359186887741,0.20176930725574,-0.38381135463715,0.11866334080696,-0.2021270096302,0.24676167964935,0.73023337125778,0.11144936829805],[-0.34359121322632,0.20177033543587,-0.38381046056747,0.11866402626038,-0.2021259367466,0.24676299095154,0.73023468255997,0.11145034432411],[0.20556327700615,0.072601243853569,-0.132982224226,-0.086086839437485,-0.61151337623596,-0.42084676027298,-0.23078021407127,0.15435643494129],[0.19229876995087,-0.24263174831867,-0.69751435518265,0.30273866653442,0.083674073219299,-0.78883731365204,-0.20243157446384,0.29500791430473],[0.20673109591007,0.12668405473232,-0.14781899750233,-0.19301535189152,-0.79972946643829,-0.46032783389091,-0.19714003801346,0.17501205205917]],"read_weights":[[0.092726238071918,0.0511858984828,0.046786721795797,0.15487030148506,0.15654000639915,0.1565400660038,0.15654000639915,0.064639247953892,0.046786721795797,0.073384739458561],[0.14548164606094,0.087827637791634,0.073901556432247,0.14108560979366,0.11491476744413,0.11491461843252,0.11491476744413,0.065775327384472,0.073901556432247,0.067282453179359],[0.083523109555244,0.045326221734285,0.042686894536018,0.1720194965601,0.1626987606287,0.16269865632057,0.1626987606287,0.058870926499367,0.042686894536018,0.066790238022804],[0.080411694943905,0.072034135460854,0.076210960745811,0.10680884867907,0.10469538718462,0.10469533503056,0.10469538718462,0.1314042955637,0.076210960745811,0.1428329795599]],"gt":[0,1,0],"r_k":[[-0.56308823823929,0.45883601903915,-0.23214364051819,-0.55539584159851,-0.23543146252632,0.70699048042297,0.50334948301315,-0.64247804880142],[0.37646445631981,-0.43284413218498,0.77388632297516,0.075584776699543,0.40838772058487,0.15410289168358,0.85000765323639,-0.34741598367691],[-0.063910856842995,0.068362727761269,-0.025191660970449,-0.21833467483521,-0.26949539780617,0.60070246458054,0.67293071746826,0.092230692505836],[0.027702981606126,0.15007972717285,0.058343105018139,-0.18937203288078,-0.069339029490948,-0.036019619554281,0.057023424655199,0.16314545273781]],"pred_proba":[0.25338789820671,0.6067710518837,0.13984102010727]},{"read_out":[[-0.29299050569534,0.22498528659344,-0.302888661623,-0.03387026488781,-0.24044197797775,0.07619796693325,0.50191211700439,0.25678268074989],[-0.24405972659588,0.18217162787914,-0.31675073504448,-0.014433559030294,-0.14763773977757,-0.0078340284526348,0.41069334745407,0.27786654233932],[-0.30559876561165,0.23078453540802,-0.3021128475666,-0.033670511096716,-0.24992564320564,0.094294294714928,0.52299267053604,0.25557261705399],[-0.22582133114338,0.20461001992226,-0.29891124367714,-0.036322850733995,-0.30775824189186,-0.0067695863544941,0.40835899114609,0.25687366724014]],"w_k":[[0.61774778366089,-0.31332620978355,-0.28992035984993,0.71925747394562,-0.57774555683136,-0.50981879234314,-0.30413812398911,-0.050129257142544],[0.61774778366089,-0.31332620978355,-0.28992035984993,0.71925747394562,-0.57774555683136,-0.50981879234314,-0.30413812398911,-0.050129257142544],[0.61774778366089,-0.31332620978355,-0.28992035984993,0.71925747394562,-0.57774555683136,-0.50981879234314,-0.30413812398911,-0.050129257142544],[0.61774778366089,-0.31332620978355,-0.28992035984993,0.71925747394562,-0.57774555683136,-0.50981879234314,-0.30413812398911,-0.050129257142544]],"episode_frame":6,"batch_sel":1,"write_weights":[[0.075813494622707,0.12509819865227,0.071852974593639,0.10070117563009,0.09870857000351,0.098708517849445,0.09870857000351,0.18107338249683,0.12903618812561,0.19184853136539],[0.075813494622707,0.12509819865227,0.071852974593639,0.10070117563009,0.09870857000351,0.098708517849445,0.09870857000351,0.18107338249683,0.12903618812561,0.19184853136539],[0.075813494622707,0.12509819865227,0.071852974593639,0.10070117563009,0.09870857000351,0.098708517849445,0.09870857000351,0.18107338249683,0.12903618812561,0.19184853136539],[0.075813494622707,0.12509819865227,0.071852974593639,0.10070117563009,0.09870857000351,0.098708517849445,0.09870857000351,0.18107338249683,0.12903618812561,0.19184853136539]],"input":[0.024268121924251,0.35857174918056,0.59076701058075,0.048817479750142,0.91785945231095,0.65575766772963,0.33067937823944,0.40892961528152,0,1,0],"memory":[[-0.54735565185547,0.15320241451263,-0.19766791164875,0.0026599168777466,1.4078837633133,0.3348061144352,0.57626992464066,0.41312557458878],[0.065883114933968,0.047276809811592,-0.078045018017292,-0.030703954398632,-0.38881412148476,-0.12933740019798,-0.029332913458347,0.074994385242462],[0.16063621640205,-0.17478309571743,-0.68119204044342,0.20600739121437,-0.027669683098793,-0.79202097654343,-0.18550363183022,0.3430740237236],[-0.73506623506546,0.38466793298721,-0.10792430490255,-0.029759243130684,-0.14703072607517,0.70259249210358,1.098555803299,0.39235833287239],[-0.42073684930801,0.30709564685822,-0.38140773773193,-0.049784496426582,-0.36215686798096,0.23499405384064,0.74995237588882,0.18006378412247],[-0.42073732614517,0.30709451436996,-0.38140866160393,-0.049784943461418,-0.3621578514576,0.23499263823032,0.74995094537735,0.18006274104118],[-0.42073684930801,0.30709564685822,-0.38140773773193,-0.049784496426582,-0.36215686798096,0.23499405384064,0.74995237588882,0.18006378412247],[0.2839480638504,0.16339960694313,-0.17983800172806,-0.13818566501141,-1.0337176322937,-0.59144055843353,-0.29508191347122,0.26159742474556],[0.26445773243904,-0.19353340566158,-0.770159304142,0.27844494581223,-0.29871782660484,-0.926598072052,-0.24138970673084,0.37149661779404],[0.28421381115913,0.22672161459923,-0.19086185097694,-0.25364804267883,-1.2325477600098,-0.63695728778839,-0.26535701751709,0.28886669874191]],"read_weights":[[0.1003590747714,0.075121007859707,0.044673785567284,0.15267491340637,0.14908948540688,0.14908948540688,0.14908948540688,0.064683966338634,0.044992454349995,0.070226296782494],[0.1528649777174,0.07647916674614,0.07799868285656,0.13607509434223,0.11093129962683,0.1109311580658,0.11093129962683,0.073482178151608,0.075806848704815,0.074499286711216],[0.089353367686272,0.074577674269676,0.042213372886181,0.16638086736202,0.15298473834991,0.15298460423946,0.15298473834991,0.060024999082088,0.043789159506559,0.064706452190876],[0.085235312581062,0.09763564914465,0.053920704871416,0.14002703130245,0.12640117108822,0.12640102207661,0.12640117108822,0.090981662273407,0.055940128862858,0.097056195139885]],"gt":[0,1,0],"r_k":[[-0.52924680709839,0.58069586753845,-0.12744228541851,-0.6983078122139,-0.14698553085327,0.75849413871765,0.51280581951141,-0.71975255012512],[0.40245684981346,-0.37093624472618,0.76090884208679,0.083442687988281,0.43952539563179,0.068576343357563,0.85443180799484,-0.41677206754684],[0.0013497761683539,0.04799934849143,0.024771785363555,-0.20830443501472,-0.20738242566586,0.53732055425644,0.65571933984756,0.074183575809002],[0.011284877546132,0.13572131097317,0.14261123538017,-0.13511724770069,-0.087640769779682,0.057297717779875,0.16791349649429,0.19226115942001]],"pred_proba":[0.37783199548721,0.4933223426342,0.12884566187859]},{"read_out":[[-0.11119302362204,0.024461690336466,-0.57909506559372,-0.091771602630615,-0.0116176456213,-0.25292590260506,0.2067753970623,0.18097700178623],[0.49233037233353,-0.27038872241974,-0.84173029661179,-0.061253741383553,-0.14340518414974,-0.97194075584412,-0.53369230031967,0.053604196757078],[0.7967272400856,-0.42242619395256,-0.96793574094772,-0.053846381604671,-0.20574988424778,-1.3192825317383,-0.90714192390442,-0.020454520359635],[-0.090897366404533,0.016214923933148,-0.58994323015213,-0.088173933327198,-0.036749802529812,-0.28088334202766,0.18397448956966,0.17927379906178]],"w_k":[[0.87754386663437,-0.69872558116913,-0.89703673124313,0.33003640174866,0.52571451663971,-0.9776166677475,-0.94464129209518,-0.61394774913788],[0.87754386663437,-0.69872558116913,-0.89703673124313,0.33003640174866,0.52571451663971,-0.9776166677475,-0.94464129209518,-0.61394774913788],[0.87754386663437,-0.69872558116913,-0.89703673124313,0.33003640174866,0.52571451663971,-0.9776166677475,-0.94464129209518,-0.61394774913788],[0.87754386663437,-0.69872558116913,-0.89703673124313,0.33003640174866,0.52571451663971,-0.9776166677475,-0.94464129209518,-0.61394774913788]],"episode_frame":7,"batch_sel":1,"write_weights":[[0.038397025316954,0.59350055456161,0.57380771636963,0.063079744577408,0.056941527873278,0.056941460818052,0.056941527873278,0.59050303697586,0.025200055912137,0.59323954582214],[0.038397025316954,0.59350055456161,0.57380771636963,0.063079744577408,0.056941527873278,0.056941460818052,0.056941527873278,0.59050303697586,0.025200055912137,0.59323954582214],[0.038397025316954,0.59350055456161,0.57380771636963,0.063079744577408,0.056941527873278,0.056941460818052,0.056941527873278,0.59050303697586,0.025200055912137,0.59323954582214],[0.038397025316954,0.59350055456161,0.57380771636963,0.063079744577408,0.056941527873278,0.056941460818052,0.056941527873278,0.59050303697586,0.025200055912137,0.59323954582214]],"input":[0.88668120838702,0.17704728432,0.64866059622727,0.035689131822437,0.40335365454666,0.53466736152768,0.74288172461092,0.62602659710683,0,1,0],"memory":[[-0.46282869577408,0.059491485357285,-0.32186859846115,-0.052515033632517,1.4576612710953,0.18110606074333,0.47778278589249,0.39604675769806],[1.2489447593689,-0.73865443468094,-1.1643327474594,-0.02695656940341,-0.078490525484085,-1.7246596813202,-1.4741349220276,-0.26552140712738],[1.1823828220367,-0.77584844827652,-1.0648357868195,0.017288643866777,0.2989219725132,-1.5527957677841,-1.3965775966644,-0.33774003386497],[-0.67375379800797,0.27249842882156,-0.27485176920891,-0.11609628051519,-0.060097254812717,0.47138029336929,0.90621620416641,0.36341312527657],[-0.37136501073837,0.20802576839924,-0.53113776445389,-0.12671867012978,-0.28122964501381,0.025237590074539,0.56995624303818,0.15200100839138],[-0.37136551737785,0.20802471041679,-0.53113853931427,-0.12671904265881,-0.28123068809509,0.02523635327816,0.56995499134064,0.1519999653101],[-0.37136501073837,0.20802576839924,-0.53113776445389,-0.12671867012978,-0.28122964501381,0.025237590074539,0.56995624303818,0.15200100839138],[1.4687949419022,-0.61634266376495,-1.255481004715,-0.12788754701614,-0.73172891139984,-2.1714444160461,-1.7244102954865,-0.075938731431961],[0.30944016575813,-0.23837411403656,-0.83031070232391,0.25073099136353,-0.27849903702736,-1.0057665109634,-0.29403850436211,0.36602273583412],[1.470014333725,-0.55515241622925,-1.2703197002411,-0.24537551403046,-0.9286562204361,-2.2236266136169,-1.7016109228134,-0.049277365207672]],"read_weights":[[0.13675037026405,0.043665610253811,0.044047322124243,0.21284964680672,0.14209720492363,0.14209699630737,0.14209720492363,0.044785391539335,0.045881249010563,0.045728951692581],[0.091868862509727,0.11933998763561,0.11918001621962,0.064802996814251,0.08469807356596,0.084698185324669,0.08469807356596,0.118013843894,0.11417025327682,0.11852981895208],[0.059409461915493,0.16682754456997,0.17107872664928,0.032921612262726,0.047609630972147,0.047609701752663,0.047609630972147,0.15529684722424,0.11942527443171,0.15221162140369],[0.12429225444794,0.044296313077211,0.043425638228655,0.21129609644413,0.14067299664021,0.14067274332047,0.14067299664021,0.047457557171583,0.058821547776461,0.048391848802567]],"gt":[0,0,1],"r_k":[[-0.70302194356918,0.31685096025467,0.71680968999863,-0.32558241486549,-0.01405890006572,0.8092052936554,0.59327602386475,-0.12031305581331],[-0.52575421333313,0.43330219388008,-0.82208204269409,-0.90881168842316,0.42355677485466,-0.86024624109268,-0.82803928852081,0.094375595450401],[0.88660550117493,-0.15019749104977,-0.80812901258469,-0.34884202480316,0.39641720056534,-0.84635198116302,-0.96843576431274,-0.73896825313568],[-0.64723181724548,0.10915607959032,0.96016925573349,0.18208931386471,-0.32160440087318,0.9794225692749,0.9564523100853,0.8958620429039]],"pred_proba":[0.023702412843704,0.0012008086778224,0.97509682178497]},{"read_out":[[-1.1211683750153,0.98994952440262,0.46978640556335,-0.11357321590185,-0.35718542337418,0.86705535650253,1.3054597377777,-0.20594742894173],[-0.74399030208588,0.73756140470505,0.23170378804207,-0.10331489145756,-0.34150412678719,0.44120013713837,0.85899621248245,-0.20048832893372],[-1.1077063083649,0.95949023962021,0.42703321576118,-0.10393872112036,-0.33474573493004,0.85193282365799,1.298498749733,-0.16664779186249],[-1.1201057434082,0.98875290155411,0.46819841861725,-0.1133104711771,-0.3587526679039,0.8658994436264,1.3047264814377,-0.20274528861046]],"w_k":[[-0.83056145906448,0.77164673805237,0.78363627195358,0.85264348983765,0.48550546169281,0.8968198299408,0.95295816659927,-0.12326411157846],[-0.83056145906448,0.77164673805237,0.78363627195358,0.85264348983765,0.48550546169281,0.8968198299408,0.95295816659927,-0.12326411157846],[-0.83056145906448,0.77164673805237,0.78363627195358,0.85264348983765,0.48550546169281,0.8968198299408,0.95295816659927,-0.12326411157846],[-0.83056145906448,0.77164673805237,0.78363627195358,0.85264348983765,0.48550546169281,0.8968198299408,0.95295816659927,-0.12326411157846]],"episode_frame":8,"batch_sel":1,"write_weights":[[0.16702547669411,0.042134720832109,0.041306532919407,0.20098516345024,0.18260686099529,0.18260662257671,0.13380835950375,0.045141700655222,0.10474964976311,0.046030398458242],[0.16702547669411,0.042134720832109,0.041306532919407,0.20098516345024,0.18260686099529,0.18260662257671,0.13380835950375,0.045141700655222,0.10474964976311,0.046030398458242],[0.16702547669411,0.042134720832109,0.041306532919407,0.20098516345024,0.18260686099529,0.18260662257671,0.13380835950375,0.045141700655222,0.10474964976311,0.046030398458242],[0.16702547669411,0.042134720832109,0.041306532919407,0.20098516345024,0.18260686099529,0.18260662257671,0.13380835950375,0.045141700655222,0.10474964976311,0.046030398458242]],"input":[0.024268121924251,0.35857174918056,0.59076701058075,0.048817479750142,0.91785945231095,0.65575766772963,0.33067937823944,0.40892961528152,0,0,1],"memory":[[-1.9516067504883,1.4752818346024,1.0808928012848,-0.13554157316685,0.84599512815475,1.7389189004898,2.1168098449707,-0.17656338214874],[1.0487332344055,-0.5565333366394,-0.96485459804535,-0.0035920515656471,-0.14688532054424,-1.5289739370346,-1.2578619718552,-0.25850030779839],[0.97979748249054,-0.59184300899506,-0.86301946640015,0.040791593492031,0.22927549481392,-1.3550020456314,-1.1777747869492,-0.33010455965996],[-1.0051066875458,0.59948027133942,0.059765368700027,0.044583477079868,-0.030783765017986,0.81868976354599,1.2715754508972,0.35363763570786],[-1.8675565719604,1.6328710317612,0.8798114657402,-0.20218062400818,-0.88695967197418,1.5918889045715,2.2172954082489,-0.42087340354919],[-1.867556810379,1.6328696012497,0.87981021404266,-0.20218122005463,-0.88696080446243,1.5918872356415,2.2172937393188,-0.4208744764328],[-0.61797332763672,0.44883519411087,-0.28308889269829,-0.024415925145149,-0.27801376581192,0.28157177567482,0.84112524986267,0.14314810931683],[1.2735159397125,-0.43787229061127,-1.0608277320862,-0.10328108072281,-0.79578530788422,-1.9798729419708,-1.5132994651794,-0.070441134274006],[-1.4296095371246,1.3513847589493,1.3427810668945,-0.15027385950089,-0.66040796041489,1.4891403913498,1.5712358951569,-0.56303083896637],[1.2754669189453,-0.37709581851959,-1.0764014720917,-0.2201784402132,-0.99151539802551,-2.0325248241425,-1.4912204742432,-0.044366877526045]],"read_weights":[[0.14357204735279,0.034492429345846,0.034019470214844,0.12662537395954,0.15456132590771,0.15456134080887,0.12174002081156,0.036048233509064,0.15692809224129,0.037451703101397],[0.12796074151993,0.07323645055294,0.077408939599991,0.1123011559248,0.12227258086205,0.1222725585103,0.093937061727047,0.068709015846252,0.13467471301556,0.067226767539978],[0.13742482662201,0.030965127050877,0.029752595350146,0.16258065402508,0.14433075487614,0.14433072507381,0.14474867284298,0.033836986869574,0.13740445673466,0.034625262022018],[0.14251959323883,0.033234596252441,0.031965486705303,0.13082157075405,0.15344522893429,0.1534451842308,0.12146722525358,0.037008102983236,0.15736696124077,0.03872612118721]],"gt":[0,1,0],"r_k":[[-0.54028654098511,0.93102371692657,0.31854969263077,-0.90690767765045,-0.2081324160099,0.9417536854744,0.6679151058197,-0.76642102003098],[0.6546436548233,-0.64144676923752,0.98497486114502,0.87608540058136,0.16111874580383,0.5109189748764,0.9530583024025,-0.76283812522888],[-0.50081956386566,0.14752575755119,0.3613346517086,0.43849062919617,-0.3216806948185,0.55089807510376,0.94361841678619,0.6635370850563],[-0.079916782677174,0.53484517335892,0.41601261496544,-0.32439070940018,-0.13153921067715,0.20659343898296,0.46892642974854,-0.014628283679485]],"pred_proba":[0.75707876682281,0.21983630955219,0.023084880784154]},{"read_out":[[-0.95574045181274,1.07774746418,0.70786869525909,-0.29652637243271,-0.7224228978157,0.96040970087051,1.2640454769135,0.039010774344206],[-0.52689278125763,0.76935452222824,0.38919937610626,-0.26701712608337,-0.68330955505371,0.45460689067841,0.7472550868988,0.024909412488341],[-1.044660449028,1.1241210699081,0.76704150438309,-0.29692566394806,-0.71829158067703,1.0892819166183,1.3857914209366,0.086235269904137],[-1.0504240989685,1.1354866027832,0.78103935718536,-0.30015701055527,-0.7372829914093,1.0950725078583,1.3903077840805,0.071978382766247]],"w_k":[[0.51049745082855,-0.15417060256004,0.42757380008698,0.80689078569412,-0.59889733791351,0.46313598752022,-0.094038292765617,0.14045411348343],[0.51049745082855,-0.15417060256004,0.42757380008698,0.80689078569412,-0.59889733791351,0.46313598752022,-0.094038292765617,0.14045411348343],[0.51049745082855,-0.15417060256004,0.42757380008698,0.80689078569412,-0.59889733791351,0.46313598752022,-0.094038292765617,0.14045411348343],[0.51049745082855,-0.15417060256004,0.42757380008698,0.80689078569412,-0.59889733791351,0.46313598752022,-0.094038292765617,0.14045411348343]],"episode_frame":9,"batch_sel":1,"write_weights":[[0.14204931259155,0.036424703896046,0.035159781575203,0.13368965685368,0.15293888747692,0.15293884277344,0.1243661865592,0.036885984241962,0.15684768557549,0.038598332554102],[0.14204931259155,0.036424703896046,0.035159781575203,0.13368965685368,0.15293888747692,0.15293884277344,0.1243661865592,0.036885984241962,0.15684768557549,0.038598332554102],[0.14204931259155,0.036424703896046,0.035159781575203,0.13368965685368,0.15293888747692,0.15293884277344,0.1243661865592,0.036885984241962,0.15684768557549,0.038598332554102],[0.14204931259155,0.036424703896046,0.035159781575203,0.13368965685368,0.15293888747692,0.15293884277344,0.1243661865592,0.036885984241962,0.15684768557549,0.038598332554102]],"input":[0.024268121924251,0.35857174918056,0.59076701058075,0.048817479750142,0.91785945231095,0.65575766772963,0.33067937823944,0.40892961528152,0,1,0],"memory":[[-2.0060298442841,1.7162129878998,1.3783992528915,-0.33605414628983,0.47391605377197,1.998779296875,2.3298583030701,0.077824234962463],[0.98953354358673,-0.38212555646896,-0.75382828712463,-0.12281279265881,-0.49696522951126,-1.2176322937012,-1.0441747903824,-0.090352132916451],[0.91823691129684,-0.41629686951637,-0.65422570705414,-0.080256931483746,-0.12208449840546,-1.0413994789124,-0.9623219370842,-0.16330851614475],[-1.0850942134857,0.92329585552216,0.50065720081329,-0.20339649915695,-0.61358314752579,1.2889779806137,1.6239233016968,0.71253645420074],[-1.9158704280853,1.8809872865677,1.1969394683838,-0.40349307656288,-1.2735087871552,1.8571090698242,2.4332823753357,-0.15173602104187],[-1.9158706665039,1.8809857368469,1.1969382762909,-0.40349358320236,-1.2735098600388,1.8571074008942,2.4332804679871,-0.15173715353012],[-0.066087499260902,0.2976301908493,0.41589498519897,-0.2179516851902,-0.54834306240082,0.441820114851,0.3248470723629,0.33542761206627],[1.2380036115646,-0.35324990749359,-0.98471909761429,-0.18275365233421,-0.91870981454849,-1.8855984210968,-1.4343260526657,-0.00034543126821518],[-1.4825921058655,1.607842206955,1.6593010425568,-0.35795056819916,-1.0578641891479,1.7616237401962,1.7919297218323,-0.29278111457825],[1.241206407547,-0.29179102182388,-0.99757224321365,-0.29933997988701,-1.1159341335297,-1.9381831884384,-1.412379026413,0.02772369608283]],"read_weights":[[0.13596484065056,0.049481689929962,0.048404268920422,0.12201961874962,0.14309456944466,0.14309458434582,0.11326204240322,0.049560312181711,0.14382475614548,0.051293320953846],[0.11463212966919,0.091546624898911,0.098294474184513,0.09906317293644,0.10615332424641,0.10615330189466,0.098604209721088,0.086759194731712,0.11424266546965,0.084550842642784],[0.13251440227032,0.034951359033585,0.03206454962492,0.16596063971519,0.14294663071632,0.14294663071632,0.14135433733463,0.036382265388966,0.13321088254452,0.037668261677027],[0.12646543979645,0.033886294811964,0.030038146302104,0.14964185655117,0.14836664497852,0.14836665987968,0.14610381424427,0.036383062601089,0.14197035133839,0.038777694106102]],"gt":[0,1,0],"r_k":[[-0.29129588603973,0.94916772842407,-0.093370847404003,-0.87432420253754,-0.16104583442211,0.95956814289093,0.22175835072994,-0.85477209091187],[0.89280384778976,-0.72236680984497,0.99046927690506,0.70885479450226,0.4290871322155,-0.04270251467824,0.99392300844193,-0.80805188417435],[-0.42686060070992,0.042762402445078,0.016699096187949,0.21487948298454,-0.51064729690552,0.78700351715088,0.98305106163025,0.67340874671936],[-0.29565063118935,0.40155658125877,0.11387824267149,-0.37163007259369,-0.48782148957253,0.39898836612701,0.51964223384857,0.18508607149124]],"pred_proba":[0.73246037960052,0.26478305459023,0.0027566009666771]},{"read_out":[[-0.87345999479294,1.058368563652,0.75114667415619,-0.39022743701935,-0.66890668869019,0.78323268890381,1.166388630867,0.16331376135349],[0.14930975437164,0.29956412315369,-0.064303860068321,-0.25480309128761,-0.53071928024292,-0.41626262664795,0.014445066452026,0.096846409142017],[1.1168568134308,-0.41175788640976,-0.85208821296692,-0.12369127571583,-0.39378148317337,-1.5745646953583,-1.0781428813934,0.01085050124675],[-0.91791939735413,1.0850956439972,0.79599606990814,-0.40165853500366,-0.7269122004509,0.86475306749344,1.2287108898163,0.20831602811813]],"w_k":[[0.84571582078934,-0.78620082139969,-0.81973516941071,0.6814866065979,0.50530707836151,-0.94397711753845,-0.94851356744766,-0.44824641942978],[0.84571582078934,-0.78620082139969,-0.81973516941071,0.6814866065979,0.50530707836151,-0.94397711753845,-0.94851356744766,-0.44824641942978],[0.84571582078934,-0.78620082139969,-0.81973516941071,0.6814866065979,0.50530707836151,-0.94397711753845,-0.94851356744766,-0.44824641942978],[0.84571582078934,-0.78620082139969,-0.81973516941071,0.6814866065979,0.50530707836151,-0.94397711753845,-0.94851356744766,-0.44824641942978]],"episode_frame":10,"batch_sel":1,"write_weights":[[0.1131521910429,0.13559083640575,0.13214778900146,0.13388878107071,0.13274781405926,0.13274782896042,0.13072319328785,0.13782477378845,0.12702487409115,0.13996730744839],[0.1131521910429,0.13559083640575,0.13214778900146,0.13388878107071,0.13274781405926,0.13274782896042,0.13072319328785,0.13782477378845,0.12702487409115,0.13996730744839],[0.1131521910429,0.13559083640575,0.13214778900146,0.13388878107071,0.13274781405926,0.13274782896042,0.13072319328785,0.13782477378845,0.12702487409115,0.13996730744839],[0.1131521910429,0.13559083640575,0.13214778900146,0.13388878107071,0.13274781405926,0.13274782896042,0.13072319328785,0.13782477378845,0.12702487409115,0.13996730744839]],"input":[0.88668120838702,0.17704728432,0.64866059622727,0.035689131822437,0.40335365454666,0.53466736152768,0.74288172461092,0.62602659710683,0,1,0],"memory":[[-1.8630677461624,1.6684703826904,1.3877470493317,-0.45246583223343,0.43731826543808,1.7643377780914,2.1446716785431,0.20953767001629],[1.9296913146973,-1.0308713912964,-1.487286567688,-0.0087597444653511,-0.1774066388607,-2.3747181892395,-1.9314814805984,-0.13220036029816],[0.94085627794266,-0.64797246456146,-0.7387261390686,0.11518809199333,0.32094290852547,-1.1538333892822,-0.88090837001801,-0.045102968811989],[-0.94203579425812,0.8699254989624,0.5378178358078,-0.34434485435486,-0.65915751457214,1.0244779586792,1.4001934528351,0.87414520978928],[-1.7631623744965,1.8326193094254,1.2223701477051,-0.53049719333649,-1.320293545723,1.6009948253632,2.2227785587311,-0.0016900897026062],[-1.763162612915,1.8326177597046,1.2223690748215,-0.53049772977829,-1.3202947378159,1.6009931564331,2.2227766513824,-0.0016912221908569],[0.07495142519474,0.255715072155,0.45008811354637,-0.34729480743408,-0.59807229042053,0.19808043539524,0.12327536940575,0.48654317855835],[2.1774232387543,-1.0021893978119,-1.7144937515259,-0.069249197840691,-0.60021513700485,-3.0442485809326,-2.3253946304321,-0.040192775428295],[-1.3289855718613,1.5621316432953,1.676092505455,-0.47946459054947,-1.1028827428818,1.514121055603,1.5941722393036,-0.15049839019775],[2.1813571453094,-0.94113856554031,-1.7252426147461,-0.18656824529171,-0.79833281040192,-3.0992660522461,-2.3068828582764,-0.010280195623636]],"read_weights":[[0.17254032194614,0.038753222674131,0.040292210876942,0.12789000570774,0.14387990534306,0.14387987554073,0.099505327641964,0.037929054349661,0.15752953290939,0.0378004796803],[0.098218977451324,0.11544781923294,0.12528681755066,0.082960225641727,0.086262322962284,0.086262315511703,0.090991348028183,0.11234263330698,0.090755984187126,0.11147156357765],[0.036765709519386,0.19708798825741,0.208197504282,0.036460533738136,0.0354761518538,0.03547614812851,0.044114202260971,0.1882506608963,0.034332372248173,0.18383873999119],[0.13807491958141,0.02765766903758,0.025860713794827,0.16088432073593,0.14924117922783,0.14924116432667,0.14004231989384,0.0290547888726,0.15007866919041,0.029864303767681]],"gt":[0,0,1],"r_k":[[-0.23147335648537,0.63109266757965,0.72206008434296,-0.42041978240013,0.53670060634613,0.91855001449585,0.13261549174786,-0.3444589972496],[0.55098640918732,-0.46334281563759,0.75793194770813,-0.43015441298485,0.63022232055664,-0.84451371431351,0.74711084365845,-0.32155707478523],[0.85253202915192,-0.29952278733253,-0.8251439332962,0.46209362149239,0.36839917302132,-0.54043543338776,-0.43249869346619,-0.21473935246468],[-0.71886897087097,0.52848386764526,0.95967978239059,-0.48097461462021,-0.78153002262115,0.97798043489456,0.92732036113739,0.88290357589722]],"pred_proba":[0.0010800652671605,1.7671965906629e-05,0.99890244007111]},{"read_out":[[-1.0688353776932,1.2564857006073,0.78365623950958,-0.2160492837429,-0.57349997758865,0.9403241276741,1.4497587680817,-0.035581771284342],[-0.046846002340317,0.4488343000412,0.0026109367609024,-0.1440684646368,-0.4727863073349,-0.31214159727097,0.22118559479713,-0.037050437182188],[0.8896381855011,-0.27655783295631,-0.71187484264374,-0.094866096973419,-0.41884571313858,-1.474880695343,-0.90300917625427,-0.027234643697739],[-1.1307535171509,1.3133143186569,0.82506901025772,-0.235341116786,-0.6313881278038,1.0082112550735,1.5330445766449,-0.0045638838782907]],"w_k":[[-0.016972566023469,-0.075502969324589,-0.27945175766945,0.87057626247406,0.90176051855087,-0.22370506823063,-0.22502490878105,-0.48534870147705],[-0.016972566023469,-0.075502969324589,-0.27945175766945,0.87057626247406,0.90176051855087,-0.22370506823063,-0.22502490878105,-0.48534870147705],[-0.016972566023469,-0.075502969324589,-0.27945175766945,0.87057626247406,0.90176051855087,-0.22370506823063,-0.22502490878105,-0.48534870147705],[-0.016972566023469,-0.075502969324589,-0.27945175766945,0.87057626247406,0.90176051855087,-0.22370506823063,-0.22502490878105,-0.48534870147705]],"episode_frame":11,"batch_sel":1,"write_weights":[[0.15219865739346,0.027204463258386,0.025436952710152,0.17463429272175,0.1467956751585,0.14679566025734,0.15413382649422,0.028578689321876,0.16400571167469,0.029374938458204],[0.15219865739346,0.027204463258386,0.025436952710152,0.17463429272175,0.1467956751585,0.14679566025734,0.15413382649422,0.028578689321876,0.16400571167469,0.029374938458204],[0.15219865739346,0.027204463258386,0.025436952710152,0.17463429272175,0.1467956751585,0.14679566025734,0.15413382649422,0.028578689321876,0.16400571167469,0.029374938458204],[0.15219865739346,0.027204463258386,0.025436952710152,0.17463429272175,0.1467956751585,0.14679566025734,0.15413382649422,0.028578689321876,0.16400571167469,0.029374938458204]],"input":[0.88668120838702,0.17704728432,0.64866059622727,0.035689131822437,0.40335365454666,0.53466736152768,0.74288172461092,0.62602659710683,0,0,1],"memory":[[-2.0619294643402,1.9656487703323,1.4012689590454,-0.21807315945625,0.52308118343353,1.9711228609085,2.541540145874,-0.09478847682476],[1.796738743782,-0.99414706230164,-1.3747910261154,-0.036461941897869,-0.26328784227371,-2.4227733612061,-1.9207062721252,-0.097456946969032],[0.80242270231247,-0.61079794168472,-0.6230543255806,0.085384979844093,0.22839063405991,-1.2052210569382,-0.87019902467728,-0.011232189834118],[-1.1537067890167,1.1827945709229,0.58084082603455,-0.13578346371651,-0.59286719560623,1.2460262775421,1.8133980035782,0.60247147083282],[-1.8710416555405,1.9651139974594,1.3307106494904,-0.47921344637871,-1.2629287242889,1.6888498067856,2.3584694862366,0.024281814694405],[-1.871041893959,1.9651124477386,1.3307095766068,-0.47921401262283,-1.2629299163818,1.6888481378555,2.3584675788879,0.024280671030283],[-0.20373012125492,0.29962208867073,0.03391770273447,0.19169896841049,0.041800417006016,0.21193826198578,0.40250563621521,-0.27468684315681],[2.0489315986633,-0.96447169780731,-1.6052515506744,-0.095730289816856,-0.68216955661774,-3.0877873897552,-2.3119111061096,-0.0064115524291992],[-1.5333062410355,1.8675065040588,1.7021964788437,-0.25346505641937,-1.0216258764267,1.7288777828217,1.9995322227478,-0.44135186076164],[2.055037021637,-0.90265023708344,-1.6176722049713,-0.21238471567631,-0.87837934494019,-3.1402428150177,-2.2916049957275,0.022778164595366]],"read_weights":[[0.15702456235886,0.032889500260353,0.032251108437777,0.13181054592133,0.14704148471355,0.14704148471355,0.13047501444817,0.033049672842026,0.15496304631233,0.033453665673733],[0.09786207228899,0.11134200543165,0.1221830919385,0.082012489438057,0.085902236402035,0.085902228951454,0.10829129815102,0.10741865634918,0.093147426843643,0.1059385612607],[0.041610661894083,0.1892247647047,0.19893756508827,0.041146665811539,0.038218017667532,0.038218017667532,0.056713994592428,0.1808508336544,0.037535410374403,0.17754416167736],[0.14214749634266,0.029853293672204,0.028205312788486,0.16413503885269,0.15988138318062,0.15988138318062,0.098086468875408,0.031327705830336,0.15430681407452,0.032175131142139]],"gt":[0,0,1],"r_k":[[-0.53515660762787,0.8912605047226,0.70882701873779,-0.91562014818192,0.26848372817039,0.95756822824478,0.56099855899811,-0.7202867269516],[0.62428134679794,-0.49559217691422,0.82591086626053,-0.043422512710094,0.61225479841232,-0.75191783905029,0.77297759056091,-0.60607969760895],[0.79679417610168,-0.37504529953003,-0.7080295085907,0.065208159387112,0.39793822169304,-0.6281144618988,-0.033892225474119,-0.13185200095177],[-0.61845809221268,0.56328111886978,0.9695640206337,-0.32441174983978,-0.74527931213379,0.98277682065964,0.9269158244133,0.87240159511566]],"pred_proba":[0.0055798823013902,2.9029417419224e-05,0.99439096450806]},{"read_out":[[-1.1254299879074,1.3603913784027,0.8748671412468,-0.24045750498772,-0.53458470106125,0.95697402954102,1.5354669094086,0.06013723090291],[0.026396587491035,0.38433080911636,-0.03809629380703,-0.1449631601572,-0.42998972535133,-0.44949263334274,0.13085880875587,0.038284029811621],[0.83827823400497,-0.29822438955307,-0.68186819553375,-0.08189956843853,-0.36831378936768,-1.4474849700928,-0.85863161087036,0.02473596855998],[-1.2043527364731,1.4306687116623,0.92902767658234,-0.25330626964569,-0.58790236711502,1.0522471666336,1.6419996023178,0.087934441864491]],"w_k":[[0.20577709376812,-0.34149178862572,-0.45685240626335,0.82977831363678,0.9331716299057,-0.44655540585518,-0.62947499752045,-0.39767867326736],[0.20577709376812,-0.34149178862572,-0.45685240626335,0.82977831363678,0.9331716299057,-0.44655540585518,-0.62947499752045,-0.39767867326736],[0.20577709376812,-0.34149178862572,-0.45685240626335,0.82977831363678,0.9331716299057,-0.44655540585518,-0.62947499752045,-0.39767867326736],[0.20577709376812,-0.34149178862572,-0.45685240626335,0.82977831363678,0.9331716299057,-0.44655540585518,-0.62947499752045,-0.39767867326736]],"episode_frame":12,"batch_sel":1,"write_weights":[[0.14047811925411,0.02950269728899,0.039618033915758,0.16220743954182,0.15800374746323,0.15800374746323,0.10867850482464,0.042703755199909,0.15249463915825,0.043541230261326],[0.14047811925411,0.02950269728899,0.039618033915758,0.16220743954182,0.15800374746323,0.15800374746323,0.10867850482464,0.042703755199909,0.15249463915825,0.043541230261326],[0.14047811925411,0.02950269728899,0.039618033915758,0.16220743954182,0.15800374746323,0.15800374746323,0.10867850482464,0.042703755199909,0.15249463915825,0.043541230261326],[0.14047811925411,0.02950269728899,0.039618033915758,0.16220743954182,0.15800374746323,0.15800374746323,0.10867850482464,0.042703755199909,0.15249463915825,0.043541230261326]],"input":[0.88668120838702,0.17704728432,0.64866059622727,0.035689131822437,0.40335365454666,0.53466736152768,0.74288172461092,0.62602659710683,0,0,1],"memory":[[-2.0875000953674,2.039900302887,1.462796330452,-0.19313216209412,0.63165146112442,1.9924635887146,2.6009843349457,-0.035419695079327],[1.7370854616165,-1.0120843648911,-1.2888705730438,-0.10661070793867,-0.34127548336983,-2.4966247081757,-1.9560723304749,0.00069180130958557],[0.82118207216263,-0.66360712051392,-0.68518179655075,0.087333559989929,0.18013966083527,-1.3449240922928,-0.89326572418213,0.016463341191411],[-1.1943783760071,1.2749426364899,0.67274075746536,-0.12694749236107,-0.48630779981613,1.2787479162216,1.888240814209,0.68571925163269],[-1.9058619737625,2.052435874939,1.4115104675293,-0.46044045686722,-1.1482994556427,1.718300819397,2.4280178546906,0.098214447498322],[-1.9058622121811,2.0524342060089,1.4115093946457,-0.46044102311134,-1.1483006477356,1.7182991504669,2.4280159473419,0.09821330010891],[0.062492579221725,0.013791680335999,-0.10994091629982,0.089945867657661,0.10253955423832,-0.057601470500231,0.05271653085947,-0.029138766229153],[2.0708544254303,-1.0133126974106,-1.6708210706711,-0.08517462015152,-0.71647590398788,-3.2207686901093,-2.3321914672852,0.015386635437608],[-1.5630441904068,1.9509757757187,1.7734754085541,-0.23020786046982,-0.90636485815048,1.7567056417465,2.067046880722,-0.37481155991554],[2.0777387619019,-0.95032751560211,-1.6840635538101,-0.20044682919979,-0.91030555963516,-3.2714910507202,-2.3105275630951,0.043433465063572]],"read_weights":[[0.17096185684204,0.038165040314198,0.037331290543079,0.14092057943344,0.15688654780388,0.15688654780388,0.055878452956676,0.037935301661491,0.16678737103939,0.038246996700764],[0.091990023851395,0.11358299106359,0.12305723875761,0.077878847718239,0.081938661634922,0.081938661634922,0.1223457083106,0.11025063693523,0.087864272296429,0.10915299504995],[0.035642363131046,0.16864804923534,0.18263605237007,0.034463815391064,0.031994141638279,0.031994141638279,0.15858979523182,0.16394083201885,0.031767640262842,0.16032323241234],[0.15027667582035,0.032637156546116,0.030602851882577,0.17471285164356,0.17071436345577,0.17071436345577,0.038280066102743,0.033548146486282,0.16408821940422,0.034425258636475]],"gt":[0,0,1],"r_k":[[-0.47959157824516,0.8556963801384,0.71857023239136,-0.90764158964157,0.42270180583,0.96075171232224,0.44201099872589,-0.74753659963608],[0.62601721286774,-0.50181823968887,0.76975727081299,-0.33855307102203,0.61995446681976,-0.82012933492661,0.7089204788208,-0.6271168589592],[0.75970280170441,-0.52841639518738,-0.70418298244476,0.17918694019318,0.45451727509499,-0.64881640672684,-0.15466086566448,-0.14601980149746],[-0.69359290599823,0.52699947357178,0.97098934650421,-0.33418491482735,-0.78481543064117,0.99074631929398,0.95088869333267,0.90030497312546]],"pred_proba":[0.0075020953081548,3.8480990042444e-05,0.99245923757553]},{"read_out":[[-1.1859486103058,1.4310539960861,0.90074789524078,-0.16125272214413,-0.38998532295227,1.0405303239822,1.6211712360382,0.029226019978523],[-0.2972237765789,0.63482862710953,0.20243887603283,-0.12446776777506,-0.37222194671631,-0.084059715270996,0.49637776613235,0.043418809771538],[0.49953854084015,-0.03462789952755,-0.42346620559692,-0.11096464842558,-0.41164991259575,-1.1360325813293,-0.49996298551559,0.064014568924904],[-1.2257194519043,1.4732266664505,0.92409497499466,-0.1638879776001,-0.42193579673767,1.0915890932083,1.6839932203293,0.045630313456059]],"w_k":[[0.14840073883533,-0.22449997067451,-0.38735145330429,0.84936201572418,0.93870627880096,-0.3167085647583,-0.47980585694313,-0.46731916069984],[0.14840073883533,-0.22449997067451,-0.38735145330429,0.84936201572418,0.93870627880096,-0.3167085647583,-0.47980585694313,-0.46731916069984],[0.14840073883533,-0.22449997067451,-0.38735145330429,0.84936201572418,0.93870627880096,-0.3167085647583,-0.47980585694313,-0.46731916069984],[0.14840073883533,-0.22449997067451,-0.38735145330429,0.84936201572418,0.93870627880096,-0.3167085647583,-0.47980585694313,-0.46731916069984]],"episode_frame":13,"batch_sel":1,"write_weights":[[0.14897511899471,0.041015516966581,0.030337799340487,0.18186068534851,0.17789682745934,0.17789682745934,0.037948522716761,0.033257585018873,0.16266705095768,0.034127101302147],[0.14897511899471,0.041015516966581,0.030337799340487,0.18186068534851,0.17789682745934,0.17789682745934,0.037948522716761,0.033257585018873,0.16266705095768,0.034127101302147],[0.14897511899471,0.041015516966581,0.030337799340487,0.18186068534851,0.17789682745934,0.17789682745934,0.037948522716761,0.033257585018873,0.16266705095768,0.034127101302147],[0.14897511899471,0.041015516966581,0.030337799340487,0.18186068534851,0.17789682745934,0.17789682745934,0.037948522716761,0.033257585018873,0.16266705095768,0.034127101302147]],"input":[0.88668120838702,0.17704728432,0.64866059622727,0.035689131822437,0.40335365454666,0.53466736152768,0.74288172461092,0.62602659710683,0,0,1],"memory":[[-2.153520822525,2.1556072235107,1.5374069213867,-0.15600129961967,0.7628168463707,2.0700407028198,2.7037029266357,-0.0097344666719437],[-0.068555079400539,0.064631581306458,-0.013818170875311,0.037751514464617,-0.043971497565508,-0.036631569266319,0.059546507894993,-0.075094625353813],[0.73764485120773,-0.63723826408386,-0.59161651134491,0.014573618769646,0.081083208322525,-1.3792502880096,-0.88080209493637,0.085691571235657],[-1.2675580978394,1.4472966194153,0.67588090896606,-0.0052809044718742,-0.31349834799767,1.3649779558182,2.0561237335205,0.59802293777466],[-1.9734262228012,2.2210125923157,1.404424071312,-0.32863867282867,-0.96747505664825,1.8019168376923,2.5914881229401,0.00064139068126678],[-1.9734264612198,2.2210109233856,1.4044229984283,-0.32863926887512,-0.96747624874115,1.8019151687622,2.5914862155914,0.00064024329185486],[-0.011520400643349,0.047498166561127,-0.029559083282948,0.034566722810268,0.031260676681995,-0.078020483255386,0.075188241899014,0.026056200265884],[1.9930555820465,-0.98565852642059,-1.5829671621323,-0.14904673397541,-0.79939210414886,-3.2489659786224,-2.3180871009827,0.079641468822956],[-1.6355849504471,2.0774428844452,1.8593498468399,-0.19614544510841,-0.76755273342133,1.8438328504562,2.1804144382477,-0.34074774384499],[2.0011143684387,-0.92173856496811,-1.5974838733673,-0.26288211345673,-0.99039661884308,-3.2976925373077,-2.294980764389,0.10648392885923]],"read_weights":[[0.15701100230217,0.093718394637108,0.034137841314077,0.1332638412714,0.14762580394745,0.14762580394745,0.060127552598715,0.035073358565569,0.15598165988922,0.03543471544981],[0.096238531172276,0.098085284233093,0.11983730643988,0.083064325153828,0.086310207843781,0.0863102003932,0.12427257746458,0.1073731854558,0.092256650328636,0.10625168681145],[0.047066610306501,0.071563892066479,0.20734941959381,0.046852134168148,0.042742118239403,0.042742110788822,0.12445805221796,0.18977406620979,0.041525367647409,0.18592627346516],[0.13975292444229,0.075635157525539,0.029984556138515,0.1582368761301,0.15678857266903,0.15678857266903,0.063595622777939,0.032191853970289,0.1539811193943,0.03304473310709]],"gt":[0,0,1],"r_k":[[-0.46183934807777,0.86791431903839,0.72349941730499,-0.92521721124649,0.37482738494873,0.95747166872025,0.49005573987961,-0.77589076757431],[0.67066144943237,-0.54317623376846,0.83187502622604,-0.28490990400314,0.64051580429077,-0.80715727806091,0.81447458267212,-0.67555391788483],[0.76281023025513,-0.53235733509064,-0.69751882553101,0.11373190581799,0.43890398740768,-0.62175810337067,0.015759503468871,-0.11084650456905],[-0.63509184122086,0.52624797821045,0.9651643037796,-0.2986923456192,-0.78706401586533,0.98808324337006,0.94170546531677,0.87233233451843]],"pred_proba":[0.01629981584847,9.0210392954759e-05,0.98360979557037]},{"read_out":[[-1.1162322759628,1.3349618911743,0.84452247619629,-0.17426387965679,-0.28030028939247,1.0525615215302,1.5159579515457,0.042225323617458],[-0.68534070253372,0.95879429578781,0.5112042427063,-0.17526543140411,-0.3077803850174,0.45260119438171,0.96768069267273,0.063434854149818],[-0.51157587766647,0.79386460781097,0.36372131109238,-0.16881918907166,-0.31059673428535,0.22753672301769,0.74930560588837,0.080381460487843],[-1.1399363279343,1.3608030080795,0.86046755313873,-0.1780192553997,-0.3012603521347,1.0833730697632,1.554428935051,0.057045329362154]],"w_k":[[0.22960756719112,-0.23192404210567,-0.30167233943939,0.85389512777328,0.87156361341476,-0.017598323523998,-0.37385123968124,-0.4020728468895],[0.22960756719112,-0.23192404210567,-0.30167233943939,0.85389512777328,0.87156361341476,-0.017598323523998,-0.37385123968124,-0.4020728468895],[0.22960756719112,-0.23192404210567,-0.30167233943939,0.85389512777328,0.87156361341476,-0.017598323523998,-0.37385123968124,-0.4020728468895],[0.22960756719112,-0.23192404210567,-0.30167233943939,0.85389512777328,0.87156361341476,-0.017598323523998,-0.37385123968124,-0.4020728468895]],"episode_frame":14,"batch_sel":1,"write_weights":[[0.13925877213478,0.078903585672379,0.029878534376621,0.1576773673296,0.15623418986797,0.15623418986797,0.066906623542309,0.035613894462585,0.1534366607666,0.036463759839535],[0.13925877213478,0.078903585672379,0.029878534376621,0.1576773673296,0.15623418986797,0.15623418986797,0.066906623542309,0.035613894462585,0.1534366607666,0.036463759839535],[0.13925877213478,0.078903585672379,0.029878534376621,0.1576773673296,0.15623418986797,0.15623418986797,0.066906623542309,0.035613894462585,0.1534366607666,0.036463759839535],[0.13925877213478,0.078903585672379,0.029878534376621,0.1576773673296,0.15623418986797,0.15623418986797,0.066906623542309,0.035613894462585,0.1534366607666,0.036463759839535]],"input":[0.4182476636488,0.46262968238443,0.30720432312228,0.26398297422566,0.41417853906751,0.69205787475221,0.43470242479816,0.29728143755347,0,0,1],"memory":[[-2.2362797260284,2.2947096824646,1.6062735319138,-0.19055050611496,0.83575963973999,2.1960968971252,2.8294851779938,0.013910487294197],[-0.1402679681778,0.19135202467442,-0.0010732300579548,0.019269876182079,-0.050772421061993,0.095670089125633,0.17657068371773,-0.10773475468159],[0.64714169502258,-0.56505316495895,-0.48160696029663,-0.13628700375557,-0.080469042062759,-1.3657534122467,-0.82058477401733,0.1739876717329],[-1.36510181427,1.600022315979,0.77027004957199,-0.059539586305618,-0.24099108576775,1.4939712285995,2.1921935081482,0.64287739992142],[-2.0663681030273,2.371673822403,1.4901471138,-0.3718281686306,-0.88539361953735,1.9335891008377,2.7258386611938,0.03685150295496],[-2.0663683414459,2.3716721534729,1.4901460409164,-0.37182876467705,-0.88539481163025,1.9335874319077,2.7258367538452,0.036850348114967],[-0.10127650201321,0.18116304278374,0.007299579679966,-0.038708083331585,-0.050802379846573,0.04360593855381,0.20172387361526,0.020152628421783],[1.8985379934311,-0.88590377569199,-1.5142695903778,-0.24767790734768,-0.93705666065216,-3.1828517913818,-2.2372632026672,0.10696599632502],[-1.7253371477127,2.2272298336029,1.9376659393311,-0.23429852724075,-0.68400597572327,1.9780648946762,2.315309047699,-0.31113389134407],[-0.093635693192482,0.10001362860203,0.067117154598236,-0.096402123570442,-0.13415496051311,0.067417554557323,0.081371083855629,0.025803865864873]],"read_weights":[[0.12528704106808,0.11953286081553,0.028291458263993,0.11011386662722,0.12175946682692,0.12175946682692,0.10738287121058,0.029450511559844,0.12684978544712,0.10957266390324],[0.10698050260544,0.095322400331497,0.12195026129484,0.093693539500237,0.096218191087246,0.096218183636665,0.095406070351601,0.11021453142166,0.10324229300022,0.080754026770592],[0.092252127826214,0.091826111078262,0.1462640017271,0.098246425390244,0.085627809166908,0.085627809166908,0.10804732143879,0.13444660604,0.078813828527927,0.078847974538803],[0.1136699616909,0.09178002178669,0.026047585532069,0.12814582884312,0.12712869048119,0.12712867558002,0.10784972459078,0.026681184768677,0.12598912417889,0.12557931244373]],"gt":[1,0,0],"r_k":[[-0.49067348241806,0.88817512989044,0.52507919073105,-0.94717425107956,0.22901350259781,0.94928109645844,0.49913123250008,-0.83564788103104],[0.7890105843544,-0.66738677024841,0.93761497735977,-0.042696863412857,0.67245405912399,-0.73871433734894,0.95890378952026,-0.78900629281998],[0.33931371569633,-0.5781124830246,-0.59448486566544,-0.11895263195038,0.28139153122902,-0.23240026831627,0.70958131551743,0.13205248117447],[-0.42606237530708,0.43387660384178,0.89155650138855,-0.19543245434761,-0.69351756572723,0.95001626014709,0.8575484752655,0.71664822101593]],"pred_proba":[0.66121244430542,0.051648393273354,0.28713917732239]},{"read_out":[[-1.0683362483978,1.3296211957932,0.85309112071991,-0.20906387269497,-0.20582155883312,1.0952826738358,1.4216850996017,0.053818635642529],[-0.80582457780838,1.1347968578339,0.65918457508087,-0.22481878101826,-0.27733626961708,0.72634130716324,1.0981122255325,0.0749766305089],[-0.62634509801865,0.98672211170197,0.50998824834824,-0.22723111510277,-0.31260818243027,0.48425841331482,0.87951129674911,0.09573221206665],[-1.1378368139267,1.4046238660812,0.90687453746796,-0.21692222356796,-0.22905033826828,1.1753017902374,1.5207134485245,0.07030738145113]],"w_k":[[0.39140769839287,-0.51113641262054,-0.54396986961365,0.90304946899414,0.97279959917068,-0.038836359977722,-0.6275549530983,-0.56058299541473],[0.39140769839287,-0.51113641262054,-0.54396986961365,0.90304946899414,0.97279959917068,-0.038836359977722,-0.6275549530983,-0.56058299541473],[0.39140769839287,-0.51113641262054,-0.54396986961365,0.90304946899414,0.97279959917068,-0.038836359977722,-0.6275549530983,-0.56058299541473],[0.39140769839287,-0.51113641262054,-0.54396986961365,0.90304946899414,0.97279959917068,-0.038836359977722,-0.6275549530983,-0.56058299541473]],"episode_frame":15,"batch_sel":1,"write_weights":[[0.11332892626524,0.091504663228989,0.028969638049603,0.12776136398315,0.12674728035927,0.12674726545811,0.10752615332603,0.029601335525513,0.12861132621765,0.12820275127888],[0.11332892626524,0.091504663228989,0.028969638049603,0.12776136398315,0.12674728035927,0.12674726545811,0.10752615332603,0.029601335525513,0.12861132621765,0.12820275127888],[0.11332892626524,0.091504663228989,0.028969638049603,0.12776136398315,0.12674728035927,0.12674726545811,0.10752615332603,0.029601335525513,0.12861132621765,0.12820275127888],[0.11332892626524,0.091504663228989,0.028969638049603,0.12776136398315,0.12674728035927,0.12674726545811,0.10752615332603,0.029601335525513,0.12861132621765,0.12820275127888]],"input":[0.4182476636488,0.46262968238443,0.30720432312228,0.26398297422566,0.41417853906751,0.69205787475221,0.43470242479816,0.29728143755347,1,0,0],"memory":[[-2.2749874591827,2.3887991905212,1.6483991146088,-0.22748309373856,0.91296297311783,2.3159265518188,2.8735353946686,0.01092435978353],[-0.16621309518814,0.26427355408669,0.032916847616434,-0.012065529823303,0.0086682997643948,0.19081547856331,0.20508326590061,-0.10865021497011],[0.070455074310303,-0.0032097026705742,0.085383519530296,-0.14215238392353,-0.15018710494041,-0.02247091755271,-0.10769639909267,0.10771781206131],[-1.4194934368134,1.7048107385635,0.83632785081863,-0.10735845565796,-0.15704780817032,1.6148250102997,2.2373101711273,0.65364682674408],[-2.1158180236816,2.4725861549377,1.5420178174973,-0.40497130155563,-0.78708696365356,2.0599069595337,2.770712852478,0.034177750349045],[-2.1158182621002,2.4725844860077,1.5420167446136,-0.40497189760208,-0.78708815574646,2.0599052906036,2.7707109451294,0.034176591783762],[-0.14275869727135,0.27146166563034,0.066804595291615,-0.091213241219521,0.004334844648838,0.14558091759682,0.23802740871906,0.036119464784861],[1.9687347412109,-0.89479684829712,-1.4323108196259,-0.3768390417099,-1.07091319561,-3.2077877521515,-2.3509948253632,0.20869424939156],[-1.6924768686295,2.2569320201874,2.0111753940582,-0.27799606323242,-0.60969865322113,2.0469288825989,2.2074179649353,-0.27625066041946],[-0.067054972052574,0.12477093189955,0.15519526600838,-0.14197543263435,-0.059384554624557,0.12188143283129,-0.036189615726471,0.07171569019556]],"read_weights":[[0.11719029396772,0.12592871487141,0.054291360080242,0.10238897055387,0.11267820745707,0.11267820745707,0.11649976670742,0.03171880915761,0.11879277229309,0.10783287882805],[0.11137560755014,0.098313570022583,0.090304061770439,0.098482348024845,0.10074424743652,0.10074423998594,0.097717776894569,0.11424943059683,0.1074954867363,0.080573216080666],[0.099359676241875,0.09408113360405,0.10016217082739,0.10620661079884,0.092622213065624,0.092622198164463,0.10218504816294,0.15971232950687,0.085270293056965,0.06777835637331],[0.11104843765497,0.094190664589405,0.064882308244705,0.12418048083782,0.12266541272402,0.12266539782286,0.10784104466438,0.026339329779148,0.12308365106583,0.10310324281454]],"gt":[1,0,0],"r_k":[[-0.24896094202995,0.80888855457306,0.48502451181412,-0.92509579658508,0.31478813290596,0.91389441490173,0.34443873167038,-0.87967193126678],[0.79266577959061,-0.64290499687195,0.93641841411591,0.055679194629192,0.64367002248764,-0.75027537345886,0.96164363622665,-0.7500137090683],[0.4621756374836,-0.51397907733917,-0.4847546517849,-0.012670017778873,0.22549204528332,-0.16855870187283,0.58221197128296,0.15245096385479],[-0.30364936590195,0.23652021586895,0.81519722938538,-0.032361380755901,-0.57202970981598,0.85809874534607,0.84101617336273,0.55212819576263]],"pred_proba":[0.60132300853729,0.065696619451046,0.3329803943634]},{"read_out":[[-1.001026391983,1.3439184427261,0.83374238014221,-0.15058806538582,-0.047744728624821,1.0371832847595,1.3408709764481,0.086891390383244],[-0.41335240006447,0.76485240459442,0.36388808488846,-0.093341544270515,-0.03516923636198,0.30960291624069,0.58422380685806,0.088530533015728],[0.3025096654892,0.020666655153036,-0.2057119756937,-0.0082657868042588,0.016427714377642,-0.53664970397949,-0.35543110966682,0.078597716987133],[-1.2555954456329,1.6280852556229,1.0233414173126,-0.18386276066303,-0.11835457384586,1.3241978883743,1.6968160867691,0.106918156147]],"w_k":[[0.5818076133728,-0.7943976521492,-0.84848511219025,0.90245670080185,0.99013966321945,-0.66317743062973,-0.89189016819,-0.58996641635895],[0.5818076133728,-0.7943976521492,-0.84848511219025,0.90245670080185,0.99013966321945,-0.66317743062973,-0.89189016819,-0.58996641635895],[0.5818076133728,-0.7943976521492,-0.84848511219025,0.90245670080185,0.99013966321945,-0.66317743062973,-0.89189016819,-0.58996641635895],[0.5818076133728,-0.7943976521492,-0.84848511219025,0.90245670080185,0.99013966321945,-0.66317743062973,-0.89189016819,-0.58996641635895]],"episode_frame":16,"batch_sel":1,"write_weights":[[0.13182559609413,0.11536183208227,0.086738489568233,0.12127805501223,0.119798399508,0.11979838460684,0.12869316339493,0.025723710656166,0.12020686268806,0.10069344937801],[0.13182559609413,0.11536183208227,0.086738489568233,0.12127805501223,0.119798399508,0.11979838460684,0.12869316339493,0.025723710656166,0.12020686268806,0.10069344937801],[0.13182559609413,0.11536183208227,0.086738489568233,0.12127805501223,0.119798399508,0.11979838460684,0.12869316339493,0.025723710656166,0.12020686268806,0.10069344937801],[0.13182559609413,0.11536183208227,0.086738489568233,0.12127805501223,0.119798399508,0.11979838460684,0.12869316339493,0.025723710656166,0.12020686268806,0.10069344937801]],"input":[0.88668120838702,0.17704728432,0.64866059622727,0.035689131822437,0.40335365454666,0.53466736152768,0.74288172461092,0.62602659710683,1,0,0],"memory":[[-1.7522530555725,1.9038326740265,1.278799533844,-0.015938237309456,1.2747893333435,1.7103675603867,2.1617412567139,0.048231713473797],[0.35711777210236,-0.23427402973175,-0.34138852357864,0.20360603928566,0.36230990290642,-0.42817965149879,-0.51460385322571,-0.076987162232399],[0.50782364606857,-0.48750826716423,-0.34741407632828,0.17667073011398,0.28882372379303,-0.61796563863754,-0.69305366277695,0.054091680794954],[-1.369131565094,1.7220257520676,0.81587624549866,-0.085589811205864,-0.036045968532562,1.625657081604,2.1854519844055,0.67666339874268],[-2.0616166591644,2.488776922226,1.5122637748718,-0.37415492534637,-0.65817224979401,2.0733313560486,2.7231276035309,0.047587189823389],[-2.061616897583,2.4887752532959,1.5122627019882,-0.37415552139282,-0.6581734418869,2.0733296871185,2.7231256961823,0.047586020082235],[0.37359032034874,-0.21873837709427,-0.29705831408501,0.11959785223007,0.36370345950127,-0.46564194560051,-0.48343819379807,0.075398921966553],[2.0421514511108,-0.90634858608246,-1.4443331956863,-0.42355009913445,-1.0989490747452,-3.2583470344543,-2.3805205821991,0.26962280273438],[-1.633439540863,2.2742714881897,1.9742277860641,-0.24227721989155,-0.47581177949905,2.063366651535,2.165328502655,-0.26839131116867],[-0.020535800606012,0.13458606600761,0.12366539984941,-0.10620528459549,0.059468127787113,0.13290214538574,-0.07930950820446,0.074599541723728]],"read_weights":[[0.13883130252361,0.052825938910246,0.047857284545898,0.11698676645756,0.12661482393742,0.12661482393742,0.051240991801023,0.044583089649677,0.13815830647945,0.1562866717577],[0.098274052143097,0.11646092683077,0.1207979246974,0.083598785102367,0.086519949138165,0.086519949138165,0.12007950991392,0.11431163549423,0.09152839332819,0.081908814609051],[0.037596933543682,0.2080170661211,0.2053959518671,0.033839497715235,0.031775005161762,0.031775001436472,0.20415751636028,0.16838636994362,0.031852018088102,0.047204617410898],[0.1345656812191,0.027671489864588,0.030129486694932,0.15955138206482,0.157800167799,0.157800167799,0.029530148953199,0.03469430282712,0.1564044803381,0.11185268312693]],"gt":[0,0,1],"r_k":[[-0.054087471216917,0.48030486702919,0.60963869094849,-0.83044511079788,0.54899775981903,0.85582113265991,0.028117321431637,-0.68384397029877],[0.5639973282814,-0.51818239688873,0.79119962453842,-0.41340154409409,0.56565165519714,-0.82714283466339,0.65763711929321,-0.51720708608627],[0.81809228658676,-0.59516882896423,-0.68961215019226,0.25675654411316,0.48105359077454,-0.62618184089661,-0.51257586479187,-0.16469413042068],[-0.53552335500717,0.25625142455101,0.94666051864624,-0.26828408241272,-0.6107143163681,0.95792347192764,0.9274822473526,0.77177399396896]],"pred_proba":[0.0053434586152434,0.00013537239283323,0.99452096223831]},{"read_out":[[-1.1944012641907,1.4828902482986,0.98984557390213,-0.2790165245533,-0.058920808136463,1.2947281599045,1.5754514932632,0.057808872312307],[-0.73667937517166,1.0309784412384,0.62897485494614,-0.2478953897953,-0.06179428473115,0.72840869426727,0.99499899148941,0.085189551115036],[-1.1106117963791,1.3921700716019,0.91739588975906,-0.27307710051537,-0.059875525534153,1.1917526721954,1.4694894552231,0.065799757838249],[-0.18971686065197,0.54918271303177,0.20648364722729,-0.25528931617737,-0.19045872986317,0.021919099614024,0.31977215409279,0.12624149024487]],"w_k":[[-0.13569347560406,0.013772972859442,0.18343536555767,0.87634462118149,0.72162890434265,0.73586255311966,0.52637386322021,-0.16264823079109],[-0.13569347560406,0.013772972859442,0.18343536555767,0.87634462118149,0.72162890434265,0.73586255311966,0.52637386322021,-0.16264823079109],[-0.13569347560406,0.013772972859442,0.18343536555767,0.87634462118149,0.72162890434265,0.73586255311966,0.52637386322021,-0.16264823079109],[-0.13569347560406,0.013772972859442,0.18343536555767,0.87634462118149,0.72162890434265,0.73586255311966,0.52637386322021,-0.16264823079109]],"episode_frame":17,"batch_sel":1,"write_weights":[[0.13442425429821,0.027642406523228,0.03009781986475,0.16043470799923,0.15868532657623,0.15868532657623,0.029499111697078,0.035708848387003,0.15624009072781,0.11173512786627],[0.13442425429821,0.027642406523228,0.03009781986475,0.16043470799923,0.15868532657623,0.15868532657623,0.029499111697078,0.035708848387003,0.15624009072781,0.11173512786627],[0.13442425429821,0.027642406523228,0.03009781986475,0.16043470799923,0.15868532657623,0.15868532657623,0.029499111697078,0.035708848387003,0.15624009072781,0.11173512786627],[0.13442425429821,0.027642406523228,0.03009781986475,0.16043470799923,0.15868532657623,0.15868532657623,0.029499111697078,0.035708848387003,0.15624009072781,0.11173512786627]],"input":[0.024268121924251,0.35857174918056,0.59076701058075,0.048817479750142,0.91785945231095,0.65575766772963,0.33067937823944,0.40892961528152,0,0,1],"memory":[[-1.9841418266296,2.1209998130798,1.4209471940994,-0.11420181393623,1.3271149396896,2.0134403705597,2.467832326889,0.076082646846771],[0.15031081438065,-0.033979415893555,-0.16442388296127,-0.010544061660767,0.18597896397114,-0.19715197384357,-0.20502915978432,0.018102705478668],[0.29696008563042,-0.28285843133926,-0.17218938469887,-0.044747591018677,0.10838371515274,-0.38522225618362,-0.38157212734222,0.14778015017509],[-0.32119771838188,0.29837921261787,0.23001588881016,-0.13069751858711,0.046679489314556,0.43371659517288,0.45390224456787,0.062469981610775],[-2.3839583396912,2.7869071960449,1.7403382062912,-0.49647438526154,-0.60732442140579,2.5139579772949,3.1811742782593,0.10550427436829],[-2.3839585781097,2.7869055271149,1.7403371334076,-0.49647498130798,-0.60732561349869,2.5139563083649,3.1811723709106,0.10550311207771],[0.16391481459141,-0.015663906931877,-0.12261120975018,-0.097240149974823,0.18653094768524,-0.23218874633312,-0.17245623469353,0.1677933037281],[1.7645599842072,-0.64750802516937,-1.2223001718521,-0.62847113609314,-1.2700809240341,-2.9030003547668,-1.9479268789291,0.36206623911858],[-1.8772081136703,2.5046656131744,2.1300420761108,-0.34977108240128,-0.40368631482124,2.3759293556213,2.480605840683,-0.23201024532318],[-0.22475938498974,0.32248982787132,0.26134830713272,-0.16694909334183,0.11983878910542,0.41754361987114,0.2065239995718,0.10179925709963]],"read_weights":[[0.13516661524773,0.042979139834642,0.03384455665946,0.14288313686848,0.14234830439091,0.14234830439091,0.041911955922842,0.040153976529837,0.14117392897606,0.13719011843204],[0.1133840829134,0.10106570273638,0.10391107201576,0.10342402011156,0.09930332005024,0.099303305149078,0.091338716447353,0.08797425031662,0.10666462779045,0.0936309248209],[0.12869070470333,0.042865600436926,0.048877999186516,0.15162746608257,0.13699173927307,0.13699173927307,0.052671581506729,0.04654124751687,0.12579172849655,0.12895011901855],[0.059577684849501,0.14974948763847,0.1423733830452,0.059863425791264,0.067480236291885,0.067480236291885,0.13154934346676,0.18695916235447,0.070474043488503,0.06449294090271]],"gt":[0,1,0],"r_k":[[-0.55028790235519,0.87628203630447,-0.1446750164032,-0.9742037653923,0.0084437662735581,0.90341687202454,0.68378257751465,-0.91953933238983],[0.90158134698868,-0.82538634538651,0.99336463212967,0.60203742980957,0.6974663734436,-0.23465338349342,0.997583091259,-0.90158373117447],[-0.63971275091171,-0.50985038280487,-0.090425863862038,-0.47622728347778,-0.15691034495831,0.66588389873505,0.99070990085602,0.56550681591034],[0.33273148536682,0.16953340172768,-0.075884945690632,-0.0091989124193788,-0.14474427700043,-0.11475399136543,-0.13751523196697,-0.16936884820461]],"pred_proba":[0.089521870017052,0.91024947166443,0.00022861731122248]},{"read_out":[[-1.08669257164,1.5007616281509,0.81386691331863,-0.3136100769043,0.10779660195112,1.0703414678574,1.5289007425308,-0.084606617689133],[-0.012259140610695,0.36080387234688,-0.076238557696342,-0.18118913471699,0.13297629356384,-0.12330025434494,0.19191129505634,-0.089553013443947],[0.65227949619293,-0.33924022316933,-0.62236797809601,-0.097235612571239,0.15366344153881,-0.85594999790192,-0.63317537307739,-0.1095615029335],[-1.0496519804001,1.4809783697128,0.77794295549393,-0.32168617844582,0.04232557490468,1.0246260166168,1.4978070259094,-0.091740690171719]],"w_k":[[0.9486585855484,-0.93966430425644,-0.95584559440613,0.6976375579834,0.047965466976166,-0.99194920063019,-0.97428798675537,-0.67280620336533],[0.9486585855484,-0.93966430425644,-0.95584559440613,0.6976375579834,0.047965466976166,-0.99194920063019,-0.97428798675537,-0.67280620336533],[0.9486585855484,-0.93966430425644,-0.95584559440613,0.6976375579834,0.047965466976166,-0.99194920063019,-0.97428798675537,-0.67280620336533],[0.9486585855484,-0.93966430425644,-0.95584559440613,0.6976375579834,0.047965466976166,-0.99194920063019,-0.97428798675537,-0.67280620336533]],"episode_frame":18,"batch_sel":1,"write_weights":[[0.028443930670619,0.071494281291962,0.067972742021084,0.55115443468094,0.032216813415289,0.55479085445404,0.062805064022541,0.61183321475983,0.033646132797003,0.5533646941185],[0.028443930670619,0.071494281291962,0.067972742021084,0.55115443468094,0.032216813415289,0.55479085445404,0.062805064022541,0.61183321475983,0.033646132797003,0.5533646941185],[0.028443930670619,0.071494281291962,0.067972742021084,0.55115443468094,0.032216813415289,0.55479085445404,0.062805064022541,0.61183321475983,0.033646132797003,0.5533646941185],[0.028443930670619,0.071494281291962,0.067972742021084,0.55115443468094,0.032216813415289,0.55479085445404,0.062805064022541,0.61183321475983,0.033646132797003,0.5533646941185]],"input":[0.88668120838702,0.17704728432,0.64866059622727,0.035689131822437,0.40335365454666,0.53466736152768,0.74288172461092,0.62602659710683,0,1,0],"memory":[[-1.8891106843948,2.027046918869,1.2806117534637,-0.18938866257668,1.426656961441,1.8370901346207,2.3445122241974,0.060221582651138],[0.26263210177422,-0.079062163829803,-0.25212067365646,-0.074969455599785,0.18866227567196,-0.34692317247391,-0.303247153759,0.052499771118164],[0.40790778398514,-0.33078837394714,-0.26390370726585,-0.11047089099884,0.1189746633172,-0.53657186031342,-0.48031806945801,0.17886155843735],[1.3798806667328,-1.0435593128204,-1.3806802034378,-0.045551091432571,0.20640382170677,-1.7332501411438,-1.3791289329529,-0.35643175244331],[-2.2920227050781,2.6891679763794,1.6030474901199,-0.57487922906876,-0.51084750890732,2.3351154327393,3.0482652187347,0.089958921074867],[-0.68314445018768,1.4532063007355,0.13932919502258,-0.40682625770569,-0.46161872148514,0.35532259941101,1.3550834655762,-0.30771738290787],[0.26515141129494,-0.064110778272152,-0.20911514759064,-0.1600080281496,0.1994457244873,-0.37523853778839,-0.26946324110031,0.1944518238306],[1.7288680076599,-1.2834111452103,-1.5471731424332,0.094693183898926,0.034137547016144,-2.1424040794373,-1.8101226091385,-0.35260570049286],[-1.7813317775726,2.4122302532196,1.9943264722824,-0.42538338899612,-0.31293153762817,2.1995594501495,2.3542566299438,-0.24407088756561],[1.4712591171265,-1.0056928396225,-1.3318829536438,-0.072839617729187,0.25954574346542,-1.7312779426575,-1.6123493909836,-0.31032040715218]],"read_weights":[[0.20749767124653,0.042153049260378,0.042969513684511,0.039424739778042,0.19869294762611,0.13879071176052,0.04451746866107,0.039875507354736,0.20607326924801,0.040005177259445],[0.094247043132782,0.10948134958744,0.1120535582304,0.103207051754,0.083720356225967,0.08858809620142,0.12055142968893,0.10020533204079,0.086210057139397,0.1017357558012],[0.028850547969341,0.15053167939186,0.1399295181036,0.154805585742,0.026119221001863,0.033370777964592,0.13533109426498,0.15130968391895,0.02543237991631,0.15431953966618],[0.171979367733,0.041181080043316,0.04560948908329,0.038623221218586,0.20549674332142,0.16712856292725,0.049423132091761,0.039376743137836,0.20240040123463,0.038781240582466]],"gt":[0,0,1],"r_k":[[-0.4672683775425,0.12766191363335,0.54553031921387,0.31996437907219,0.14561742544174,0.80259877443314,0.27108162641525,0.19445006549358],[0.5208592414856,-0.35941615700722,0.72096049785614,-0.70191240310669,0.61533725261688,-0.82850384712219,0.7157119512558,-0.14149875938892],[0.70269441604614,-0.27354872226715,-0.93549990653992,-0.077998168766499,0.26750072836876,-0.48873770236969,-0.52991116046906,-0.16794404387474],[-0.53293919563293,0.39989393949509,0.95077532529831,-0.44490632414818,-0.7029105424881,0.95995020866394,0.91627258062363,0.88400554656982]],"pred_proba":[0.033292770385742,0.00043126003583893,0.96627599000931]},{"read_out":[[-0.63942056894302,1.0332478284836,0.50318497419357,-0.22336195409298,0.17673517763615,0.57445180416107,0.94148874282837,-0.10570745170116],[0.066108644008636,0.24623806774616,-0.11301782727242,-0.18989032506943,0.12899619340897,-0.25903648138046,0.029467642307281,-0.09295329451561],[0.60298895835876,-0.3353216946125,-0.58114176988602,-0.17022670805454,0.076402060687542,-0.89440548419952,-0.65577816963196,-0.098016396164894],[-0.69279992580414,1.0998023748398,0.55758601427078,-0.23336997628212,0.17299167811871,0.63773214817047,1.0113989114761,-0.10722691565752]],"w_k":[[0.30793544650078,-0.29634347558022,-0.31777393817902,0.8327631354332,0.78254914283752,-0.31703194975853,-0.51291608810425,-0.39251482486725],[0.30793544650078,-0.29634347558022,-0.31777393817902,0.8327631354332,0.78254914283752,-0.31703194975853,-0.51291608810425,-0.39251482486725],[0.30793544650078,-0.29634347558022,-0.31777393817902,0.8327631354332,0.78254914283752,-0.31703194975853,-0.51291608810425,-0.39251482486725],[0.30793544650078,-0.29634347558022,-0.31777393817902,0.8327631354332,0.78254914283752,-0.31703194975853,-0.51291608810425,-0.39251482486725]],"episode_frame":19,"batch_sel":1,"write_weights":[[0.17038518190384,0.050069000571966,0.054456360638142,0.038265198469162,0.21286150813103,0.16557933390141,0.048964995890856,0.039011735469103,0.20979388058186,0.038421750068665],[0.17038518190384,0.050069000571966,0.054456360638142,0.038265198469162,0.21286150813103,0.16557933390141,0.048964995890856,0.039011735469103,0.20979388058186,0.038421750068665],[0.17038518190384,0.050069000571966,0.054456360638142,0.038265198469162,0.21286150813103,0.16557933390141,0.048964995890856,0.039011735469103,0.20979388058186,0.038421750068665],[0.17038518190384,0.050069000571966,0.054456360638142,0.038265198469162,0.21286150813103,0.16557933390141,0.048964995890856,0.039011735469103,0.20979388058186,0.038421750068665]],"input":[0.88668120838702,0.17704728432,0.64866059622727,0.035689131822437,0.40335365454666,0.53466736152768,0.74288172461092,0.62602659710683,0,0,1],"memory":[[-1.9445097446442,2.1383991241455,1.3739224672318,-0.1775368899107,1.4924463033676,1.8935072422028,2.4154577255249,0.10099512338638],[0.17349123954773,-0.032387122511864,-0.22520691156387,-0.1554996073246,0.077846735715866,-0.34188866615295,-0.26337343454361,0.0025512240827084],[0.32356834411621,-0.27964693307877,-0.24015079438686,-0.18748053908348,0.013641677796841,-0.52296555042267,-0.43173924088478,0.12595956027508],[1.2733502388,-1.0006580352783,-1.287690281868,-0.16397778689861,0.089016743004322,-1.7499079704285,-1.3654304742813,-0.29546493291855],[-0.057783424854279,0.13632656633854,0.05997259914875,0.039038240909576,0.075744137167931,0.08228400349617,0.10494203865528,-0.042325839400291],[-0.75480979681015,1.5740760564804,0.2484817802906,-0.43555226922035,-0.43557092547417,0.42037093639374,1.4432872533798,-0.24663573503494],[0.16728113591671,-0.0081173032522202,-0.12300261855125,-0.27638286352158,0.087749056518078,-0.36872613430023,-0.23031143844128,0.247673869133],[1.6242067813873,-1.2407275438309,-1.4551101922989,-0.020473927259445,-0.079357989132404,-2.1587595939636,-1.7968686819077,-0.29220831394196],[-1.8353536128998,2.5453305244446,2.0490927696228,-0.38151761889458,-0.23403969407082,2.2807092666626,2.4568915367126,-0.29142728447914],[1.3650487661362,-0.96319925785065,-1.2388943433762,-0.19003292918205,0.14355811476707,-1.7485996484756,-1.5996654033661,-0.24930043518543]],"read_weights":[[0.18102705478668,0.051207713782787,0.042908035218716,0.042667262256145,0.17323790490627,0.17734436690807,0.053819183260202,0.041230689734221,0.19357605278492,0.042981702834368],[0.099972166121006,0.098915703594685,0.10223364084959,0.10473150014877,0.10493588447571,0.091965585947037,0.099090419709682,0.10263492912054,0.093046329915524,0.10247379541397],[0.032589990645647,0.14445181190968,0.1406227350235,0.15660728514194,0.037105478346348,0.036087036132812,0.11657439917326,0.15273416042328,0.028721729293466,0.15450532734394],[0.18414460122585,0.042290806770325,0.046084940433502,0.039455030113459,0.15421378612518,0.18089708685875,0.059870533645153,0.04029780998826,0.21317346394062,0.039571948349476]],"gt":[0,0,1],"r_k":[[-0.57409751415253,0.8559422492981,0.63344192504883,-0.9449964761734,0.1969557851553,0.94902807474136,0.54909819364548,-0.8434424996376],[0.59066796302795,-0.4161057472229,0.81228655576706,-0.1695419549942,0.60053378343582,-0.74225986003876,0.80452835559845,-0.54867088794708],[0.80322730541229,-0.32673481106758,-0.61453020572662,-0.087500937283039,0.31391805410385,-0.55800980329514,-0.15309312939644,-0.18561302125454],[-0.55014050006866,0.43840247392654,0.95239305496216,-0.17317374050617,-0.67811900377274,0.97274565696716,0.91666406393051,0.81975561380386]],"pred_proba":[0.034428115934134,0.00046943602501415,0.96510243415833]},{"read_out":[[-0.75469648838043,1.0309194326401,0.62483435869217,-0.3207203745842,-0.092176906764507,0.72644412517548,1.0408390760422,-0.05122334510088],[-0.4744980931282,0.76354491710663,0.37733942270279,-0.30786803364754,-0.054906494915485,0.38488441705704,0.70316851139069,-0.085820659995079],[-0.76878172159195,1.0273332595825,0.6435883641243,-0.31528902053833,-0.080755345523357,0.74974882602692,1.0486007928848,-0.042207017540932],[-0.51361691951752,0.79578697681427,0.41042336821556,-0.32274734973907,-0.12178444862366,0.43228417634964,0.74937665462494,-0.071394823491573]],"w_k":[[-0.47784817218781,0.47101500630379,0.66232842206955,0.86272114515305,0.24978974461555,0.87618923187256,0.86562490463257,-0.1077324450016],[-0.47784817218781,0.47101500630379,0.66232842206955,0.86272114515305,0.24978974461555,0.87618923187256,0.86562490463257,-0.1077324450016],[-0.47784817218781,0.47101500630379,0.66232842206955,0.86272114515305,0.24978974461555,0.87618923187256,0.86562490463257,-0.1077324450016],[-0.47784817218781,0.47101500630379,0.66232842206955,0.86272114515305,0.24978974461555,0.87618923187256,0.86562490463257,-0.1077324450016]],"episode_frame":20,"batch_sel":1,"write_weights":[[0.18387122452259,0.043712597340345,0.047501098364592,0.039396457374096,0.15546941757202,0.18062853813171,0.061266224831343,0.040237985551357,0.21285699307919,0.039513200521469],[0.18387122452259,0.043712597340345,0.047501098364592,0.039396457374096,0.15546941757202,0.18062853813171,0.061266224831343,0.040237985551357,0.21285699307919,0.039513200521469],[0.18387122452259,0.043712597340345,0.047501098364592,0.039396457374096,0.15546941757202,0.18062853813171,0.061266224831343,0.040237985551357,0.21285699307919,0.039513200521469],[0.18387122452259,0.043712597340345,0.047501098364592,0.039396457374096,0.15546941757202,0.18062853813171,0.061266224831343,0.040237985551357,0.21285699307919,0.039513200521469]],"input":[0.024268121924251,0.35857174918056,0.59076701058075,0.048817479750142,0.91785945231095,0.65575766772963,0.33067937823944,0.40892961528152,0,0,1],"memory":[[-2.2981009483337,2.486364364624,1.7121652364731,-0.25898373126984,1.3929039239883,2.3090362548828,2.8495335578918,0.15383949875832],[-0.28612393140793,0.38308268785477,0.18397644162178,-0.35415560007095,-0.22952988743782,0.18072551488876,0.30598866939545,0.012947246432304],[-0.136001765728,0.13619300723076,0.16550387442112,-0.39523607492447,-0.29638320207596,-0.0031431913375854,0.13446393609047,0.13612166047096],[1.0181479454041,-0.77167820930481,-1.0578439235687,-0.33454298973083,-0.10544451326132,-1.4819447994232,-1.0639497041702,-0.25600922107697],[-0.59961026906967,0.65050303936005,0.55527347326279,-0.079684458673,-0.15510798990726,0.73133552074432,0.78688234090805,-0.032073609530926],[-1.0997438430786,1.9134702682495,0.58189272880554,-0.51361471414566,-0.53104710578918,0.825534760952,1.8674175739288,-0.19024804234505],[-0.4568604528904,0.4168281853199,0.40332329273224,-0.19142501056194,-0.29072463512421,0.52133840322495,0.56392627954483,0.0075557865202427],[1.3733869791031,-1.0154457092285,-1.2293198108673,-0.18870730698109,-0.26983520388603,-1.8956600427628,-1.5009428262711,-0.25292548537254],[-2.2125616073608,2.9190058708191,2.416111946106,-0.46500688791275,-0.32749104499817,2.723268032074,2.9191598892212,-0.2228551954031],[1.1130037307739,-0.73693788051605,-1.0112907886505,-0.35740318894386,-0.047496050596237,-1.4837095737457,-1.3016757965088,-0.20974566042423]],"read_weights":[[0.11517430096865,0.14136545360088,0.10539378225803,0.039262469857931,0.12681184709072,0.13869848847389,0.13138917088509,0.036986902356148,0.12658351659775,0.038334105163813],[0.1202713996172,0.082770697772503,0.073396362364292,0.093132928013802,0.11753880977631,0.10146876424551,0.10795318335295,0.094825379550457,0.11737125366926,0.091271221637726],[0.12084922194481,0.12967216968536,0.12272351980209,0.034977335482836,0.13286501169205,0.1230054423213,0.14268822968006,0.034130655229092,0.12529824674129,0.033790174871683],[0.089554809033871,0.12749744951725,0.11331655085087,0.070900209248066,0.10739900171757,0.12948906421661,0.1119818687439,0.069734565913677,0.11017617583275,0.069950312376022]],"gt":[0,1,0],"r_k":[[-0.64815056324005,0.94283431768417,-0.28979080915451,-0.9810431599617,-0.4329109787941,0.95625102519989,0.73559558391571,-0.93071734905243],[0.8867495059967,-0.81802374124527,0.99512094259262,0.79412931203842,0.54334914684296,0.14358502626419,0.99730938673019,-0.87097418308258],[-0.71614664793015,-0.18568293750286,0.063729703426361,-0.44054308533669,-0.43781876564026,0.78314638137817,0.99399757385254,0.6939794421196],[0.20381514728069,0.27991089224815,0.0085116652771831,-0.12625777721405,-0.22023798525333,0.043606489896774,0.13440750539303,-0.22101384401321]],"pred_proba":[0.50684899091721,0.49163043498993,0.0015205246163532]},{"read_out":[[-0.69120466709137,1.1690714359283,0.61833161115646,-0.33308699727058,0.025887900963426,0.56256258487701,1.0342313051224,-0.057741641998291],[0.11350832134485,0.28622913360596,-0.10718143731356,-0.2789560854435,-0.04260341078043,-0.39127892255783,0.023273587226868,-0.086378671228886],[0.68719923496246,-0.34140193462372,-0.61216992139816,-0.24131540954113,-0.11026487499475,-1.0591208934784,-0.69882476329803,-0.11002270132303],[-0.712073802948,1.1961520910263,0.64472013711929,-0.34449723362923,-0.028888002038002,0.5944699048996,1.0628048181534,-0.056778240948915]],"w_k":[[0.84214550256729,-0.81966686248779,-0.79107582569122,0.786476790905,0.16614428162575,-0.92721974849701,-0.9139232635498,-0.45395743846893],[0.84214550256729,-0.81966686248779,-0.79107582569122,0.786476790905,0.16614428162575,-0.92721974849701,-0.9139232635498,-0.45395743846893],[0.84214550256729,-0.81966686248779,-0.79107582569122,0.786476790905,0.16614428162575,-0.92721974849701,-0.9139232635498,-0.45395743846893],[0.84214550256729,-0.81966686248779,-0.79107582569122,0.786476790905,0.16614428162575,-0.92721974849701,-0.9139232635498,-0.45395743846893]],"episode_frame":21,"batch_sel":1,"write_weights":[[0.17364625632763,0.20808440446854,0.19521328806877,0.06435165554285,0.097479306161404,0.11752906441689,0.19400188326836,0.063293673098087,0.099999971687794,0.063489489257336],[0.17364625632763,0.20808440446854,0.19521328806877,0.06435165554285,0.097479306161404,0.11752906441689,0.19400188326836,0.063293673098087,0.099999971687794,0.063489489257336],[0.17364625632763,0.20808440446854,0.19521328806877,0.06435165554285,0.097479306161404,0.11752906441689,0.19400188326836,0.063293673098087,0.099999971687794,0.063489489257336],[0.17364625632763,0.20808440446854,0.19521328806877,0.06435165554285,0.097479306161404,0.11752906441689,0.19400188326836,0.063293673098087,0.099999971687794,0.063489489257336]],"input":[0.88668120838702,0.17704728432,0.64866059622727,0.035689131822437,0.40335365454666,0.53466736152768,0.74288172461092,0.62602659710683,0,1,0],"memory":[[-1.4656550884247,1.8368028402328,0.97133958339691,-0.099814832210541,1.4668520689011,1.2079892158508,1.9643568992615,0.033588096499443],[0.5562509894371,-0.26650661230087,-0.52576661109924,-0.19275078177452,-0.17470127344131,-0.95329529047012,-0.63195765018463,-0.085286840796471],[0.68844789266586,-0.50844144821167,-0.53936010599136,-0.23022866249084,-0.23506864905357,-1.113569021225,-0.78375148773193,0.031050115823746],[1.0921242237091,-0.75902652740479,-1.0716679096222,-0.40050649642944,-0.14761567115784,-1.5678617954254,-1.1082043647766,-0.20110762119293],[-0.50060832500458,0.61825716495514,0.52473193407059,-0.19423532485962,-0.19051429629326,0.53742122650146,0.63571947813034,0.053254894912243],[-0.98980164527893,1.8888726234436,0.56858772039413,-0.62255471944809,-0.58259165287018,0.62184906005859,1.6994798183441,-0.093610741198063],[0.83808863162994,-0.65557670593262,-0.72808402776718,0.14916357398033,0.066916331648827,-1.1317584514618,-0.92457813024521,-0.10421614348888],[1.4470607042313,-1.0021544694901,-1.2439761161804,-0.25498634576797,-0.3116962313652,-1.9798831939697,-1.5425690412521,-0.19856810569763],[-2.1103003025055,2.890960931778,2.3877005577087,