[{"read_out":[[-0.12413014471531,-0.083973355591297,-0.061854928731918,0.1999303996563,0.54917699098587,0.093388050794601,0.19213160872459,0.13877798616886],[-0.13039012253284,-0.092449724674225,-0.068556115031242,0.21256449818611,0.58145302534103,0.095266997814178,0.20050524175167,0.14648905396461],[-0.097786381840706,-0.07412688434124,-0.055462092161179,0.16229788959026,0.44124120473862,0.068246841430664,0.14888305962086,0.11066570132971],[-0.1472339630127,-0.11054087430239,-0.082604363560677,0.2437220364809,0.66320514678955,0.10347028821707,0.22449922561646,0.16644516587257]],"w_k":[[0.065983690321445,-0.59180331230164,-0.47308307886124,0.6927929520607,0.9211214184761,-0.068687342107296,0.10566309839487,0.033358126878738],[0.065983690321445,-0.59180331230164,-0.47308307886124,0.6927929520607,0.9211214184761,-0.068687342107296,0.10566309839487,0.033358126878738],[0.065983690321445,-0.59180331230164,-0.47308307886124,0.6927929520607,0.9211214184761,-0.068687342107296,0.10566309839487,0.033358126878738],[0.065983690321445,-0.59180331230164,-0.47308307886124,0.6927929520607,0.9211214184761,-0.068687342107296,0.10566309839487,0.033358126878738]],"episode_frame":1,"batch_sel":1,"write_weights":[[0.81073939800262,0.18926060199738,0.18926060199738,0,0,0,0,0,0.18926060199738,0.18926060199738],[0.81073939800262,0.18926060199738,0.18926060199738,0,0,0,0,0,0.18926060199738,0.18926060199738],[0.81073939800262,0.18926060199738,0.18926060199738,0,0,0,0,0,0.18926060199738,0.18926060199738],[0.81073939800262,0.18926060199738,0.18926060199738,0,0,0,0,0,0.18926060199738,0.18926060199738]],"input":[0.45849713869393,0.6906666313298,0.70905403303914,0.89739997382276,0.46820964012295,0.31579562276602,0.73407350108027,0.22260616463609,0,0,0],"memory":[[-0.50599527359009,0.037070766091347,0.06822307407856,0.58675318956375,1.8288676738739,0.63384902477264,0.90085333585739,0.50196701288223],[-0.20223985612392,-0.26562094688416,-0.20954944193363,0.40322336554527,1.033864736557,0.06619381159544,0.27307915687561,0.24774231016636],[-0.20223985612392,-0.26562094688416,-0.20954944193363,0.40322336554527,1.033864736557,0.06619381159544,0.27307915687561,0.24774231016636],[9.9999999747524e-07,9.9999999747524e-07,9.9999999747524e-07,9.9999999747524e-07,9.9999999747524e-07,9.9999999747524e-07,9.9999999747524e-07,9.9999999747524e-07],[9.9999999747524e-07,9.9999999747524e-07,9.9999999747524e-07,9.9999999747524e-07,9.9999999747524e-07,9.9999999747524e-07,9.9999999747524e-07,9.9999999747524e-07],[9.9999999747524e-07,9.9999999747524e-07,9.9999999747524e-07,9.9999999747524e-07,9.9999999747524e-07,9.9999999747524e-07,9.9999999747524e-07,9.9999999747524e-07],[9.9999999747524e-07,9.9999999747524e-07,9.9999999747524e-07,9.9999999747524e-07,9.9999999747524e-07,9.9999999747524e-07,9.9999999747524e-07,9.9999999747524e-07],[9.9999999747524e-07,9.9999999747524e-07,9.9999999747524e-07,9.9999999747524e-07,9.9999999747524e-07,9.9999999747524e-07,9.9999999747524e-07,9.9999999747524e-07],[-0.20223985612392,-0.26562094688416,-0.20954944193363,0.40322336554527,1.033864736557,0.06619381159544,0.27307915687561,0.24774231016636],[-0.20224085450172,-0.26562196016312,-0.20955044031143,0.40322235226631,1.0338637828827,0.06619281321764,0.27307814359665,0.24774131178856]],"read_weights":[[0.11267670989037,0.082966767251492,0.082966767251492,0.1110912412405,0.1110912412405,0.1110912412405,0.1110912412405,0.1110912412405,0.082966767251492,0.08296675235033],[0.11231388151646,0.090931951999664,0.090931951999664,0.10479166358709,0.10479166358709,0.10479166358709,0.10479166358709,0.10479166358709,0.090931951999664,0.0909318998456],[0.077397637069225,0.072468541562557,0.072468541562557,0.12654565274715,0.12654565274715,0.12654565274715,0.12654565274715,0.12654565274715,0.072468541562557,0.072468496859074],[0.11805962771177,0.10815956443548,0.10815956443548,0.089860439300537,0.089860439300537,0.089860439300537,0.089860439300537,0.089860439300537,0.10815956443548,0.10815951228142]],"gt":[0,1,0],"r_k":[[-0.22586219012737,0.25482553243637,0.12596547603607,-0.62460327148438,-0.085413113236427,0.46908915042877,0.30298385024071,-0.29541537165642],[0.015613032504916,0.024051854386926,0.27114823460579,-0.083279736340046,0.025566633790731,-0.022358952090144,0.21280525624752,-0.23444324731827],[0.26173147559166,0.13937978446484,0.073604084551334,-0.086248010396957,-0.061610486358404,0.09216396510601,-0.19970221817493,-0.12796425819397],[-0.029202304780483,-0.23093318939209,0.19516848027706,-0.17251487076283,0.024211402982473,0.068067766726017,0.17000466585159,0.37036195397377]],"pred_proba":[0.40117990970612,0.20750653743744,0.39131358265877]},{"read_out":[[0.050900004804134,-0.27665075659752,-0.42433086037636,0.20856773853302,1.0474606752396,-0.27913996577263,-0.094202406704426,-0.018158625811338],[0.23920783400536,-0.31688809394836,-0.56090641021729,0.070600375533104,0.85088557004929,-0.54899203777313,-0.40852442383766,-0.21185980737209],[0.33448779582977,-0.33898136019707,-0.63784074783325,0.0094471126794815,0.79285764694214,-0.68569278717041,-0.56260401010513,-0.30859288573265],[-0.024950116872787,-0.26687294244766,-0.37312963604927,0.26751896739006,1.1260993480682,-0.17424364387989,0.030095221474767,0.061483476310968]],"w_k":[[0.8193701505661,-0.58613020181656,-0.84310686588287,0.041674125939608,0.65073585510254,-0.9391605257988,-0.80043768882751,-0.64909827709198],[0.8193701505661,-0.58613020181656,-0.84310686588287,0.041674125939608,0.65073585510254,-0.9391605257988,-0.80043768882751,-0.64909827709198],[0.8193701505661,-0.58613020181656,-0.84310686588287,0.041674125939608,0.65073585510254,-0.9391605257988,-0.80043768882751,-0.64909827709198],[0.8193701505661,-0.58613020181656,-0.84310686588287,0.041674125939608,0.65073585510254,-0.9391605257988,-0.80043768882751,-0.64909827709198]],"episode_frame":2,"batch_sel":1,"write_weights":[[0.075309865176678,0.068994641304016,0.068994641304016,0.41942486166954,0.41942486166954,0.41942486166954,0.41942486166954,0.057321690022945,0.068994641304016,0.068994611501694],[0.075309865176678,0.068994641304016,0.068994641304016,0.41942486166954,0.41942486166954,0.41942486166954,0.41942486166954,0.057321690022945,0.068994641304016,0.068994611501694],[0.075309865176678,0.068994641304016,0.068994641304016,0.41942486166954,0.41942486166954,0.41942486166954,0.41942486166954,0.057321690022945,0.068994641304016,0.068994611501694],[0.075309865176678,0.068994641304016,0.068994641304016,0.41942486166954,0.41942486166954,0.41942486166954,0.41942486166954,0.057321690022945,0.068994641304016,0.068994611501694]],"input":[0.55504616489634,0.26681434595957,0.073917854344472,0.92151049152017,0.003185466863215,0.85341552901082,0.71074188034981,0.001563711790368,0,1,0],"memory":[[-0.43659809231758,-0.015533402562141,-0.033747866749763,0.54706114530563,1.9120330810547,0.51932269334793,0.8219199180603,0.45067757368088],[-0.15210321545601,-0.3043637573719,-0.29496484994888,0.36702057719231,1.1050209999084,-0.033320344984531,0.19917571544647,0.20557267963886],[-0.15210321545601,-0.3043637573719,-0.29496484994888,0.36702057719231,1.1050209999084,-0.033320344984531,0.19917571544647,0.20557267963886],[0.64222514629364,-0.44145560264587,-0.93078589439392,-0.14209766685963,0.76185691356659,-1.1422975063324,-1.0500791072845,-0.60997647047043],[0.64222514629364,-0.44145560264587,-0.93078589439392,-0.14209766685963,0.76185691356659,-1.1422975063324,-1.0500791072845,-0.60997647047043],[0.64222413301468,-0.44145661592484,-0.93078690767288,-0.14209866523743,0.76185590028763,-1.1422984600067,-1.0500800609589,-0.60997748374939],[0.64222514629364,-0.44145560264587,-0.93078589439392,-0.14209766685963,0.76185691356659,-1.1422975063324,-1.0500791072845,-0.60997647047043],[0.026542473584414,-0.057349771261215,-0.11926431208849,-0.068798571825027,0.10981439054012,-0.13808965682983,-0.10835535824299,-0.066826686263084],[-0.15210321545601,-0.3043637573719,-0.29496484994888,0.36702057719231,1.1050209999084,-0.033320344984531,0.19917571544647,0.20557267963886],[-0.15210421383381,-0.30436474084854,-0.2949658036232,0.36701959371567,1.1050200462341,-0.033321291208267,0.19917473196983,0.20557171106339]],"read_weights":[[0.16086646914482,0.11462112516165,0.11462112516165,0.073401346802711,0.073401346802711,0.073401376605034,0.073401346802711,0.087043620646,0.11462112516165,0.11462110280991],[0.065493769943714,0.077188320457935,0.077188320457935,0.12106716632843,0.12106716632843,0.12106721848249,0.12106716632843,0.1414842158556,0.077188320457935,0.077188417315483],[0.041425008326769,0.055288717150688,0.055288717150688,0.14887517690659,0.14887517690659,0.14887517690659,0.14887517690659,0.14191928505898,0.055288717150688,0.055288769304752],[0.18452422320843,0.13672676682472,0.13672676682472,0.053465373814106,0.053465373814106,0.053465366363525,0.053465373814106,0.054707307368517,0.13672676682472,0.13672661781311]],"gt":[1,0,0],"r_k":[[-0.74734783172607,0.0024350609164685,0.64044690132141,-0.63706809282303,-0.44982743263245,0.60871207714081,0.68982964754105,-0.035137351602316],[-0.7215256690979,0.58821415901184,-0.89940202236176,-0.92983216047287,0.28631529211998,-0.82991856336594,-0.74459338188171,0.15698437392712],[0.84922832250595,0.12731455266476,-0.72647356987,-0.64259684085846,0.1857917457819,-0.69172513484955,-0.96116328239441,-0.7864773273468],[-0.40116316080093,-0.35042417049408,0.89814925193787,0.42963698506355,-0.1797548532486,0.94389444589615,0.90846979618073,0.81268227100372]],"pred_proba":[0.40341913700104,0.053537394851446,0.54304325580597]},{"read_out":[[-0.16319926083088,-0.24309831857681,0.006721343845129,0.5749483704567,1.4682346582413,0.30913349986076,0.48689296841621,-0.22912083566189],[0.079075179994106,-0.29639872908592,-0.28363594412804,0.34880667924881,1.2847770452499,-0.15749801695347,-0.0033411458134651,-0.35997489094734],[0.21117796003819,-0.32475367188454,-0.42569613456726,0.22691647708416,1.1695551872253,-0.397146910429,-0.26075768470764,-0.44786477088928],[-0.24975416064262,-0.22884055972099,0.097527027130127,0.65879917144775,1.5508301258087,0.46541583538055,0.65624070167542,-0.17298609018326]],"w_k":[[-0.047678891569376,-0.36362057924271,0.049705523997545,0.82198697328568,0.94451797008514,0.60419911146164,0.63480746746063,-0.29817190766335],[-0.047678891569376,-0.36362057924271,0.049705523997545,0.82198697328568,0.94451797008514,0.60419911146164,0.63480746746063,-0.29817190766335],[-0.047678891569376,-0.36362057924271,0.049705523997545,0.82198697328568,0.94451797008514,0.60419911146164,0.63480746746063,-0.29817190766335],[-0.047678891569376,-0.36362057924271,0.049705523997545,0.82198697328568,0.94451797008514,0.60419911146164,0.63480746746063,-0.29817190766335]],"episode_frame":3,"batch_sel":1,"write_weights":[[0.17518918216228,0.12980978190899,0.18039958178997,0.050760570913553,0.050760570913553,0.050760563462973,0.050760570913553,0.10252948105335,0.18039958178997,0.18039944767952],[0.17518918216228,0.12980978190899,0.18039958178997,0.050760570913553,0.050760570913553,0.050760563462973,0.050760570913553,0.10252948105335,0.18039958178997,0.18039944767952],[0.17518918216228,0.12980978190899,0.18039958178997,0.050760570913553,0.050760570913553,0.050760563462973,0.050760570913553,0.10252948105335,0.18039958178997,0.18039944767952],[0.17518918216228,0.12980978190899,0.18039958178997,0.050760570913553,0.050760570913553,0.050760563462973,0.050760570913553,0.10252948105335,0.18039958178997,0.18039944767952]],"input":[0.26452001160942,0.54870303743519,0.6646741933655,0.60925509803928,0.89786760066636,0.73541898583062,0.74907921324484,0.938532353146,1,0,0],"memory":[[-0.55477797985077,0.074674710631371,0.16770254075527,0.76684415340424,2.1673159599304,0.78169971704483,1.0749216079712,0.41650319099426],[-0.25386321544647,-0.23129072785378,-0.12108075618744,0.52926057577133,1.3038748502731,0.1830986738205,0.40995314717293,0.17190085351467],[-0.475780159235,-0.32869565486908,0.30946618318558,1.0278663635254,2.0237083435059,0.90725439786911,1.1685650348663,-0.13983018696308],[0.52183556556702,-0.38674062490463,-0.76154410839081,-0.063494369387627,0.89930194616318,-0.96295011043549,-0.86832797527313,-0.64962536096573],[0.52183556556702,-0.38674062490463,-0.76154410839081,-0.063494369387627,0.89930194616318,-0.96295011043549,-0.86832797527313,-0.64962536096573],[0.52183455228806,-0.38674163818359,-0.76154512166977,-0.063495367765427,0.89930099248886,-0.9629510641098,-0.86832892894745,-0.64962643384933],[0.52183556556702,-0.38674062490463,-0.76154410839081,-0.063494369387627,0.89930194616318,-0.96295011043549,-0.86832797527313,-0.64962536096573],[-0.33621263504028,-0.047227628529072,0.60769402980804,0.58411127328873,0.86788493394852,0.91878938674927,0.95679610967636,-0.36261996626854],[-0.475780159235,-0.32869565486908,0.30946618318558,1.0278663635254,2.0237083435059,0.90725439786911,1.1685650348663,-0.13983018696308],[-0.47578108310699,-0.32869672775269,0.30946511030197,1.0278651714325,2.0237073898315,0.90725350379944,1.1685639619827,-0.13983124494553]],"read_weights":[[0.11368937790394,0.087720118463039,0.11697287857533,0.069814033806324,0.069814033806324,0.069814071059227,0.069814033806324,0.16841568052769,0.11697287857533,0.11697287857533],[0.081285677850246,0.07927793264389,0.074964329600334,0.13341715931892,0.13341715931892,0.13341727852821,0.13341715931892,0.080874592065811,0.074964329600334,0.074964351952076],[0.053550038486719,0.056291520595551,0.053761944174767,0.1681052595377,0.1681052595377,0.16810530424118,0.1681052595377,0.056451506912708,0.053761944174767,0.053761944174767],[0.12643656134605,0.10323599725962,0.13488388061523,0.047219999134541,0.047219999134541,0.04721999540925,0.047219999134541,0.1767959445715,0.13488388061523,0.13488383591175]],"gt":[0,0,1],"r_k":[[-0.44714310765266,0.53211903572083,0.62297415733337,-0.91971969604492,-0.66372066736221,0.69805860519409,0.60862517356873,-0.52980005741119],[-0.3993379175663,0.19824251532555,0.067600376904011,-0.39211198687553,-0.28188508749008,-0.41223451495171,-0.10912105441093,-0.055798426270485],[0.78782534599304,0.52113652229309,-0.30499604344368,-0.47688043117523,-0.36988392472267,-0.23110434412956,-0.74513006210327,-0.60465878248215],[-0.095391258597374,-0.35870784521103,0.70217645168304,-0.062594026327133,-0.47584503889084,0.63350772857666,0.76289385557175,0.32363072037697]],"pred_proba":[0.55205351114273,0.022556589916348,0.42539000511169]},{"read_out":[[-0.56599712371826,0.04439727216959,0.38656717538834,0.26440423727036,0.77173429727554,0.53501862287521,0.6893984079361,-0.49738585948944],[-0.56039428710938,-0.010752718895674,0.36618682742119,0.40893065929413,1.0570845603943,0.59645611047745,0.7779683470726,-0.43780586123466],[-0.24908035993576,-0.077693246304989,-0.012712800875306,0.040385816246271,0.75364249944687,-0.047541107982397,0.0853655859828,-0.68335771560669],[-0.65920841693878,0.025869019329548,0.49176034331322,0.50060445070267,1.0996662378311,0.79390066862106,0.98476332426071,-0.35636043548584]],"w_k":[[-0.44043955206871,0.030013350769877,0.25014397501945,0.27662336826324,-0.016294796019793,0.23878428339958,0.51267421245575,-0.29646211862564],[-0.44043955206871,0.030013350769877,0.25014397501945,0.27662336826324,-0.016294796019793,0.23878428339958,0.51267421245575,-0.29646211862564],[-0.44043955206871,0.030013350769877,0.25014397501945,0.27662336826324,-0.016294796019793,0.23878428339958,0.51267421245575,-0.29646211862564],[-0.44043955206871,0.030013350769877,0.25014397501945,0.27662336826324,-0.016294796019793,0.23878428339958,0.51267421245575,-0.29646211862564]],"episode_frame":4,"batch_sel":1,"write_weights":[[0.11467733979225,0.18663948774338,0.12233901023865,0.042828306555748,0.13583324849606,0.042828302830458,0.13583324849606,0.25335800647736,0.12233901023865,0.12233897298574],[0.11467733979225,0.18663948774338,0.12233901023865,0.042828306555748,0.13583324849606,0.042828302830458,0.13583324849606,0.25335800647736,0.12233901023865,0.12233897298574],[0.11467733979225,0.18663948774338,0.12233901023865,0.042828306555748,0.13583324849606,0.042828302830458,0.13583324849606,0.25335800647736,0.12233901023865,0.12233897298574],[0.11467733979225,0.18663948774338,0.12233901023865,0.042828306555748,0.13583324849606,0.042828302830458,0.13583324849606,0.25335800647736,0.12233901023865,0.12233897298574]],"input":[0.26452001160942,0.54870303743519,0.6646741933655,0.60925509803928,0.89786760066636,0.73541898583062,0.74907921324484,0.938532353146,0,0,1],"memory":[[-0.75819051265717,0.20063431560993,0.35207265615463,0.73959171772003,2.0299112796783,0.94491654634476,1.2508872747421,0.35388642549515],[-0.6834482550621,0.31664705276489,0.58110857009888,-0.18875397741795,-0.45960003137589,0.52835595607758,0.57938611507416,-0.36616921424866],[-0.68343240022659,-0.1970596909523,0.49766582250595,1.004699587822,1.8854039907455,1.0725371837616,1.3469533920288,-0.19815820455551],[0.27278700470924,-0.25850790739059,-0.5606569647789,-0.18085636198521,0.7284751534462,-0.80167597532272,-0.72485148906708,-0.77344578504562],[-0.23037230968475,-0.051796048879623,-0.14208209514618,-0.33491837978363,0.39356261491776,-0.41643899679184,-0.29573345184326,-1.0791671276093],[0.27278590202332,-0.25850889086723,-0.56065791845322,-0.18085741996765,0.72847414016724,-0.8016768693924,-0.72485238313675,-0.77344691753387],[-0.23037230968475,-0.051796048879623,-0.14208209514618,-0.33491837978363,0.39356261491776,-0.41643899679184,-0.29573345184326,-1.0791671276093],[-1.0973509550095,0.32406285405159,1.2597371339798,0.41677105426788,0.36727154254913,1.5094199180603,1.6138920783997,-0.7346955537796],[-0.68343240022659,-0.1970596909523,0.49766582250595,1.004699587822,1.8854039907455,1.0725371837616,1.3469533920288,-0.19815820455551],[-0.68343329429626,-0.19706079363823,0.49766471982002,1.0046983957291,1.8854030370712,1.0725362300873,1.3469523191452,-0.19815927743912]],"read_weights":[[0.084482736885548,0.20689472556114,0.085962384939194,0.05342722684145,0.094533421099186,0.053427256643772,0.094533421099186,0.15481407940388,0.085962384939194,0.085962407290936],[0.10702233761549,0.11309912055731,0.12234403192997,0.061054717749357,0.077636830508709,0.061054684221745,0.077636830508709,0.13546340167522,0.12234403192997,0.12234402447939],[0.052738320082426,0.08236376196146,0.051974534988403,0.16875641047955,0.15531794726849,0.16875645518303,0.15531794726849,0.060825623571873,0.051974534988403,0.051974527537823],[0.13072237372398,0.1458333581686,0.13382270932198,0.032976131886244,0.04435358941555,0.032976124435663,0.04435358941555,0.16731671988964,0.13382270932198,0.13382267951965]],"gt":[0,0,1],"r_k":[[-0.61739194393158,0.51385980844498,0.42082241177559,-0.84597915410995,-0.56397873163223,0.68753576278687,0.46284586191177,-0.51383101940155],[-0.058123361319304,-0.10972647368908,0.56748676300049,0.33279460668564,0.043446935713291,-0.15370915830135,0.31052520871162,-0.183050557971],[0.35883137583733,0.30515941977501,-0.25959515571594,-0.26458352804184,-0.22831094264984,-0.13855065405369,-0.28502681851387,-0.27266219258308],[-0.24498322606087,-0.11974129080772,0.72443670034409,0.064869910478592,-0.02750408090651,0.56694984436035,0.7913476228714,0.31748607754707]],"pred_proba":[0.37417793273926,0.079789623618126,0.54603242874146]},{"read_out":[[-0.71871727705002,0.17023086547852,0.56987243890762,0.023292694240808,0.35857811570168,0.68950819969177,0.83154648542404,-0.38504418730736],[-0.82456135749817,0.16553993523121,0.69663047790527,0.2643931210041,0.66309249401093,0.95901972055435,1.1425343751907,-0.24250753223896],[-0.84107846021652,0.20716151595116,0.74180382490158,0.21571755409241,0.49161559343338,0.9913477897644,1.1544399261475,-0.19463278353214],[-0.57581025362015,0.10930074006319,0.37895840406418,-0.083568960428238,0.37657877802849,0.41676938533783,0.55061852931976,-0.50095170736313]],"w_k":[[-0.19088074564934,-0.31659635901451,0.48295259475708,0.69887089729309,-0.6902928352356,0.70597124099731,0.35046896338463,0.26367062330246],[-0.19088074564934,-0.31659635901451,0.48295259475708,0.69887089729309,-0.6902928352356,0.70597124099731,0.35046896338463,0.26367062330246],[-0.19088074564934,-0.31659635901451,0.48295259475708,0.69887089729309,-0.6902928352356,0.70597124099731,0.35046896338463,0.26367062330246],[-0.19088074564934,-0.31659635901451,0.48295259475708,0.69887089729309,-0.6902928352356,0.70597124099731,0.35046896338463,0.26367062330246]],"episode_frame":5,"batch_sel":1,"write_weights":[[0.12802839279175,0.16343633830547,0.1310648471117,0.052904915064573,0.043439533561468,0.052904907613993,0.064047902822495,0.16386859118938,0.1310648471117,0.13106481730938],[0.12802839279175,0.16343633830547,0.1310648471117,0.052904915064573,0.043439533561468,0.052904907613993,0.064047902822495,0.16386859118938,0.1310648471117,0.13106481730938],[0.12802839279175,0.16343633830547,0.1310648471117,0.052904915064573,0.043439533561468,0.052904907613993,0.064047902822495,0.16386859118938,0.1310648471117,0.13106481730938],[0.12802839279175,0.16343633830547,0.1310648471117,0.052904915064573,0.043439533561468,0.052904907613993,0.064047902822495,0.16386859118938,0.1310648471117,0.13106481730938]],"input":[0.45849713869393,0.6906666313298,0.70905403303914,0.89739997382276,0.46820964012295,0.31579562276602,0.73407350108027,0.22260616463609,0,0,1],"memory":[[-0.95450037717819,0.34995567798615,0.57439231872559,0.58601939678192,1.7731006145477,1.1406290531158,1.4735728502274,0.45184320211411],[-1.1180503368378,0.53425884246826,1.1102457046509,-0.36521565914154,-1.0805757045746,1.1120607852936,1.1327316761017,-0.16312405467033],[-0.89282774925232,-0.040892243385315,0.72940099239349,0.83914089202881,1.6127836704254,1.2819775342941,1.5839853286743,-0.10168018937111],[-0.33990851044655,0.18427082896233,0.39681649208069,-0.18807703256607,-0.42748731374741,0.47346022725105,0.46085843443871,0.12283813208342],[-0.39849683642387,0.058171309530735,0.056206360459328,-0.44837409257889,0.19034272432327,-0.20019230246544,-0.072530254721642,-1.0078729391098],[-0.067122668027878,-0.074238047003746,-0.16384136676788,-0.3689344227314,0.30098685622215,-0.3282165825367,-0.26399394869804,-0.65060877799988],[-0.59021210670471,0.13042713701725,0.2807143330574,-0.51230651140213,-0.076332777738571,0.090108096599579,0.18819853663445,-0.94652652740479],[-1.3520817756653,0.4991283416748,1.5588728189468,0.2522719502449,0.014731854200363,1.7827727794647,1.9069074392319,-0.60018408298492],[-0.89282774925232,-0.040892243385315,0.72940099239349,0.83914089202881,1.6127836704254,1.2819775342941,1.5839853286743,-0.10168018937111],[-0.89282858371735,-0.040893375873566,0.72939991950989,0.83913975954056,1.6127827167511,1.2819765806198,1.5839842557907,-0.10168127715588]],"read_weights":[[0.074259400367737,0.1185313090682,0.073785938322544,0.1117997020483,0.1265716701746,0.10305236279964,0.14197346568108,0.10245421528816,0.073785938322544,0.073785945773125],[0.10412815958261,0.10056086629629,0.12503132224083,0.099947161972523,0.064534731209278,0.0548155605793,0.075057938694954,0.1258616745472,0.12503132224083,0.12503129243851],[0.10749620944262,0.145353525877,0.10554923117161,0.15647469460964,0.043326176702976,0.030225498601794,0.066012166440487,0.1344640403986,0.10554923117161,0.10554920881987],[0.062344782054424,0.073940426111221,0.057909779250622,0.070104211568832,0.18556134402752,0.23322466015816,0.1401864439249,0.060908734798431,0.057909779250622,0.057909794151783]],"gt":[0,1,0],"r_k":[[-0.44968780875206,0.92534565925598,-0.70873010158539,-0.76005041599274,-0.45259523391724,0.84861034154892,-0.013168430887163,-0.82863163948059],[0.85801374912262,-0.74083679914474,0.98905992507935,0.93939995765686,-0.096869140863419,0.68948793411255,0.97998851537704,-0.48226255178452],[-0.66487812995911,0.024127472192049,0.41983911395073,0.11927977204323,-0.57831525802612,0.80199038982391,0.97790569067001,0.74674129486084],[0.12133121490479,0.38318541646004,-0.4743210375309,-0.45490148663521,-0.053363207727671,-0.61561816930771,-0.41102227568626,-0.32087337970734]],"pred_proba":[0.081678062677383,0.89468610286713,0.02363583445549]},{"read_out":[[-0.65954393148422,0.018357712775469,0.54880279302597,-0.016347706317902,0.24967962503433,0.56302332878113,0.7696613073349,-0.32273030281067],[-0.38094440102577,-0.20341873168945,0.30293554067612,0.12557917833328,0.3779833316803,0.27989700436592,0.52247214317322,-0.28447496891022],[-0.085540302097797,-0.28021094202995,0.081511430442333,-0.069120422005653,-0.071161895990372,-0.13916435837746,0.046754088252783,-0.31554353237152],[-0.664395570755,0.010439280420542,0.56704348325729,0.029481895267963,0.25936985015869,0.60736632347107,0.81816500425339,-0.26201629638672]],"w_k":[[0.9292374253273,-0.84036499261856,-0.77235376834869,0.54612159729004,-0.69528472423553,-0.96598482131958,-0.94070065021515,-0.53468292951584],[0.9292374253273,-0.84036499261856,-0.77235376834869,0.54612159729004,-0.69528472423553,-0.96598482131958,-0.94070065021515,-0.53468292951584],[0.9292374253273,-0.84036499261856,-0.77235376834869,0.54612159729004,-0.69528472423553,-0.96598482131958,-0.94070065021515,-0.53468292951584],[0.9292374253273,-0.84036499261856,-0.77235376834869,0.54612159729004,-0.69528472423553,-0.96598482131958,-0.94070065021515,-0.53468292951584]],"episode_frame":6,"batch_sel":1,"write_weights":[[0.046062167733908,0.054629370570183,0.042785454541445,0.3129655122757,0.1370982080698,0.43348371982574,0.10357388854027,0.045001171529293,0.30395591259003,0.30395591259003],[0.046062167733908,0.054629370570183,0.042785454541445,0.3129655122757,0.1370982080698,0.43348371982574,0.10357388854027,0.045001171529293,0.30395591259003,0.30395591259003],[0.046062167733908,0.054629370570183,0.042785454541445,0.3129655122757,0.1370982080698,0.43348371982574,0.10357388854027,0.045001171529293,0.30395591259003,0.30395591259003],[0.046062167733908,0.054629370570183,0.042785454541445,0.3129655122757,0.1370982080698,0.43348371982574,0.10357388854027,0.045001171529293,0.30395591259003,0.30395591259003]],"input":[0.26452001160942,0.54870303743519,0.6646741933655,0.60925509803928,0.89786760066636,0.73541898583062,0.74907921324484,0.938532353146,0,1,0],"memory":[[-0.92797386646271,0.26673182845116,0.48188281059265,0.41760456562042,1.7806144952774,0.98461526632309,1.3479379415512,0.46461424231529],[-1.0952495336533,0.43431186676025,1.001607298851,-0.56071877479553,-1.0616166591644,0.91268217563629,0.96083831787109,-0.16050067543983],[-0.86173570156097,-0.1337938606739,0.62541222572327,0.66200280189514,1.6200823783875,1.1266556978226,1.4659974575043,-0.087018415331841],[0.57411801815033,-0.61969685554504,-0.37669551372528,-0.33108448982239,-1.1307973861694,-0.88022589683533,-0.79860770702362,-0.13163286447525],[-0.28753089904785,0.037790089845657,0.030123222619295,-0.61218059062958,0.065926298499107,-0.3994950056076,-0.24727155268192,-0.92111754417419],[1.0314893722534,-0.6961128115654,-0.66235172748566,-0.11986249685287,-0.89560985565186,-1.3677332401276,-1.2767333984375,-0.13485369086266],[-0.50481712818146,0.08340385556221,0.22749096155167,-0.67099303007126,-0.15708051621914,-0.098315879702568,0.025353312492371,-0.89105832576752],[-1.3265471458435,0.39127087593079,1.4400465488434,0.055128216743469,0.03520780429244,1.5987846851349,1.7590441703796,-0.59531188011169],[0.037479639053345,-0.83416950702667,-0.035747945308685,0.72063779830933,0.88676202297211,-0.023686408996582,0.38338780403137,-0.33930376172066],[0.037478804588318,-0.83417063951492,-0.035749018192291,0.72063678503036,0.88676106929779,-0.023687243461609,0.38338673114777,-0.33930486440659]],"read_weights":[[0.12042601406574,0.17367228865623,0.1236395612359,0.043590985238552,0.083646416664124,0.037164140492678,0.11786551773548,0.17747867107391,0.061258211731911,0.061258178204298],[0.12071388959885,0.086589612066746,0.12125553190708,0.075380891561508,0.082939334213734,0.079680524766445,0.08177050948143,0.10492341965437,0.12337323278189,0.12337312102318],[0.072220407426357,0.078091084957123,0.065344028174877,0.17244291305542,0.1153449639678,0.17937518656254,0.097679644823074,0.063386239111423,0.078057765960693,0.078057788312435],[0.13620360195637,0.19412261247635,0.13064508140087,0.053830534219742,0.05259520560503,0.044434182345867,0.078461699187756,0.18065810203552,0.064524538815022,0.064524471759796]],"gt":[0,0,1],"r_k":[[-0.76161003112793,0.7557520866394,0.1311871111393,0.019059443846345,-0.28608587384224,0.87727636098862,0.51723498106003,-0.4131908416748],[0.65119636058807,-0.10837829858065,0.69358682632446,-0.16054300963879,0.46119660139084,-0.48249489068985,0.79143166542053,0.1280433088541],[0.4212301671505,0.2250480055809,-0.71103549003601,-0.30440449714661,-0.17002575099468,-0.13077425956726,0.023390466347337,0.076318025588989],[-0.38113930821419,0.33960297703743,0.80407422780991,-0.053936775773764,-0.51024389266968,0.87318617105484,0.78361719846725,0.7704102396965]],"pred_proba":[0.32256838679314,0.052324365824461,0.6251072883606]},{"read_out":[[-0.60859566926956,-0.11139267683029,0.49307179450989,-0.18452590703964,-0.015542183071375,0.41997194290161,0.5315078496933,-0.20285458862782],[-0.18819534778595,-0.37837472558022,0.10965222865343,-0.069664120674133,0.047841265797615,-0.037108317017555,0.10237988829613,-0.16629993915558],[0.010142557322979,-0.41569101810455,-0.045966807752848,-0.22608268260956,-0.30057600140572,-0.33701455593109,-0.25669422745705,-0.19425922632217],[-0.65259426832199,-0.12759155035019,0.53388446569443,-0.043095201253891,0.20922930538654,0.5502016544342,0.69966053962708,-0.12951934337616]],"w_k":[[0.57878410816193,-0.65318733453751,-0.47020840644836,0.53660356998444,0.16180020570755,-0.56835079193115,-0.76232010126114,-0.17040914297104],[0.57878410816193,-0.65318733453751,-0.47020840644836,0.53660356998444,0.16180020570755,-0.56835079193115,-0.76232010126114,-0.17040914297104],[0.57878410816193,-0.65318733453751,-0.47020840644836,0.53660356998444,0.16180020570755,-0.56835079193115,-0.76232010126114,-0.17040914297104],[0.57878410816193,-0.65318733453751,-0.47020840644836,0.53660356998444,0.16180020570755,-0.56835079193115,-0.76232010126114,-0.17040914297104]],"episode_frame":7,"batch_sel":1,"write_weights":[[0.13102956116199,0.18674835562706,0.16366977989674,0.05178564041853,0.088584825396538,0.042746234685183,0.11346872150898,0.21178293228149,0.062073405832052,0.062073342502117],[0.13102956116199,0.18674835562706,0.16366977989674,0.05178564041853,0.088584825396538,0.042746234685183,0.11346872150898,0.21178293228149,0.062073405832052,0.062073342502117],[0.13102956116199,0.18674835562706,0.16366977989674,0.05178564041853,0.088584825396538,0.042746234685183,0.11346872150898,0.21178293228149,0.062073405832052,0.062073342502117],[0.13102956116199,0.18674835562706,0.16366977989674,0.05178564041853,0.088584825396538,0.042746234685183,0.11346872150898,0.21178293228149,0.062073405832052,0.062073342502117]],"input":[0.55504616489634,0.26681434595957,0.073917854344472,0.92151049152017,0.003185466863215,0.85341552901082,0.71074188034981,0.001563711790368,0,0,1],"memory":[[-0.97033840417862,0.24280093610287,0.50779974460602,0.24616719782352,1.6479960680008,0.9631410241127,1.2882058620453,0.54881256818771],[-1.1479660272598,0.43861490488052,1.0566172599792,-0.72721016407013,-1.1985965967178,0.8388175368309,0.82773685455322,-0.044519230723381],[-0.79359698295593,-0.36215060949326,0.52531570196152,0.50370019674301,1.4523679018021,0.97366058826447,1.2140356302261,-0.021200008690357],[0.45202124118805,-0.65094256401062,-0.36458972096443,-0.52275967597961,-1.2115775346756,-0.95321035385132,-0.91298246383667,-0.092605948448181],[0.040622394531965,-0.24928611516953,-0.12766419351101,-0.13564923405647,-0.11375394463539,-0.18583382666111,-0.28252276778221,0.017780102789402],[0.90594458580017,-0.73308384418488,-0.65505188703537,-0.31627276539803,-0.97534781694412,-1.4385941028595,-1.3876724243164,-0.1010669618845],[-0.44733688235283,-0.16275465488434,0.10497924685478,-0.79556757211685,-0.27808564901352,-0.29054459929466,-0.26860621571541,-0.86048126220703],[-1.2569839954376,0.17837980389595,1.3589736223221,-0.099901869893074,-0.14241988956928,1.4101966619492,1.4552010297775,-0.50276601314545],[-0.0044655874371529,-0.87998580932617,-0.038256049156189,0.56374496221542,0.78230232000351,-0.017216164618731,0.36944624781609,-0.29628822207451],[-0.0044664442539215,-0.87998688220978,-0.038257125765085,0.56374406814575,0.78230142593384,-0.017217068001628,0.36944508552551,-0.29628938436508]],"read_weights":[[0.10774821043015,0.19137316942215,0.10193686932325,0.06487225741148,0.055771972984076,0.052153073251247,0.13953244686127,0.17452505230904,0.056043472141027,0.056043483316898],[0.092893920838833,0.065196938812733,0.085784092545509,0.11545258760452,0.1171887665987,0.13225536048412,0.10833705216646,0.065605401992798,0.10864292085171,0.10864291340113],[0.041996475309134,0.05489644780755,0.041745763272047,0.17925073206425,0.17320445179939,0.19294783473015,0.13942323625088,0.042044658213854,0.067245192825794,0.067245274782181],[0.14607118070126,0.17507594823837,0.14049817621708,0.049790922552347,0.045340728014708,0.041276678442955,0.059568207710981,0.18518075346947,0.078598745167255,0.078598655760288]],"gt":[1,0,0],"r_k":[[-0.76564180850983,0.80860447883606,0.16490826010704,-0.88099348545074,-0.48545947670937,0.9018691778183,0.53732454776764,-0.74101620912552],[0.39227840304375,0.050044804811478,0.11277793347836,-0.35246858000755,0.4093699157238,-0.67418241500854,0.14027254283428,0.043513599783182],[0.67808955907822,0.023016503080726,-0.73559284210205,-0.74120795726776,-0.15463219583035,-0.68021178245544,-0.60185754299164,-0.47029322385788],[-0.62143838405609,0.027309088036418,0.9074410200119,0.27811342477798,-0.4470788538456,0.94130605459213,0.90977966785431,0.7203950881958]],"pred_proba":[0.64212250709534,0.02787715010345,0.33000034093857]},{"read_out":[[-0.69245880842209,-0.16942767798901,0.50240880250931,-0.10413131117821,0.18389669060707,0.51511543989182,0.4795595407486,-0.2270912528038],[-0.46845427155495,-0.37621369957924,0.31705674529076,0.083626672625542,0.38565629720688,0.34350389242172,0.39899182319641,-0.17049327492714],[-0.13633413612843,-0.47313731908798,0.050682980567217,-0.2356603294611,-0.25831562280655,-0.23303174972534,-0.25366255640984,-0.23094122111797],[-0.72485733032227,-0.17117485404015,0.54528737068176,-0.012878943234682,0.2842563688755,0.61458486318588,0.59266877174377,-0.17707455158234]],"w_k":[[0.25251060724258,-0.64106750488281,-0.50525438785553,0.87199813127518,0.9460820555687,0.085897251963615,-0.54101800918579,-0.5407737493515],[0.25251060724258,-0.64106750488281,-0.50525438785553,0.87199813127518,0.9460820555687,0.085897251963615,-0.54101800918579,-0.5407737493515],[0.25251060724258,-0.64106750488281,-0.50525438785553,0.87199813127518,0.9460820555687,0.085897251963615,-0.54101800918579,-0.5407737493515],[0.25251060724258,-0.64106750488281,-0.50525438785553,0.87199813127518,0.9460820555687,0.085897251963615,-0.54101800918579,-0.5407737493515]],"episode_frame":8,"batch_sel":1,"write_weights":[[0.14297197759151,0.19257844984531,0.15873432159424,0.048734504729509,0.065595835447311,0.061618015170097,0.058304343372583,0.18125174939632,0.076931104063988,0.076931022107601],[0.14297197759151,0.19257844984531,0.15873432159424,0.048734504729509,0.065595835447311,0.061618015170097,0.058304343372583,0.18125174939632,0.076931104063988,0.076931022107601],[0.14297197759151,0.19257844984531,0.15873432159424,0.048734504729509,0.065595835447311,0.061618015170097,0.058304343372583,0.18125174939632,0.076931104063988,0.076931022107601],[0.14297197759151,0.19257844984531,0.15873432159424,0.048734504729509,0.065595835447311,0.061618015170097,0.058304343372583,0.18125174939632,0.076931104063988,0.076931022107601]],"input":[0.26452001160942,0.54870303743519,0.6646741933655,0.60925509803928,0.89786760066636,0.73541898583062,0.74907921324484,0.938532353146,1,0,0],"memory":[[-1.071692109108,0.28333520889282,0.57075995206833,0.27600848674774,1.7828793525696,1.1316692829132,1.3667036294937,0.54204213619232],[-1.3485548496246,0.32240957021713,1.0883475542068,-0.55083686113358,-0.84211319684982,1.0246891975403,0.68764245510101,-0.1407165825367],[-0.97526609897614,-0.47516509890556,0.57282435894012,0.62050050497055,1.7106204032898,1.147611618042,1.117898106575,-0.096741162240505],[0.33698683977127,-0.65234386920929,-0.26856487989426,-0.61123383045197,-1.2697290182114,-0.88843929767609,-0.88333308696747,-0.057040862739086],[-0.19249193370342,-0.15683716535568,0.081780657172203,-0.003387144766748,0.061508748680353,0.079161867499352,-0.13358640670776,-0.034640446305275],[0.70606827735901,-0.89367318153381,-0.56257349252701,-0.33800387382507,-0.93770051002502,-1.3583635091782,-1.5153872966766,-0.12983220815659],[-0.53405523300171,-0.19461798667908,0.16089338064194,-0.81311786174774,-0.25492268800735,-0.20580321550369,-0.2559626698494,-0.86472052335739],[-1.3778373003006,0.22986969351768,1.4095649719238,-0.014751449227333,0.089470639824867,1.5921589136124,1.4990129470825,-0.5244334936142],[-0.078654311597347,-0.87126791477203,0.026873111724854,0.53483593463898,0.79933089017868,0.10089476406574,0.4472576379776,-0.28971725702286],[-0.078655153512955,-0.87126904726028,0.026872027665377,0.53483498096466,0.79932987689972,0.10089377313852,0.4472564458847,-0.28971838951111]],"read_weights":[[0.10999013483524,0.16331134736538,0.10037660598755,0.064743921160698,0.085322842001915,0.052362464368343,0.14166134595871,0.15468692779541,0.063772194087505,0.063772194087505],[0.11443964391947,0.079160623252392,0.11806058883667,0.079630330204964,0.071305334568024,0.084482505917549,0.06426963955164,0.10143575072289,0.14360788464546,0.14360773563385],[0.047504682093859,0.06061988696456,0.048838134855032,0.20567952096462,0.073049701750278,0.2144710123539,0.15332299470901,0.050328258424997,0.073092885315418,0.073092974722385],[0.12136740237474,0.17206379771233,0.11543440818787,0.058597829192877,0.087447948753834,0.044973824173212,0.068141892552376,0.17113649845123,0.080418229103088,0.080418139696121]],"gt":[0,0,1],"r_k":[[-0.55175149440765,0.82779920101166,-0.084784463047981,-0.90964770317078,-0.18249627947807,0.89320832490921,0.45646971464157,-0.84061735868454],[0.5092995762825,-0.2208473533392,0.57323288917542,0.23265053331852,0.21498435735703,-0.31192860007286,0.45900762081146,0.16252787411213],[0.58506119251251,-0.094110861420631,-0.32021969556808,-0.60688638687134,-0.15899322926998,-0.50751310586929,-0.32739791274071,-0.34002855420113],[-0.14772002398968,-0.092900663614273,0.6749142408371,0.012845375575125,-0.41603061556816,0.67315185070038,0.58177995681763,0.32746958732605]],"pred_proba":[0.22998055815697,0.030276190489531,0.73974317312241]},{"read_out":[[-0.85447424650192,-0.037698190659285,0.64107352495193,-0.086686238646507,0.11046709865332,0.77109688520432,0.77277714014053,-0.16131283342838],[-0.77379274368286,-0.15892353653908,0.57171016931534,0.077160649001598,0.34040647745132,0.76232767105103,0.83650457859039,-0.12752997875214],[-0.8855305314064,-0.004498053342104,0.67515355348587,-0.03324368596077,0.17007653415203,0.85479557514191,0.85861521959305,-0.11127469688654],[-0.47081112861633,-0.27037835121155,0.33458545804024,-0.18025454878807,-0.15811815857887,0.22334437072277,0.22048580646515,-0.178547129035]],"w_k":[[-0.10042050480843,-0.35261264443398,0.28714868426323,0.87601298093796,-0.12754048407078,0.63842082023621,0.32715708017349,0.0039813346229494],[-0.10042050480843,-0.35261264443398,0.28714868426323,0.87601298093796,-0.12754048407078,0.63842082023621,0.32715708017349,0.0039813346229494],[-0.10042050480843,-0.35261264443398,0.28714868426323,0.87601298093796,-0.12754048407078,0.63842082023621,0.32715708017349,0.0039813346229494],[-0.10042050480843,-0.35261264443398,0.28714868426323,0.87601298093796,-0.12754048407078,0.63842082023621,0.32715708017349,0.0039813346229494]],"episode_frame":9,"batch_sel":1,"write_weights":[[0.14332507550716,0.16776379942894,0.11254961788654,0.082124158740044,0.11025329679251,0.043849896639585,0.091429710388184,0.1668596714735,0.078408516943455,0.078408427536488],[0.14332507550716,0.16776379942894,0.11254961788654,0.082124158740044,0.11025329679251,0.043849896639585,0.091429710388184,0.1668596714735,0.078408516943455,0.078408427536488],[0.14332507550716,0.16776379942894,0.11254961788654,0.082124158740044,0.11025329679251,0.043849896639585,0.091429710388184,0.1668596714735,0.078408516943455,0.078408427536488],[0.14332507550716,0.16776379942894,0.11254961788654,0.082124158740044,0.11025329679251,0.043849896639585,0.091429710388184,0.1668596714735,0.078408516943455,0.078408427536488]],"input":[0.45849713869393,0.6906666313298,0.70905403303914,0.89739997382276,0.46820964012295,0.31579562276602,0.73407350108027,0.22260616463609,0,0,1],"memory":[[-1.4294159412384,0.41515207290649,0.88256639242172,0.29443415999413,1.5649626255035,1.618309378624,1.8565502166748,0.59422421455383],[-1.5662090778351,0.47162050008774,1.2742786407471,-0.62242996692657,-0.95828753709793,1.2429320812225,0.94082939624786,-0.060821391642094],[-1.1726589202881,-0.35739105939865,0.71514356136322,0.52921265363693,1.5844655036926,1.3465657234192,1.3474791049957,-0.059211630374193],[-0.3433336019516,0.15327061712742,0.32205483317375,-0.0056555196642876,-0.15852274000645,0.47520187497139,0.51247304677963,0.04854080080986],[-0.50134921073914,-0.044545195996761,0.36763572692871,0.035619229078293,-0.11027389764786,0.51730155944824,0.3084292113781,0.014042865484953],[0.52499788999557,-0.75691723823547,-0.41184055805206,-0.45324003696442,-1.0025751590729,-1.1707229614258,-1.2626363039017,-0.099411353468895],[-0.85857576131821,-0.079606562852859,0.47944554686546,-0.74802380800247,-0.41558104753494,0.27733293175697,0.234021961689,-0.81372207403183],[-1.6070663928986,0.37991684675217,1.5942206382751,-0.099608898162842,-0.0434779971838,1.8206963539124,1.7622960805893,-0.45229870080948],[-0.27678534388542,-0.75915384292603,0.15646946430206,0.42112016677856,0.66806161403656,0.30185744166374,0.68452024459839,-0.2745903134346],[-0.27678602933884,-0.75915503501892,0.15646831691265,0.42111933231354,0.66806077957153,0.30185633897781,0.6845189332962,-0.27459144592285]],"read_weights":[[0.097680777311325,0.12592636048794,0.089662954211235,0.11766695231199,0.10781223326921,0.06169943138957,0.14245419204235,0.11798241734505,0.069557324051857,0.069557346403599],[0.10197708010674,0.080280117690563,0.11564583331347,0.10441116988659,0.10128740221262,0.048346202820539,0.066785342991352,0.10716565698385,0.13705068826675,0.13705058395863],[0.10948814451694,0.13394777476788,0.092630229890347,0.14057840406895,0.13133798539639,0.035962998867035,0.088991060853004,0.12407653778791,0.071493469178677,0.071493417024612],[0.064391285181046,0.085771687328815,0.064363233745098,0.068278931081295,0.066027477383614,0.2986675798893,0.13569250702858,0.069684453308582,0.073561362922192,0.073561452329159]],"gt":[0,1,0],"r_k":[[-0.58532547950745,0.83432692289352,-0.77601385116577,-0.73489737510681,-0.27032029628754,0.80646061897278,0.27322658896446,-0.82097184658051],[0.89332628250122,-0.76437830924988,0.99211746454239,0.92231893539429,0.15345422923565,0.7518424987793,0.98476278781891,-0.33487412333488],[-0.70649182796478,-0.037701714783907,0.31803992390633,-0.33173927664757,-0.55552244186401,0.7298995256424,0.97965377569199,0.66630333662033],[0.30544191598892,0.34856933355331,-0.55266797542572,-0.4594918191433,-0.19039203226566,-0.75533854961395,-0.70256090164185,-0.4338042140007]],"pred_proba":[0.046998150646687,0.94302678108215,0.0099750161170959]},{"read_out":[[-0.64511221647263,-0.15622314810753,0.35338723659515,-0.33960071206093,-0.13505701720715,0.34765529632568,0.37357270717621,-0.23776988685131],[-0.22585798799992,-0.46770113706589,0.0077862441539764,-0.27967342734337,-0.14562126994133,-0.12757867574692,-0.024104923009872,-0.31223246455193],[0.17055596411228,-0.70896965265274,-0.28601744771004,-0.29471617937088,-0.35282224416733,-0.59741854667664,-0.46108424663544,-0.40755680203438],[-0.63154792785645,-0.15938764810562,0.33589246869087,-0.30128067731857,-0.07074736058712,0.35393622517586,0.38955956697464,-0.18533128499985]],"w_k":[[0.93445521593094,-0.86289483308792,-0.872074842453,0.4551694393158,-0.52167046070099,-0.98158800601959,-0.95371317863464,-0.771164894104],[0.93445521593094,-0.86289483308792,-0.872074842453,0.4551694393158,-0.52167046070099,-0.98158800601959,-0.95371317863464,-0.771164894104],[0.93445521593094,-0.86289483308792,-0.872074842453,0.4551694393158,-0.52167046070099,-0.98158800601959,-0.95371317863464,-0.771164894104],[0.93445521593094,-0.86289483308792,-0.872074842453,0.4551694393158,-0.52167046070099,-0.98158800601959,-0.95371317863464,-0.771164894104]],"episode_frame":10,"batch_sel":1,"write_weights":[[0.034371502697468,0.045784175395966,0.50056529045105,0.036446694284678,0.035244889557362,0.15942613780499,0.072431474924088,0.50340569019318,0.50547516345978,0.50547522306442],[0.034371502697468,0.045784175395966,0.50056529045105,0.036446694284678,0.035244889557362,0.15942613780499,0.072431474924088,0.50340569019318,0.50547516345978,0.50547522306442],[0.034371502697468,0.045784175395966,0.50056529045105,0.036446694284678,0.035244889557362,0.15942613780499,0.072431474924088,0.50340569019318,0.50547516345978,0.50547522306442],[0.034371502697468,0.045784175395966,0.50056529045105,0.036446694284678,0.035244889557362,0.15942613780499,0.072431474924088,0.50340569019318,0.50547516345978,0.50547522306442]],"input":[0.55504616489634,0.26681434595957,0.073917854344472,0.92151049152017,0.003185466863215,0.85341552901082,0.71074188034981,0.001563711790368,0,1,0],"memory":[[-1.4142527580261,0.31128895282745,0.74882769584656,0.14363661408424,1.6143409013748,1.4615864753723,1.7496514320374,0.54766488075256],[-1.564187169075,0.37001118063927,1.1339820623398,-0.78650045394897,-0.90327179431915,1.0574128627777,0.79236221313477,-0.1178093701601],[-0.045308589935303,-1.2242674827576,-0.35208189487457,0.22610992193222,0.84981942176819,-0.23481416702271,-0.059997081756592,-0.55585116147995],[-0.34155601263046,0.033670157194138,0.16586826741695,-0.18002209067345,-0.088275268673897,0.2885759472847,0.37529531121254,-0.015887573361397],[-0.49753400683403,-0.15781326591969,0.21990668773651,-0.1302869617939,-0.045483082532883,0.34121164679527,0.18057508766651,-0.04509124532342],[0.63533717393875,-0.76121282577515,-0.47098809480667,-0.62514364719391,-1.1260503530502,-1.3692941665649,-1.4333307743073,-0.029831655323505],[-0.81681203842163,-0.14982706308365,0.37089025974274,-0.89336514472961,-0.42194175720215,0.10339738428593,0.093146696686745,-0.83250242471695],[-0.49660122394562,-0.49743419885635,0.50925350189209,-0.420982837677,-0.75864297151566,0.20989143848419,0.31915509700775,-0.96781116724014],[0.8731210231781,-1.6258280277252,-0.90740597248077,0.11676222085953,-0.085444211959839,-1.2697670459747,-0.70037651062012,-0.75385576486588],[1.1499065160751,-0.86667400598526,-1.0638753175735,-0.30435788631439,-0.7535058259964,-1.5716246366501,-1.3848967552185,-0.47926539182663]],"read_weights":[[0.12949803471565,0.16847458481789,0.044913612306118,0.17081159353256,0.1463530510664,0.036958821117878,0.12080302834511,0.11564031243324,0.033075504004955,0.033471450209618],[0.11490290611982,0.091305583715439,0.10082574933767,0.10155621916056,0.0798120200634,0.1085791438818,0.10545048862696,0.083649665117264,0.10430137068033,0.10961681604385],[0.046576678752899,0.053341459482908,0.099952653050423,0.051444698125124,0.048261996358633,0.17790484428406,0.092148639261723,0.074593208730221,0.15843386948109,0.19734197854996],[0.15623469650745,0.16718938946724,0.049948763102293,0.17087434232235,0.15140827000141,0.0452576354146,0.086191512644291,0.09695939719677,0.038444120436907,0.037491872906685]],"gt":[1,0,0],"r_k":[[-0.89148783683777,0.69972860813141,0.24219186604023,-0.12825348973274,-0.41011610627174,0.89501428604126,0.76267313957214,-0.35849475860596],[0.27462050318718,0.23831042647362,0.19313997030258,-0.62279236316681,0.46829479932785,-0.61485308408737,0.35966551303864,0.16996273398399],[0.53480988740921,0.2374127805233,-0.83787477016449,-0.71788263320923,0.030415389686823,-0.64219206571579,-0.55944961309433,-0.33145198225975],[-0.40424820780754,0.17609466612339,0.9067804813385,0.19640842080116,-0.45366391539574,0.94348460435867,0.88237702846527,0.85618805885315]],"pred_proba":[0.54592078924179,0.056109815835953,0.39796942472458]},{"read_out":[[-0.67051309347153,-0.26925599575043,0.34140887856483,-0.24652178585529,-0.0018909461796284,0.3601912856102,0.28558248281479,-0.44125035405159],[-0.12020882964134,-0.65204387903214,-0.10902965068817,-0.18174438178539,-0.065477915108204,-0.27461886405945,-0.24991482496262,-0.45203325152397],[0.081130690872669,-0.77388066053391,-0.25295802950859,-0.24110212922096,-0.25455114245415,-0.55048811435699,-0.50984787940979,-0.51092725992203],[-0.68093299865723,-0.25051838159561,0.34492781758308,-0.18814571201801,0.097196482121944,0.41294118762016,0.35140490531921,-0.36382660269737]],"w_k":[[0.26205793023109,-0.58372616767883,-0.52598530054092,0.89905899763107,0.94409418106079,-0.047440525144339,-0.49035531282425,-0.7072040438652],[0.26205793023109,-0.58372616767883,-0.52598530054092,0.89905899763107,0.94409418106079,-0.047440525144339,-0.49035531282425,-0.7072040438652],[0.26205793023109,-0.58372616767883,-0.52598530054092,0.89905899763107,0.94409418106079,-0.047440525144339,-0.49035531282425,-0.7072040438652],[0.26205793023109,-0.58372616767883,-0.52598530054092,0.89905899763107,0.94409418106079,-0.047440525144339,-0.49035531282425,-0.7072040438652]],"episode_frame":11,"batch_sel":1,"write_weights":[[0.17716571688652,0.16304197907448,0.048709701746702,0.16663551330566,0.17245900630951,0.068941622972488,0.1088600680232,0.094554156064987,0.037490449845791,0.036561824381351],[0.17716571688652,0.16304197907448,0.048709701746702,0.16663551330566,0.17245900630951,0.068941622972488,0.1088600680232,0.094554156064987,0.037490449845791,0.036561824381351],[0.17716571688652,0.16304197907448,0.048709701746702,0.16663551330566,0.17245900630951,0.068941622972488,0.1088600680232,0.094554156064987,0.037490449845791,0.036561824381351],[0.17716571688652,0.16304197907448,0.048709701746702,0.16663551330566,0.17245900630951,0.068941622972488,0.1088600680232,0.094554156064987,0.037490449845791,0.036561824381351]],"input":[0.55504616489634,0.26681434595957,0.073917854344472,0.92151049152017,0.003185466863215,0.85341552901082,0.71074188034981,0.001563711790368,1,0,0],"memory":[[-1.54536652565,0.1307125389576,0.74889767169952,0.40133601427078,1.9882242679596,1.649974822998,1.705855846405,0.26790502667427],[-1.6666266918182,0.40085360407829,1.1971750259399,-0.67257571220398,-0.70240449905396,1.218913435936,0.85007637739182,-0.18823766708374],[-0.12457603216171,-1.2335448265076,-0.28967863321304,0.19386249780655,0.84772646427155,-0.17441613972187,-0.024184897542,-0.5721755027771],[-0.44296550750732,0.062570504844189,0.23161759972572,-0.065416604280472,0.1140116751194,0.46076875925064,0.44310277700424,-0.089047133922577],[-0.13193091750145,-0.17812962830067,-0.014925442636013,0.27576565742493,0.39341700077057,0.15919530391693,-0.080963328480721,-0.28229278326035],[0.46595451235771,-0.97788870334625,-0.4555476307869,-0.52875661849976,-0.95379090309143,-1.328097820282,-1.563826084137,-0.25303176045418],[-0.93769937753677,-0.3732573390007,0.35010263323784,-0.68771409988403,-0.12840780615807,0.21072120964527,-0.0068274214863777,-1.1054832935333],[-0.57887518405914,-0.49459385871887,0.55967772006989,-0.3745591044426,-0.65832626819611,0.30402404069901,0.34926322102547,-1.0148488283157],[0.75827151536942,-1.6363857984543,-0.82746869325638,0.043412834405899,-0.1274244338274,-1.2423679828644,-0.69273644685745,-0.7564651966095],[1.0089573860168,-0.8773530125618,-0.97109001874924,-0.39833319187164,-0.81199187040329,-1.5592225790024,-1.3936148881912,-0.47654378414154]],"read_weights":[[0.1141369715333,0.17235015332699,0.055252928286791,0.16109474003315,0.071178339421749,0.048085976392031,0.14709794521332,0.14223991334438,0.042851928621531,0.045711059123278],[0.089953169226646,0.072362691164017,0.1076493114233,0.072571337223053,0.084303759038448,0.13668015599251,0.081059664487839,0.073399066925049,0.13424149155617,0.14777936041355],[0.042635820806026,0.051074299961329,0.091521561145782,0.044187463819981,0.069116920232773,0.17868342995644,0.091020874679089,0.076760306954384,0.15724301338196,0.19775624573231],[0.14999601244926,0.17852909862995,0.065170451998711,0.17549951374531,0.075822718441486,0.048664126545191,0.091832377016544,0.12391705065966,0.047637481242418,0.042931199073792]],"gt":[1,0,0],"r_k":[[-0.73355770111084,0.80800634622574,0.24988670647144,-0.92302370071411,-0.30869713425636,0.92122119665146,0.66493678092957,-0.82646387815475],[0.28699678182602,0.15484145283699,0.17225649952888,-0.1899491250515,0.27125352621078,-0.53506886959076,0.039202883839607,0.12638302147388],[0.68456387519836,0.20537516474724,-0.54057449102402,-0.75843775272369,-0.04907350987196,-0.6895005106926,-0.66075575351715,-0.51203691959381],[-0.31027150154114,-0.18206191062927,0.88240218162537,0.20947441458702,-0.47714322805405,0.88488560914993,0.85986614227295,0.57285821437836]],"pred_proba":[0.60794919729233,0.022652229294181,0.36939850449562]},{"read_out":[[-0.75700044631958,-0.45491471886635,0.33161610364914,-0.13273094594479,0.256178855896,0.41505831480026,0.1834429204464,-0.53546416759491],[-0.13877946138382,-0.82114678621292,-0.14781075716019,-0.1158986389637,0.078459516167641,-0.2925409078598,-0.39484292268753,-0.4907511472702],[0.01643905043602,-0.91292160749435,-0.26036712527275,-0.16905979812145,-0.071138732135296,-0.50824320316315,-0.58916532993317,-0.52130872011185],[-0.7773334980011,-0.43732041120529,0.34466421604156,-0.078629449009895,0.34231573343277,0.47403046488762,0.24567659199238,-0.46521052718163]],"w_k":[[0.27460506558418,-0.70837736129761,-0.57560479640961,0.90547978878021,0.96643340587616,-0.057760424911976,-0.59494531154633,-0.63723927736282],[0.27460506558418,-0.70837736129761,-0.57560479640961,0.90547978878021,0.96643340587616,-0.057760424911976,-0.59494531154633,-0.63723927736282],[0.27460506558418,-0.70837736129761,-0.57560479640961,0.90547978878021,0.96643340587616,-0.057760424911976,-0.59494531154633,-0.63723927736282],[0.27460506558418,-0.70837736129761,-0.57560479640961,0.90547978878021,0.96643340587616,-0.057760424911976,-0.59494531154633,-0.63723927736282]],"episode_frame":12,"batch_sel":1,"write_weights":[[0.14538989961147,0.20375499129295,0.063169188797474,0.20081843435764,0.10420253127813,0.077877931296825,0.089012369513512,0.12011177837849,0.046174619346857,0.041612859815359],[0.14538989961147,0.20375499129295,0.063169188797474,0.20081843435764,0.10420253127813,0.077877931296825,0.089012369513512,0.12011177837849,0.046174619346857,0.041612859815359],[0.14538989961147,0.20375499129295,0.063169188797474,0.20081843435764,0.10420253127813,0.077877931296825,0.089012369513512,0.12011177837849,0.046174619346857,0.041612859815359],[0.14538989961147,0.20375499129295,0.063169188797474,0.20081843435764,0.10420253127813,0.077877931296825,0.089012369513512,0.12011177837849,0.046174619346857,0.041612859815359]],"input":[0.55504616489634,0.26681434595957,0.073917854344472,0.92151049152017,0.003185466863215,0.85341552901082,0.71074188034981,0.001563711790368,1,0,0],"memory":[[-1.6278505325317,0.1453942656517,0.80769753456116,0.47250118851662,2.1613500118256,1.7981102466583,1.7625118494034,0.26500046253204],[-1.799057841301,0.10130760073662,1.129182934761,-0.35408848524094,-0.15260004997253,1.3726432323456,0.67146456241608,-0.36670058965683],[-0.19535952806473,-1.2610828876495,-0.23631747066975,0.17463192343712,0.89474213123322,-0.098476216197014,0.015179395675659,-0.55211859941483],[-0.12803143262863,-0.29654371738434,-0.067039676010609,0.31414631009102,0.54113507270813,0.15522980690002,-0.17159807682037,-0.17678736150265],[-0.2301225066185,-0.51022446155548,-0.090331472456455,0.4894648194313,0.78129351139069,0.23945905268192,-0.25529766082764,-0.43435388803482],[0.31750932335854,-1.344409942627,-0.50020933151245,-0.402980864048,-0.63675433397293,-1.2834001779556,-1.7540013790131,-0.36567944288254],[-1.0128203630447,-0.41158667206764,0.37854796648026,-0.6376541852951,0.0069564580917358,0.28569489717484,-0.014208825305104,-1.1170637607574],[-0.66600704193115,-0.50464677810669,0.60079842805862,-0.30733999609947,-0.49198389053345,0.40466398000717,0.35550650954247,-1.0229218006134],[0.65751528739929,-1.6840373277664,-0.75766390562057,-0.026763446629047,-0.12167842686176,-1.1919692754745,-0.66772228479385,-0.71358048915863],[0.88739937543869,-0.9365850687027,-0.89245456457138,-0.49100911617279,-0.81884074211121,-1.5223019123077,-1.3816760778427,-0.42259883880615]],"read_weights":[[0.13169260323048,0.18070204555988,0.068129278719425,0.06990771740675,0.074224941432476,0.051326513290405,0.16492557525635,0.15840610861778,0.049134150147438,0.051551010459661],[0.07678646594286,0.064481489360332,0.099445879459381,0.083775483071804,0.080399416387081,0.14316768944263,0.078129127621651,0.073993615806103,0.14019334316254,0.15962755680084],[0.041044127196074,0.044987145811319,0.086975485086441,0.071332179009914,0.072983630001545,0.17306080460548,0.082445733249187,0.068870112299919,0.15845799446106,0.1998428106308],[0.16514720022678,0.19749395549297,0.07444155216217,0.076453380286694,0.076117716729641,0.053279157727957,0.10818243771791,0.14631402492523,0.05337480455637,0.049195855855942]],"gt":[1,0,0],"r_k":[[-0.71247869729996,0.76534497737885,0.16834557056427,-0.88497495651245,-0.14230646193027,0.91496801376343,0.58082288503647,-0.82037049531937],[0.35967203974724,0.070005796849728,0.23938925564289,-0.21946050226688,0.16392408311367,-0.47115695476532,-0.032430879771709,0.12746129930019],[0.69345462322235,0.11695438623428,-0.47705319523811,-0.6787588596344,-0.057320427149534,-0.65643417835236,-0.65906000137329,-0.44082656502724],[-0.30346608161926,-0.11283022910357,0.83802473545074,0.073130831122398,-0.48272296786308,0.85549139976501,0.80450820922852,0.52565860748291]],"pred_proba":[0.60849469900131,0.012694920413196,0.37881037592888]},{"read_out":[[-0.61718565225601,-0.59062135219574,0.17532104253769,-0.082950457930565,0.20092552900314,0.23753564059734,-0.15683102607727,-0.66895025968552],[-0.14334425330162,-0.88489210605621,-0.20671418309212,-0.061334144324064,0.13142105937004,-0.30008742213249,-0.56034755706787,-0.57449251413345],[-0.013135150074959,-0.98643851280212,-0.31244224309921,-0.13274130225182,0.0062034130096436,-0.50895416736603,-0.7280353307724,-0.58810472488403],[-0.63095325231552,-0.57416594028473,0.19971451163292,-0.072360448539257,0.19028693437576,0.26823377609253,-0.12843477725983,-0.63215464353561]],"w_k":[[0.35891231894493,-0.68067240715027,-0.62675929069519,0.8864951133728,0.94399428367615,-0.13749240338802,-0.63241243362427,-0.65535849332809],[0.35891231894493,-0.68067240715027,-0.62675929069519,0.8864951133728,0.94399428367615,-0.13749240338802,-0.63241243362427,-0.65535849332809],[0.35891231894493,-0.68067240715027,-0.62675929069519,0.8864951133728,0.94399428367615,-0.13749240338802,-0.63241243362427,-0.65535849332809],[0.35891231894493,-0.68067240715027,-0.62675929069519,0.8864951133728,0.94399428367615,-0.13749240338802,-0.63241243362427,-0.65535849332809]],"episode_frame":13,"batch_sel":1,"write_weights":[[0.20028257369995,0.18918228149414,0.1133943349123,0.073235787451267,0.072914250195026,0.05103686824441,0.1457152068615,0.14015629887581,0.093214198946953,0.047125414013863],[0.20028257369995,0.18918228149414,0.1133943349123,0.073235787451267,0.072914250195026,0.05103686824441,0.1457152068615,0.14015629887581,0.093214198946953,0.047125414013863],[0.20028257369995,0.18918228149414,0.1133943349123,0.073235787451267,0.072914250195026,0.05103686824441,0.1457152068615,0.14015629887581,0.093214198946953,0.047125414013863],[0.20028257369995,0.18918228149414,0.1133943349123,0.073235787451267,0.072914250195026,0.05103686824441,0.1457152068615,0.14015629887581,0.093214198946953,0.047125414013863]],"input":[0.55504616489634,0.26681434595957,0.073917854344472,0.92151049152017,0.003185466863215,0.85341552901082,0.71074188034981,0.001563711790368,1,0,0],"memory":[[-0.086266368627548,-0.20349924266338,-0.15094910562038,0.28561466932297,0.49588847160339,0.084576532244682,-0.23846033215523,-0.21956668794155],[-1.8910411596298,0.16182506084442,1.1446496248245,-0.25507527589798,0.086499944329262,1.5149216651917,0.683220744133,-0.40142545104027],[-0.26640674471855,-1.5142966508865,-0.38078504800797,0.3793032169342,1.2542767524719,-0.073688946664333,-0.22735694050789,-0.74784821271896],[-0.18560591340065,-0.29162812232971,-0.04096145927906,0.31099838018417,0.59540796279907,0.22710248827934,-0.1460594534874,-0.17804311215878],[-0.2882838845253,-0.50564217567444,-0.06636169552803,0.48864430189133,0.83900916576385,0.30781221389771,-0.23521292209625,-0.43685254454613],[0.21768689155579,-1.3626356124878,-0.44657602906227,-0.48550736904144,-0.66133004426956,-1.228284239769,-1.7312089204788,-0.33846980333328],[-1.0842009782791,-0.66893553733826,0.20368957519531,-0.36649879813194,0.46249237656593,0.31286293268204,-0.30061313509941,-1.3469953536987],[-0.74585700035095,-0.47657704353333,0.61384642124176,-0.24491840600967,-0.32016777992249,0.51074767112732,0.35811778903008,-1.0499800443649],[0.55810421705246,-1.9544433355331,-0.88226556777954,0.11822275072336,0.17529140412807,-1.182342171669,-0.91197180747986,-0.88758939504623],[0.77654236555099,-0.9617583155632,-0.83268642425537,-0.59149956703186,-0.85986489057541,-1.4701135158539,-1.3603475093842,-0.38966038823128]],"read_weights":[[0.076627030968666,0.18770350515842,0.073249191045761,0.084433764219284,0.086097188293934,0.05898991972208,0.14658769965172,0.17058132588863,0.055692423135042,0.060037929564714],[0.092612609267235,0.074727945029736,0.10353164374828,0.09073680639267,0.086900137364864,0.1293688416481,0.073406040668488,0.076166607439518,0.12808340787888,0.14446599781513],[0.079154312610626,0.043973907828331,0.085912026464939,0.06142358854413,0.065229706466198,0.16834896802902,0.085120983421803,0.06638091057539,0.14828185737133,0.19617383182049],[0.069318421185017,0.21778102219105,0.07689955830574,0.091531299054623,0.088928915560246,0.062518067657948,0.10295729339123,0.17367547750473,0.058854639530182,0.057535339146852]],"gt":[1,0,0],"r_k":[[-0.62884664535522,0.7236659526825,-0.02935790643096,-0.8370316028595,-0.13529887795448,0.89173126220703,0.50220108032227,-0.75401985645294],[0.36983442306519,0.026303868740797,0.27311977744102,-0.11924074590206,0.15943391621113,-0.36139765381813,0.083537384867668,0.2173675596714],[0.63338947296143,0.050855558365583,-0.5221534371376,-0.74709749221802,-0.15372684597969,-0.65027236938477,-0.60230958461761,-0.46676406264305],[-0.27678653597832,-0.11003833264112,0.73493981361389,0.053919453173876,-0.49675807356834,0.77745467424393,0.69087666273117,0.36490061879158]],"pred_proba":[0.47825837135315,0.036978404968977,0.48476320505142]},{"read_out":[[-0.70473206043243,-0.63585942983627,0.1373083293438,-0.039231836795807,0.3967450261116,0.28305751085281,-0.19946321845055,-0.73393398523331],[-0.21634936332703,-0.96683150529861,-0.27717468142509,-0.036152683198452,0.29360088706017,-0.30765247344971,-0.6621727347374,-0.63010007143021],[-0.10372027754784,-1.0534144639969,-0.37303334474564,-0.076140835881233,0.22110816836357,-0.47326773405075,-0.79047167301178,-0.63826668262482],[-0.73573911190033,-0.61930084228516,0.17667183279991,-0.042763762176037,0.37289923429489,0.32288840413094,-0.16317102313042,-0.70702105760574]],"w_k":[[0.33326804637909,-0.6891428232193,-0.64029049873352,0.85440456867218,0.92078047990799,-0.20912145078182,-0.59287267923355,-0.61482083797455],[0.33326804637909,-0.6891428232193,-0.64029049873352,0.85440456867218,0.92078047990799,-0.20912145078182,-0.59287267923355,-0.61482083797455],[0.33326804637909,-0.6891428232193,-0.64029049873352,0.85440456867218,0.92078047990799,-0.20912145078182,-0.59287267923355,-0.61482083797455],[0.33326804637909,-0.6891428232193,-0.64029049873352,0.85440456867218,0.92078047990799,-0.20912145078182,-0.59287267923355,-0.61482083797455]],"episode_frame":14,"batch_sel":1,"write_weights":[[0.13461773097515,0.20250087976456,0.071504063904285,0.15527209639549,0.15285229682922,0.058131620287895,0.095733508467674,0.16148990392685,0.054725226014853,0.12366138398647],[0.13461773097515,0.20250087976456,0.071504063904285,0.15527209639549,0.15285229682922,0.058131620287895,0.095733508467674,0.16148990392685,0.054725226014853,0.12366138398647],[0.13461773097515,0.20250087976456,0.071504063904285,0.15527209639549,0.15285229682922,0.058131620287895,0.095733508467674,0.16148990392685,0.054725226014853,0.12366138398647],[0.13461773097515,0.20250087976456,0.071504063904285,0.15527209639549,0.15285229682922,0.058131620287895,0.095733508467674,0.16148990392685,0.054725226014853,0.12366138398647]],"input":[0.55504616489634,0.26681434595957,0.073917854344472,0.92151049152017,0.003185466863215,0.85341552901082,0.71074188034981,0.001563711790368,1,0,0],"memory":[[-0.16931721568108,-0.49425655603409,-0.36323750019073,0.50255787372589,0.96140336990356,0.066958613693714,-0.48227998614311,-0.43693923950195],[-1.985832452774,0.23425024747849,1.1667757034302,-0.19293747842312,0.32335501909256,1.6453039646149,0.7115957736969,-0.42505577206612],[-0.3327160179615,-1.5165733098984,-0.35607686638832,0.34964799880981,1.3032232522964,-0.011227421462536,-0.19339732825756,-0.74431639909744],[-0.081852868199348,-0.2777758538723,-0.20880392193794,0.23139801621437,0.48856174945831,0.00055939704179764,-0.2332950681448,-0.22083640098572],[-0.37151199579239,-0.78387212753296,-0.27735096216202,0.71977198123932,1.3282234668732,0.30275589227676,-0.47483414411545,-0.65765190124512],[0.10683883726597,-1.3716278076172,-0.4135400056839,-0.57002758979797,-0.64360380172729,-1.1914833784103,-1.7185093164444,-0.31401547789574],[-1.154413819313,-0.66497826576233,0.20429623126984,-0.35180601477623,0.58487373590469,0.36395588517189,-0.30863878130913,-1.3637301921844],[-0.83541458845139,-0.42996376752853,0.62877732515335,-0.20536722242832,-0.12886306643486,0.60922563076019,0.37103509902954,-1.0690575838089],[0.46126121282578,-1.9670987129211,-0.85004329681396,0.042057998478413,0.1887813359499,-1.139592051506,-0.88945680856705,-0.86710232496262],[0.62872123718262,-1.2634297609329,-1.0282217264175,-0.45410907268524,-0.437351167202,-1.5104023218155,-1.6210054159164,-0.57769727706909]],"read_weights":[[0.076503813266754,0.19098648428917,0.077969551086426,0.074967876076698,0.083706341683865,0.059509739279747,0.14901450276375,0.17411907017231,0.056090775877237,0.057131852954626],[0.092342779040337,0.078078269958496,0.092913076281548,0.09427797794342,0.085340805351734,0.14340080320835,0.071299396455288,0.070205055177212,0.12415433675051,0.14798752963543],[0.084752388298512,0.042384635657072,0.081337362527847,0.088183715939522,0.072430692613125,0.16320298612118,0.080694422125816,0.059931710362434,0.14253902435303,0.18454311788082],[0.068241335451603,0.22683764994144,0.08253937959671,0.066155709326267,0.08136809617281,0.065734840929508,0.10987460613251,0.18352346122265,0.061146035790443,0.054578859359026]],"gt":[1,0,0],"r_k":[[-0.6469532251358,0.66193723678589,-0.050152286887169,-0.75735831260681,-0.050877146422863,0.87164795398712,0.44162827730179,-0.65595060586929],[0.24165390431881,0.08776817470789,0.17648556828499,-0.1127847880125,0.077470228075981,-0.28682470321655,-0.0042161243036389,0.23873993754387],[0.61272513866425,0.075199857354164,-0.49568873643875,-0.70950543880463,-0.12185793370008,-0.60967648029327,-0.64466643333435,-0.4326523244381],[-0.28677347302437,-0.069140858948231,0.69838500022888,0.0069934776984155,-0.43575122952461,0.72063356637955,0.65341281890869,0.32987460494041]],"pred_proba":[0.56130874156952,0.041279800236225,0.39741143584251]},{"read_out":[[-0.68668472766876,-0.52018368244171,0.20666518807411,0.16504916548729,0.43631026148796,0.54577827453613,0.09426574409008,-0.5348100066185],[-0.64002192020416,-0.48954185843468,0.20926193892956,0.20321357250214,0.42226651310921,0.56219565868378,0.1473284214735,-0.47109168767929],[-0.80386567115784,-0.36232170462608,0.36749330163002,0.15790767967701,0.38920474052429,0.74327236413956,0.2956320643425,-0.46330711245537],[-0.28095030784607,-0.91314089298248,-0.17006853222847,0.01571798324585,0.16721029579639,-0.097120895981789,-0.41845604777336,-0.53902477025986]],"w_k":[[-0.011518475599587,-0.49452841281891,0.030995674431324,0.95904809236526,0.5551478266716,0.7609229683876,0.33591362833977,-0.063234835863113],[-0.011518475599587,-0.49452841281891,0.030995674431324,0.95904809236526,0.5551478266716,0.7609229683876,0.33591362833977,-0.063234835863113],[-0.011518475599587,-0.49452841281891,0.030995674431324,0.95904809236526,0.5551478266716,0.7609229683876,0.33591362833977,-0.063234835863113],[-0.011518475599587,-0.49452841281891,0.030995674431324,0.95904809236526,0.5551478266716,0.7609229683876,0.33591362833977,-0.063234835863113]],"episode_frame":15,"batch_sel":1,"write_weights":[[0.065295286476612,0.21704484522343,0.12214706093073,0.10647068917751,0.077855356037617,0.10606799274683,0.14830219745636,0.17560057342052,0.058506302535534,0.052222635596991],[0.065295286476612,0.21704484522343,0.12214706093073,0.10647068917751,0.077855356037617,0.10606799274683,0.14830219745636,0.17560057342052,0.058506302535534,0.052222635596991],[0.065295286476612,0.21704484522343,0.12214706093073,0.10647068917751,0.077855356037617,0.10606799274683,0.14830219745636,0.17560057342052,0.058506302535534,0.052222635596991],[0.065295286476612,0.21704484522343,0.12214706093073,0.10647068917751,0.077855356037617,0.10606799274683,0.14830219745636,0.17560057342052,0.058506302535534,0.052222635596991]],"input":[0.45849713869393,0.6906666313298,0.70905403303914,0.89739997382276,0.46820964012295,0.31579562276602,0.73407350108027,0.22260616463609,1,0,0],"memory":[[-0.28408151865005,-0.42217543721199,-0.24954433739185,0.52316296100616,0.97281402349472,0.25503545999527,-0.28340393304825,-0.3951398730278],[-2.1511535644531,0.3985857963562,1.360604763031,-0.12828412652016,0.48459166288376,1.9523463249207,1.0110620260239,-0.3310307264328],[-0.32201367616653,0.023249626159668,0.3034902215004,0.39476299285889,0.20628768205643,0.77460432052612,0.67038208246231,0.1054470539093],[-0.3995708823204,-0.26555007696152,0.08713111281395,0.62652599811554,0.68251287937164,0.76783049106598,0.42990171909332,-0.12032188475132],[-0.48393368721008,-0.70702731609344,-0.16240680217743,0.74357569217682,1.3547195196152,0.49103701114655,-0.27870014309883,-0.6135026216507],[-0.26576918363571,-1.3253210783005,-0.07291167974472,-0.19038128852844,-0.48370999097824,-0.35813629627228,-0.9685879945755,-0.19556275010109],[-1.4774563312531,-0.63716435432434,0.51393800973892,0.081590950489044,0.84789979457855,1.1697838306427,0.37690654397011,-1.2467591762543],[-0.98279964923859,-0.29207247495651,0.7961802482605,-0.1432329416275,0.0050864964723587,0.88365685939789,0.63955199718475,-0.9865260720253],[0.31072622537613,-1.8722143173218,-0.70942139625549,0.047715030610561,0.17100912332535,-0.91334342956543,-0.63563013076782,-0.81334435939789],[0.45234236121178,-1.1578239202499,-0.86821621656418,-0.45036339759827,-0.47266793251038,-1.2497074604034,-1.3245711326599,-0.51652073860168]],"read_weights":[[0.10172810405493,0.12415084242821,0.1039268001914,0.10363881289959,0.099349290132523,0.067570008337498,0.12662029266357,0.1226816996932,0.0717414021492,0.078592725098133],[0.083552159368992,0.10722273588181,0.15935425460339,0.13588139414787,0.092593833804131,0.071458734571934,0.10028763860464,0.11861982196569,0.075869999825954,0.055159471929073],[0.056344859302044,0.17208768427372,0.18465608358383,0.11679598689079,0.062428940087557,0.062142506241798,0.10778945684433,0.14374142885208,0.048143364489079,0.045869708061218],[0.086747854948044,0.05770768225193,0.04458574578166,0.049877483397722,0.078404232859612,0.15112815797329,0.070660315454006,0.07055352628231,0.15959885716438,0.23073603212833]],"gt":[0,1,0],"r_k":[[-0.23894730210304,0.75468993186951,-0.8379989862442,-0.54984039068222,0.036905582994223,0.8287947177887,0.038650441914797,-0.73919117450714],[0.78742867708206,-0.66146647930145,0.98370444774628,0.92596274614334,-0.28954115509987,0.83276051282883,0.9534153342247,0.01308417879045],[-0.29706338047981,0.15850114822388,0.43997365236282,-0.23933388292789,-0.53026568889618,0.68272757530212,0.92331033945084,0.5580005645752],[0.3797419667244,0.37414047122002,-0.69547128677368,-0.69895416498184,-0.41323888301849,-0.86087721586227,-0.82859659194946,-0.64997041225433]],"pred_proba":[0.068202935159206,0.86198377609253,0.069813176989555]},{"read_out":[[-0.44624176621437,-0.58865702152252,-0.10367086529732,-0.0077230110764503,0.05355130136013,0.03986831754446,-0.21566808223724,-0.54255920648575],[-0.27277219295502,-0.64051246643066,-0.20372770726681,0.005505807697773,-0.0026963204145432,-0.10931362956762,-0.28707230091095,-0.47202971577644],[0.14264917373657,-0.94838297367096,-0.54065954685211,-0.25303012132645,-0.53346306085587,-0.88417500257492,-0.93936723470688,-0.62697386741638],[-0.31740626692772,-0.65442162752151,-0.18522725999355,-0.12034825980663,-0.19998183846474,-0.21371853351593,-0.4211038351059,-0.54136592149734]],"w_k":[[0.85802811384201,-0.80933648347855,-0.81309515237808,0.45876988768578,-0.77987384796143,-0.97126126289368,-0.91054278612137,-0.64230954647064],[0.85802811384201,-0.80933648347855,-0.81309515237808,0.45876988768578,-0.77987384796143,-0.97126126289368,-0.91054278612137,-0.64230954647064],[0.85802811384201,-0.80933648347855,-0.81309515237808,0.45876988768578,-0.77987384796143,-0.97126126289368,-0.91054278612137,-0.64230954647064],[0.85802811384201,-0.80933648347855,-0.81309515237808,0.45876988768578,-0.77987384796143,-0.97126126289368,-0.91054278612137,-0.64230954647064]],"episode_frame":16,"batch_sel":1,"write_weights":[[0.036500759422779,0.60351312160492,0.018760275095701,0.020986871793866,0.61222159862518,0.063589960336685,0.029731631278992,0.60891824960709,0.6463857293129,0.097086437046528],[0.036500759422779,0.60351312160492,0.018760275095701,0.020986871793866,0.61222159862518,0.063589960336685,0.029731631278992,0.60891824960709,0.6463857293129,0.097086437046528],[0.036500759422779,0.60351312160492,0.018760275095701,0.020986871793866,0.61222159862518,0.063589960336685,0.029731631278992,0.60891824960709,0.6463857293129,0.097086437046528],[0.036500759422779,0.60351312160492,0.018760275095701,0.020986871793866,0.61222159862518,0.063589960336685,0.029731631278992,0.60891824960709,0.6463857293129,0.097086437046528]],"input":[0.26452001160942,0.54870303743519,0.6646741933655,0.60925509803928,0.89786760066636,0.73541898583062,0.74907921324484,0.938532353146,0,1,0],"memory":[[-0.26858341693878,-0.48155736923218,-0.3274250626564,0.44457474350929,0.92339283227921,0.13723781704903,-0.32366108894348,-0.40726664662361],[-1.257773399353,-0.11708354949951,0.35355269908905,-0.49469697475433,-0.60654073953629,0.22995901107788,-0.41087591648102,-0.6479754447937],[-0.38304176926613,-0.12653748691082,0.12013088166714,0.22787968814373,0.23007225990295,0.55792629718781,0.5922440290451,0.022403188049793],[-0.42115098237991,-0.38387560844421,-0.045572489500046,0.50762659311295,0.66578191518784,0.6050837635994,0.3876177072525,-0.17009361088276],[0.96057462692261,-0.47421634197235,-0.92933982610703,-0.30090674757957,-1.1701538562775,-1.6431198120117,-1.350692152977,-0.25648757815361],[-0.24558378756046,-1.3548823595047,-0.14683103561401,-0.29335349798203,-0.54390072822571,-0.49657538533211,-1.0381317138672,-0.18951687216759],[-1.4913119077682,-0.72644966840744,0.39471459388733,-0.027181148529053,0.83127421140671,1.012145280838,0.30929425358772,-1.2901577949524],[-0.066832065582275,-0.80615383386612,-0.19638830423355,-0.49877241253853,-1.1179239749908,-0.8266853094101,-0.75841212272644,-1.2858971357346],[1.2927217483521,-2.305600643158,-1.6216950416565,-0.26846659183502,-1.0301079750061,-2.5690789222717,-2.0101206302643,-1.0383250713348],[0.50058925151825,-1.152271270752,-0.92932105064392,-0.56387364864349,-0.57006645202637,-1.405282497406,-1.4216365814209,-0.48270779848099]],"read_weights":[[0.10497233271599,0.12861129641533,0.17797276377678,0.15664388239384,0.048437494784594,0.055437702685595,0.15990903973579,0.069893963634968,0.049197930842638,0.048923566937447],[0.09834985435009,0.077611759305,0.21222986280918,0.16252636909485,0.070898957550526,0.06976905465126,0.11305613815784,0.060425259172916,0.069466546177864,0.065666243433952],[0.070866614580154,0.081899583339691,0.041201703250408,0.044530060142279,0.16220237314701,0.10263936966658,0.058484770357609,0.1371713578701,0.14433933794498,0.15666481852531],[0.059972703456879,0.16227935254574,0.1659449338913,0.1024012863636,0.084252707660198,0.088906988501549,0.11028403043747,0.089109934866428,0.066054657101631,0.070793382823467]],"gt":[0,0,1],"r_k":[[-0.8300986289978,0.52571141719818,-0.36609226465225,0.35011792182922,-0.045000940561295,0.80191498994827,0.56867104768753,-0.50595641136169],[0.18938755989075,0.068152919411659,0.36402064561844,0.014047011733055,0.24801285564899,0.095631763339043,0.56353044509888,0.46610778570175],[0.29326978325844,0.20229928195477,-0.45163169503212,-0.5566498041153,-0.075108751654625,-0.30652278661728,-0.21841119229794,-0.26188358664513],[-0.21576711535454,0.41293397545815,0.51637303829193,-0.22541217505932,-0.54109215736389,0.42288482189178,0.24042388796806,0.53123813867569]],"pred_proba":[0.048868231475353,0.013330635614693,0.93780112266541]},{"read_out":[[-0.72769570350647,-0.47734671831131,0.16462808847427,0.049564223736525,-0.40842145681381,0.25719612836838,0.16890904307365,-0.51222103834152],[-0.71473276615143,-0.46972841024399,0.18843932449818,0.12956234812737,-0.33210876584053,0.35058426856995,0.27942326664925,-0.43299061059952],[-0.83760911226273,-0.36167624592781,0.29331794381142,0.13368788361549,-0.30344676971436,0.50250494480133,0.39103209972382,-0.40267825126648],[-0.12441726028919,-0.79445242881775,-0.31221091747284,-0.15820275247097,-0.82567238807678,-0.6382247209549,-0.52122586965561,-0.61627840995789]],"w_k":[[-0.46841558814049,-0.12864130735397,0.33021107316017,0.9379398226738,-0.22349207103252,0.76099520921707,0.75765657424927,0.047419242560863],[-0.46841558814049,-0.12864130735397,0.33021107316017,0.9379398226738,-0.22349207103252,0.76099520921707,0.75765657424927,0.047419242560863],[-0.46841558814049,-0.12864130735397,0.33021107316017,0.9379398226738,-0.22349207103252,0.76099520921707,0.75765657424927,0.047419242560863],[-0.46841558814049,-0.12864130735397,0.33021107316017,0.9379398226738,-0.22349207103252,0.76099520921707,0.75765657424927,0.047419242560863]],"episode_frame":17,"batch_sel":1,"write_weights":[[0.10655066370964,0.15423847734928,0.15772242844105,0.097327344119549,0.080078020691872,0.13405126333237,0.15436908602715,0.084694571793079,0.062781676650047,0.11683517694473],[0.10655066370964,0.15423847734928,0.15772242844105,0.097327344119549,0.080078020691872,0.13405126333237,0.15436908602715,0.084694571793079,0.062781676650047,0.11683517694473],[0.10655066370964,0.15423847734928,0.15772242844105,0.097327344119549,0.080078020691872,0.13405126333237,0.15436908602715,0.084694571793079,0.062781676650047,0.11683517694473],[0.10655066370964,0.15423847734928,0.15772242844105,0.097327344119549,0.080078020691872,0.13405126333237,0.15436908602715,0.084694571793079,0.062781676650047,0.11683517694473]],"input":[0.45849713869393,0.6906666313298,0.70905403303914,0.89739997382276,0.46820964012295,0.31579562276602,0.73407350108027,0.22260616463609,0,0,1],"memory":[[-0.68365669250488,0.13875304162502,0.49657264351845,0.38228297233582,-0.33846738934517,0.77988857030869,0.88748753070831,-0.02217198908329],[-1.5064789056778,0.056770667433739,0.5719530582428,-0.43700543045998,-0.71012139320374,0.46761798858643,-0.090018033981323,-0.57176578044891],[-0.70900738239288,0.026398286223412,0.40491425991058,0.29019820690155,0.017213493585587,0.8923220038414,1.0100193023682,0.060520716011524],[-0.67082154750824,-0.28455537557602,0.16216197609901,0.57222068309784,0.5119800567627,0.86693465709686,0.70672059059143,-0.15389095246792],[0.73009443283081,-0.32654568552971,-0.76328265666962,-0.26752957701683,-1.2093344926834,-1.4378899335861,-1.0747709274292,-0.22215546667576],[-0.93647021055222,-1.170893907547,0.358433842659,0.065005660057068,-0.85769218206406,0.2712456882,-0.14644449949265,-0.18696036934853],[-2.2229959964752,-0.55266201496124,0.9444363117218,0.37729039788246,0.45459163188934,1.8444991111755,1.2663609981537,-1.2868667840958],[-0.28153961896896,-0.66748678684235,-0.036018684506416,-0.4558684527874,-1.1615625619888,-0.63085544109344,-0.49606981873512,-1.2459660768509],[1.0870977640152,-2.1827812194824,-1.4763468503952,-0.23495030403137,-1.0670117139816,-2.3831615447998,-1.7643258571625,-1.0145794153214],[-0.21340328454971,-0.95869374275208,-0.42283368110657,-0.19838839769363,-0.85927551984787,-0.6206716299057,-0.50862842798233,-0.48744675517082]],"read_weights":[[0.11329075694084,0.13233102858067,0.11804665625095,0.1169330701232,0.070168629288673,0.078627854585648,0.13303595781326,0.093426249921322,0.066475749015808,0.077664092183113],[0.14896114170551,0.075237892568111,0.14772213995457,0.14570197463036,0.055520411580801,0.10514411330223,0.12355165928602,0.068784803152084,0.063425414264202,0.065950408577919],[0.17654648423195,0.12042533606291,0.17215409874916,0.12196242809296,0.041007049381733,0.098355129361153,0.12663774192333,0.056200634688139,0.035670775920153,0.051040396094322],[0.043201591819525,0.082106217741966,0.039671909064054,0.039105661213398,0.20016260445118,0.069036811590195,0.04894706979394,0.15950973331928,0.17171676456928,0.14654165506363]],"gt":[0,1,0],"r_k":[[-0.46813368797302,0.70004767179489,-0.78974884748459,-0.47499126195908,0.085797376930714,0.80415272712708,0.095745071768761,-0.65732252597809],[0.74301105737686,-0.70965296030045,0.98747611045837,0.95840007066727,-0.15232759714127,0.85801726579666,0.96923875808716,-0.045526001602411],[-0.57662481069565,0.24204362928867,0.45441672205925,-0.15922792255878,-0.52764278650284,0.73544800281525,0.94422966241837,0.536208152771],[0.40977111458778,0.45429444313049,-0.60438978672028,-0.72714924812317,-0.37513220310211,-0.88655811548233,-0.78625351190567,-0.64605695009232]],"pred_proba":[0.022606637328863,0.95279228687286,0.024600982666016]},{"read_out":[[-0.68475991487503,-0.60437381267548,0.043127045035362,-0.12562057375908,-0.84921753406525,-0.12149927765131,-0.0020959675312042,-0.57665324211121],[-0.56917482614517,-0.66101276874542,-0.019800003618002,-0.09111026674509,-0.8942556977272,-0.21160747110844,-0.026857562363148,-0.52585583925247],[-0.73076862096786,-0.57069480419159,0.090624004602432,-0.081994377076626,-0.84263962507248,-0.030597746372223,0.096091188490391,-0.51565873622894],[0.012366482988,-0.755495429039,-0.39606368541718,-0.25084108114243,-1.1715793609619,-0.93316459655762,-0.58458065986633,-0.49903789162636]],"w_k":[[0.65649163722992,-0.74643194675446,-0.52048486471176,0.71923100948334,-0.87109839916229,-0.73859179019928,-0.5786155462265,-0.38899427652359],[0.65649163722992,-0.74643194675446,-0.52048486471176,0.71923100948334,-0.87109839916229,-0.73859179019928,-0.5786155462265,-0.38899427652359],[0.65649163722992,-0.74643194675446,-0.52048486471176,0.71923100948334,-0.87109839916229,-0.73859179019928,-0.5786155462265,-0.38899427652359],[0.65649163722992,-0.74643194675446,-0.52048486471176,0.71923100948334,-0.87109839916229,-0.73859179019928,-0.5786155462265,-0.38899427652359]],"episode_frame":18,"batch_sel":1,"write_weights":[[0.36756774783134,0.054271221160889,0.36523467302322,0.36486038565636,0.13230507075787,0.045632503926754,0.032353423535824,0.10543401539326,0.11350271850824,0.43587428331375],[0.36756774783134,0.054271221160889,0.36523467302322,0.36486038565636,0.13230507075787,0.045632503926754,0.032353423535824,0.10543401539326,0.11350271850824,0.43587428331375],[0.36756774783134,0.054271221160889,0.36523467302322,0.36486038565636,0.13230507075787,0.045632503926754,0.032353423535824,0.10543401539326,0.11350271850824,0.43587428331375],[0.36756774783134,0.054271221160889,0.36523467302322,0.36486038565636,0.13230507075787,0.045632503926754,0.032353423535824,0.10543401539326,0.11350271850824,0.43587428331375]],"input":[0.45849713869393,0.6906666313298,0.70905403303914,0.89739997382276,0.46820964012295,0.31579562276602,0.73407350108027,0.22260616463609,0,1,0],"memory":[[-0.36728835105896,-0.25007748603821,0.065280735492706,0.25024008750916,-1.2613869905472,-0.13811141252518,0.46143084764481,-0.14996500313282],[-1.5524460077286,0.044347707182169,0.52516061067581,-0.55904275178909,-0.75865578651428,0.38163954019547,-0.086994543671608,-0.57584673166275],[-0.39015418291092,-0.36479151248932,-0.026187628507614,0.16412548720837,-0.90685558319092,-0.023811340332031,0.58362066745758,-0.068363629281521],[0.34201115369797,-0.3907063305378,-0.41256782412529,-0.096598148345947,-0.95735847949982,-0.90436744689941,-0.42668211460114,-0.11601284146309],[0.74997240304947,-0.25633358955383,-0.7448422908783,-0.41567528247833,-1.3603316545486,-1.5663559436798,-1.1156939268112,-0.14201837778091],[-1.0003590583801,-1.1914494037628,0.32333326339722,-0.06027826666832,-0.92084419727325,0.2152299284935,-0.10873438417912,-0.18551102280617],[-2.3044104576111,-0.60202300548553,0.88615149259567,0.25010314583778,0.39889681339264,1.7868235111237,1.315266251564,-1.3079397678375],[-0.28176712989807,-0.62873882055283,-0.036053653806448,-0.59054392576218,-1.2905740737915,-0.74083131551743,-0.51731419563293,-1.1917521953583],[1.09721326828,-2.1300950050354,-1.4621189832687,-0.36788681149483,-1.2082304954529,-2.4913036823273,-1.7890965938568,-0.94635337591171],[0.22162300348282,-1.2530784606934,-0.77688974142075,-0.28961259126663,-1.8717114925385,-1.5808954238892,-1.0223386287689,-0.53001916408539]],"read_weights":[[0.1116615831852,0.14609731733799,0.11734443157911,0.066054537892342,0.065106816589832,0.096063442528248,0.17609411478043,0.089237853884697,0.062961854040623,0.069378048181534],[0.12964183092117,0.089153133332729,0.14007744193077,0.075199842453003,0.065204441547394,0.11929969489574,0.15614645183086,0.076943300664425,0.074066191911697,0.074267633259296],[0.14137491583824,0.1407013386488,0.15822191536427,0.05716647207737,0.050972916185856,0.11912088096142,0.16474825143814,0.066388294100761,0.044090129435062,0.057214878499508],[0.070387482643127,0.072284534573555,0.059285663068295,0.14458964765072,0.16982766985893,0.057721056044102,0.038048930466175,0.12111760675907,0.1338342577219,0.13290318846703]],"gt":[0,1,0],"r_k":[[-0.76749265193939,0.75981342792511,-0.7327094078064,0.30587816238403,0.009688357822597,0.82644182443619,0.38593479990959,-0.66533213853836],[0.65952682495117,-0.54767978191376,0.96661585569382,0.84483134746552,0.051364358514547,0.75959444046021,0.96762907505035,0.071686267852783],[-0.5438928604126,0.24432688951492,0.30352532863617,-0.019706856459379,-0.37549558281898,0.70841270685196,0.92744070291519,0.50722289085388],[0.23149606585503,0.54409885406494,-0.46755158901215,-0.59356617927551,-0.34494662284851,-0.75886237621307,-0.69132441282272,-0.12501448392868]],"pred_proba":[0.053489603102207,0.92554849386215,0.020961862057447]},{"read_out":[[-0.68828523159027,-0.6412096619606,-0.062744833528996,-0.24031664431095,-0.93851864337921,-0.3730280995369,-0.15914843976498,-0.6890777349472],[-0.22093495726585,-0.7352243065834,-0.31863796710968,-0.27213248610497,-1.1740034818649,-0.88105547428131,-0.51413941383362,-0.60130923986435],[0.27055370807648,-0.86018478870392,-0.59837710857391,-0.37092843651772,-1.4715285301208,-1.4958958625793,-1.0135762691498,-0.58307296037674],[-0.46123364567757,-0.63995319604874,-0.17111743986607,-0.24447195231915,-1.080680847168,-0.59649354219437,-0.27980244159698,-0.59111446142197]],"w_k":[[0.74432945251465,-0.74130868911743,-0.7166953086853,0.50304162502289,-0.64393144845963,-0.93176102638245,-0.83601486682892,-0.54712438583374],[0.74432945251465,-0.74130868911743,-0.7166953086853,0.50304162502289,-0.64393144845963,-0.93176102638245,-0.83601486682892,-0.54712438583374],[0.74432945251465,-0.74130868911743,-0.7166953086853,0.50304162502289,-0.64393144845963,-0.93176102638245,-0.83601486682892,-0.54712438583374],[0.74432945251465,-0.74130868911743,-0.7166953086853,0.50304162502289,-0.64393144845963,-0.93176102638245,-0.83601486682892,-0.54712438583374]],"episode_frame":19,"batch_sel":1,"write_weights":[[0.046222914010286,0.047468695789576,0.03893243521452,0.094950906932354,0.4548322558403,0.38121271133423,0.024986438453197,0.42284473776817,0.43119564652443,0.087276495993137],[0.046222914010286,0.047468695789576,0.03893243521452,0.094950906932354,0.4548322558403,0.38121271133423,0.024986438453197,0.42284473776817,0.43119564652443,0.087276495993137],[0.046222914010286,0.047468695789576,0.03893243521452,0.094950906932354,0.4548322558403,0.38121271133423,0.024986438453197,0.42284473776817,0.43119564652443,0.087276495993137],[0.046222914010286,0.047468695789576,0.03893243521452,0.094950906932354,0.4548322558403,0.38121271133423,0.024986438453197,0.42284473776817,0.43119564652443,0.087276495993137]],"input":[0.26452001160942,0.54870303743519,0.6646741933655,0.60925509803928,0.89786760066636,0.73541898583062,0.74907921324484,0.938532353146,0,1,0],"memory":[[-0.4143178164959,-0.34999150037766,-0.021721467375755,0.10489390790462,-1.3152494430542,-0.31739881634712,0.36566489934921,-0.19761189818382],[-1.5922667980194,-0.037744101136923,0.43314558267593,-0.68534195423126,-0.79751145839691,0.1923633813858,-0.21842692792416,-0.62763130664825],[-0.44991263747215,-0.48083561658859,-0.12673583626747,0.010215386748314,-0.9505609869957,-0.21085523068905,0.48508596420288,-0.12849086523056],[0.3584149479866,-0.39490270614624,-0.42201349139214,-0.2096329331398,-1.0679644346237,-1.0494208335876,-0.51395523548126,-0.089685514569283],[1.2842178344727,-0.57892954349518,-1.1387284994125,-0.5808761715889,-2.204931974411,-2.7172441482544,-2.0306067466736,-0.28525054454803],[0.46939396858215,-0.43015637993813,-0.47053492069244,-0.1730330735445,-0.77191007137299,-1.1482421159744,-0.88855612277985,-0.2249667942524],[-2.3573112487793,-0.75521171092987,0.76022148132324,0.10648362338543,0.34906992316246,1.5867255926132,1.2143995761871,-1.391782283783],[0.23665356636047,-0.99121069908142,-0.45821362733841,-0.74410557746887,-2.1082518100739,-1.883843421936,-1.4203584194183,-1.3669658899307],[1.6277964115143,-2.4742093086243,-1.8628990650177,-0.51620042324066,-2.0404629707336,-3.6172666549683,-2.6751685142517,-1.1026537418365],[0.23596814274788,-1.2632342576981,-0.7904377579689,-0.39668744802475,-1.9754192829132,-1.720556974411,-1.105545759201,-0.5094102025032]],"read_weights":[[0.11683002859354,0.17464539408684,0.1239103898406,0.058617629110813,0.054971218109131,0.05396094918251,0.229886546731,0.070235565304756,0.053681198507547,0.063261166214943],[0.10677415132523,0.10628101229668,0.11627303063869,0.09550229460001,0.094009980559349,0.090281218290329,0.14149102568626,0.077948018908501,0.087758831679821,0.083680398762226],[0.064964048564434,0.071581430733204,0.060319166630507,0.11991357803345,0.13400785624981,0.13220170140266,0.04442435875535,0.12974750995636,0.12801147997379,0.11482889950275],[0.14723546802998,0.14925348758698,0.147027567029,0.07531862705946,0.06635557115078,0.060906570404768,0.15387505292892,0.070730701088905,0.056223072111607,0.073073945939541]],"gt":[0,0,1],"r_k":[[-0.82920259237289,0.58867168426514,-0.12025338411331,0.036150518804789,-0.0019584421534091,0.85099267959595,0.618971824646,-0.5755780339241],[0.0058749089948833,0.17718349397182,0.17005462944508,-0.032020319253206,0.30676409602165,-0.12999008595943,0.38096326589584,0.37814819812775],[0.31072896718979,0.25886592268944,-0.44954243302345,-0.58614003658295,-0.053435489535332,-0.41994312405586,-0.41447558999062,-0.49151557683945],[-0.36263969540596,0.28389751911163,0.66479176282883,-0.090677186846733,-0.54251790046692,0.58300125598907,0.62141484022141,0.60495787858963]],"pred_proba":[0.29991367459297,0.0096863992512226,0.69039982557297]},{"read_out":[[-0.64892715215683,-0.36826080083847,0.13175235688686,-0.068463787436485,-1.1536800861359,-0.29578530788422,0.15248520672321,-0.39372032880783],[-0.54841238260269,-0.4022162258625,0.078556656837463,-0.037218283861876,-1.1667972803116,-0.35769808292389,0.14733423292637,-0.36021852493286],[-0.78819042444229,-0.26649168133736,0.2503003180027,0.015396536327899,-1.0494039058685,-0.034148868173361,0.41938838362694,-0.30969870090485],[0.098751708865166,-0.74699652194977,-0.40866500139236,-0.26834124326706,-1.549017906189,-1.3361018896103,-0.73181283473969,-0.53986483812332]],"w_k":[[-0.56737852096558,-0.11452571302652,0.3160562813282,0.93564295768738,0.43137019872665,0.81020784378052,0.7850324511528,-0.053058512508869],[-0.56737852096558,-0.11452571302652,0.3160562813282,0.93564295768738,0.43137019872665,0.81020784378052,0.7850324511528,-0.053058512508869],[-0.56737852096558,-0.11452571302652,0.3160562813282,0.93564295768738,0.43137019872665,0.81020784378052,0.7850324511528,-0.053058512508869],[-0.56737852096558,-0.11452571302652,0.3160562813282,0.93564295768738,0.43137019872665,0.81020784378052,0.7850324511528,-0.053058512508869]],"episode_frame":20,"batch_sel":1,"write_weights":[[0.13866332173347,0.19878448545933,0.13846753537655,0.12915414571762,0.062492307275534,0.057360552251339,0.2031369805336,0.066612713038921,0.052949730306864,0.12704016268253],[0.13866332173347,0.19878448545933,0.13846753537655,0.12915414571762,0.062492307275534,0.057360552251339,0.2031369805336,0.066612713038921,0.052949730306864,0.12704016268253],[0.13866332173347,0.19878448545933,0.13846753537655,0.12915414571762,0.062492307275534,0.057360552251339,0.2031369805336,0.066612713038921,0.052949730306864,0.12704016268253],[0.13866332173347,0.19878448545933,0.13846753537655,0.12915414571762,0.062492307275534,0.057360552251339,0.2031369805336,0.066612713038921,0.052949730306864,0.12704016268253]],"input":[0.45849713869393,0.6906666313298,0.70905403303914,0.89739997382276,0.46820964012295,0.31579562276602,0.73407350108027,0.22260616463609,0,0,1],"memory":[[-0.65637218952179,-0.19797164201736,0.19242976605892,0.15766276419163,-1.2890946865082,-0.077582210302353,0.66178977489471,-0.13501009345055],[-2.5784838199615,0.22077313065529,1.1748958826065,-0.25366711616516,-0.81337594985962,1.2662514448166,0.99887466430664,-0.63661634922028],[-0.69628036022186,-0.33088845014572,0.090355902910233,0.065545000135899,-0.92916572093964,0.035608917474747,0.78662800788879,-0.069085791707039],[-0.56135445833206,-0.1754839271307,0.25537523627281,0.16897004842758,-1.1054093837738,-0.063347160816193,0.6149480342865,-0.11968764662743],[1.0833163261414,-0.46780955791473,-0.97599232196808,-0.54841434955597,-2.1796970367432,-2.5358808040619,-1.789546251297,-0.24405820667744],[0.27584338188171,-0.32464361190796,-0.31474721431732,-0.14065085351467,-0.74670678377151,-0.97378176450729,-0.65633714199066,-0.1861125677824],[-1.0094196796417,0.24976533651352,0.75796639919281,0.45572888851166,-0.028543297201395,1.1114783287048,1.2480430603027,-0.021145761013031],[0.038778975605965,-0.87959307432175,-0.29755008220673,-0.7025346159935,-2.0714793205261,-1.7034426927567,-1.1814321279526,-1.3217700719833],[1.441682934761,-2.37455534935,-1.7138806581497,-0.48391243815422,-2.0164091587067,-3.4492244720459,-2.4518365859985,-1.0665216445923],[-0.67423570156097,-1.0485923290253,-0.12111777067184,-0.014885246753693,-2.0077993869781,-0.74269950389862,0.012519598007202,-0.53940844535828]],"read_weights":[[0.10349942743778,0.16548027098179,0.11155246943235,0.10103029757738,0.068575918674469,0.066561482846737,0.15368568897247,0.081357516348362,0.065867066383362,0.082389920949936],[0.11939220875502,0.10929752141237,0.12310107052326,0.12568660080433,0.063655905425549,0.065277270972729,0.15774087607861,0.071233786642551,0.070196703076363,0.094418041408062],[0.13589079678059,0.15411253273487,0.14626312255859,0.13907991349697,0.041949689388275,0.04103123024106,0.17794363200665,0.047539662569761,0.036696504801512,0.079492956399918],[0.065870404243469,0.050491649657488,0.056779526174068,0.063125543296337,0.16682849824429,0.16052654385567,0.035498112440109,0.15392138063908,0.15053172409534,0.096426628530025]],"gt":[0,1,0],"r_k":[[-0.58821725845337,0.83427780866623,-0.65842485427856,-0.49638849496841,0.23677127063274,0.86714887619019,0.29005286097527,-0.69970595836639],[0.79142504930496,-0.68337774276733,0.98625403642654,0.95655536651611,-0.15356753766537,0.78663837909698,0.96767073869705,-0.23482701182365],[-0.61074787378311,0.23762072622776,0.48980754613876,0.081927940249443,-0.48270639777184,0.68574106693268,0.94916170835495,0.5625901222229],[0.34657037258148,0.50289344787598,-0.58580595254898,-0.6847597360611,-0.38058373332024,-0.8517347574234,-0.75946313142776,-0.5879408121109]],"pred_proba":[0.02634839899838,0.96142089366913,0.012230698019266]},{"read_out":[[-0.83428394794464,-0.3707520365715,0.14593124389648,-0.19288748502731,-1.1091406345367,-0.28276705741882,0.18235482275486,-0.43946930766106],[-0.26855680346489,-0.5616215467453,-0.21115915477276,-0.31528416275978,-1.422040104866,-1.0019119977951,-0.41577559709549,-0.47595611214638],[0.16004148125648,-0.73064005374908,-0.49164569377899,-0.45223349332809,-1.7233836650848,-1.6142476797104,-0.95460593700409,-0.55875015258789],[-0.73976135253906,-0.40416043996811,0.087994165718555,-0.19446167349815,-1.1543079614639,-0.38250428438187,0.12238925695419,-0.42839387059212]],"w_k":[[0.7391391992569,-0.81549161672592,-0.78026062250137,0.36541038751602,-0.4837681055069,-0.93851089477539,-0.85797822475433,-0.66783136129379],[0.7391391992569,-0.81549161672592,-0.78026062250137,0.36541038751602,-0.4837681055069,-0.93851089477539,-0.85797822475433,-0.66783136129379],[0.7391391992569,-0.81549161672592,-0.78026062250137,0.36541038751602,-0.4837681055069,-0.93851089477539,-0.85797822475433,-0.66783136129379],[0.7391391992569,-0.81549161672592,-0.78026062250137,0.36541038751602,-0.4837681055069,-0.93851089477539,-0.85797822475433,-0.66783136129379]],"episode_frame":21,"batch_sel":1,"write_weights":[[0.52850198745728,0.025485450401902,0.028659230098128,0.031862355768681,0.57946014404297,0.57627928256989,0.017917525023222,0.077691175043583,0.57123440504074,0.048670940101147],[0.52850198745728,0.025485450401902,0.028659230098128,0.031862355768681,0.57946014404297,0.57627928256989,0.017917525023222,0.077691175043583,0.57123440504074,0.048670940101147],[0.52850198745728,0.025485450401902,0.028659230098128,0.031862355768681,0.57946014404297,0.57627928256989,0.017917525023222,0.077691175043583,0.57123440504074,0.048670940101147],[0.52850198745728,0.025485450401902,0.028659230098128,0.031862355768681,0.57946014404297,0.57627928256989,0.017917525023222,0.077691175043583,0.57123440504074,0.048670940101147]],"input":[0.26452001160942,0.54870303743519,0.6646741933655,0.60925509803928,0.89786760066636,0.73541898583062,0.74907921324484,0.938532353146,0,1,0],"memory":[[-0.1286164522171,-0.84504336118698,-0.4674379825592,-0.28303754329681,-2.0898447036743,-1.5295132398605,-0.47273647785187,-0.52764356136322],[-2.6362340450287,0.098728373646736,1.0527311563492,-0.3947234749794,-0.79755133390427,1.08511531353,0.88034236431122,-0.72948342561722],[-0.75668543577194,-0.44663804769516,-0.019053690135479,-0.082433484494686,-0.92154216766357,-0.1317870169878,0.69026243686676,-0.14911022782326],[-0.61777490377426,-0.28711730241776,0.15226392447948,0.021480515599251,-1.1056978702545,-0.22622448205948,0.52529925107956,-0.19310380518436],[1.6777205467224,-1.0231149196625,-1.5521783828735,-0.94842934608459,-3.0643990039825,-3.9494564533234,-2.9104421138763,-0.55213075876236],[0.86972826719284,