[{"read_out":[[-0.0678805783391,-0.12860971689224,-0.11177687346935,0.19874107837677,0.58271199464798,-0.015036658383906,0.082528188824654,0.0949617177248],[-0.070131666958332,-0.14922779798508,-0.13099184632301,0.21782740950584,0.63034242391586,-0.02877439558506,0.079636290669441,0.099728740751743],[-0.064844131469727,-0.14442095160484,-0.12722691893578,0.20632880926132,0.59397333860397,-0.031821817159653,0.071414366364479,0.092847533524036],[-0.080663450062275,-0.15548491477966,-0.1353450268507,0.23819586634636,0.69704097509384,-0.020018938928843,0.097154684364796,0.1131067276001]],"w_k":[[0.15812148153782,-0.60754215717316,-0.56507235765457,0.63581186532974,0.94103688001633,-0.3061455488205,-0.057200711220503,-0.086272530257702],[0.15812148153782,-0.60754215717316,-0.56507235765457,0.63581186532974,0.94103688001633,-0.3061455488205,-0.057200711220503,-0.086272530257702],[0.15812148153782,-0.60754215717316,-0.56507235765457,0.63581186532974,0.94103688001633,-0.3061455488205,-0.057200711220503,-0.086272530257702],[0.15812148153782,-0.60754215717316,-0.56507235765457,0.63581186532974,0.94103688001633,-0.3061455488205,-0.057200711220503,-0.086272530257702]],"episode_frame":1,"batch_sel":1,"write_weights":[[0.74708527326584,0.25291472673416,0.25291472673416,0,0,0,0,0,0.25291472673416,0.25291472673416],[0.74708527326584,0.25291472673416,0.25291472673416,0,0,0,0,0,0.25291472673416,0.25291472673416],[0.74708527326584,0.25291472673416,0.25291472673416,0,0,0,0,0,0.25291472673416,0.25291472673416],[0.74708527326584,0.25291472673416,0.25291472673416,0,0,0,0,0,0.25291472673416,0.25291472673416]],"input":[0.71692917961627,0.48673094855621,0.35444922908209,0.88314970210195,0.08079280378297,0.49630946549587,0.1689789632801,0.79189391387627,0,0,0],"memory":[[-0.29726296663284,-0.13777580857277,-0.086042732000351,0.54523468017578,1.8153800964355,0.27856540679932,0.50783091783524,0.37375777959824],[-0.11421509087086,-0.36037480831146,-0.32461333274841,0.44441449642181,1.2296808958054,-0.14186169207096,0.089303620159626,0.17402537167072],[-0.11421509087086,-0.36037480831146,-0.32461333274841,0.44441449642181,1.2296808958054,-0.14186169207096,0.089303620159626,0.17402537167072],[9.9999999747524e-07,9.9999999747524e-07,9.9999999747524e-07,9.9999999747524e-07,9.9999999747524e-07,9.9999999747524e-07,9.9999999747524e-07,9.9999999747524e-07],[9.9999999747524e-07,9.9999999747524e-07,9.9999999747524e-07,9.9999999747524e-07,9.9999999747524e-07,9.9999999747524e-07,9.9999999747524e-07,9.9999999747524e-07],[9.9999999747524e-07,9.9999999747524e-07,9.9999999747524e-07,9.9999999747524e-07,9.9999999747524e-07,9.9999999747524e-07,9.9999999747524e-07,9.9999999747524e-07],[9.9999999747524e-07,9.9999999747524e-07,9.9999999747524e-07,9.9999999747524e-07,9.9999999747524e-07,9.9999999747524e-07,9.9999999747524e-07,9.9999999747524e-07],[9.9999999747524e-07,9.9999999747524e-07,9.9999999747524e-07,9.9999999747524e-07,9.9999999747524e-07,9.9999999747524e-07,9.9999999747524e-07,9.9999999747524e-07],[-0.11421509087086,-0.36037480831146,-0.32461333274841,0.44441449642181,1.2296808958054,-0.14186169207096,0.089303620159626,0.17402537167072],[-0.11421608924866,-0.36037582159042,-0.32461434602737,0.44441348314285,1.229679942131,-0.14186269044876,0.089302621781826,0.17402437329292]],"read_weights":[[0.10694171488285,0.0789984613657,0.0789984613657,0.1154128909111,0.1154128909111,0.1154128909111,0.1154128909111,0.1154128909111,0.0789984613657,0.078998439013958],[0.090050593018532,0.09491603076458,0.09491603076458,0.10605703294277,0.10605703294277,0.10605703294277,0.10605703294277,0.10605703294277,0.09491603076458,0.094916127622128],[0.075207948684692,0.093000091612339,0.093000091612339,0.11055833101273,0.11055833101273,0.11055833101273,0.11055833101273,0.11055833101273,0.093000091612339,0.093000143766403],[0.12376023083925,0.096034854650497,0.096034854650497,0.098420098423958,0.098420098423958,0.098420098423958,0.098420098423958,0.098420098423958,0.096034854650497,0.09603475779295]],"gt":[1,0,0],"r_k":[[-0.28796520829201,0.21071919798851,0.27012497186661,-0.59721529483795,-0.055658813565969,0.46751824021339,0.40082657337189,-0.25846356153488],[-0.10635331273079,0.13872112333775,-0.022532761096954,-0.31298983097076,0.079781286418438,-0.21522924304008,-0.046087540686131,-0.15749014914036],[0.41644224524498,0.10957124829292,-0.090339317917824,-0.15254862606525,0.010630624368787,-0.14564082026482,-0.49737992882729,-0.28411683440208],[-0.092012837529182,-0.23121400177479,0.37199750542641,-0.098888553678989,-0.019803723320365,0.34672051668167,0.340023458004,0.49614638090134]],"pred_proba":[0.32239660620689,0.21220901608467,0.46539428830147]},{"read_out":[[-0.25803506374359,0.062276601791382,-0.11537759006023,0.31941902637482,0.87396866083145,0.28216600418091,0.33779081702232,0.032219666987658],[-0.25522792339325,0.023084741085768,-0.13592107594013,0.35037183761597,0.96379190683365,0.25697928667068,0.33590695261955,0.054152879863977],[-0.25395891070366,0.031359419226646,-0.13148133456707,0.34107062220573,0.93564194440842,0.26007473468781,0.33322983980179,0.047773491591215],[-0.25378301739693,-0.00031403824687004,-0.14912162721157,0.36878490447998,1.0163558721542,0.24157716333866,0.33417153358459,0.066321700811386]],"w_k":[[0.15650016069412,-0.37311336398125,-0.50880348682404,0.77332282066345,0.9642658829689,0.22918865084648,0.13393487036228,-0.40792152285576],[0.15650016069412,-0.37311336398125,-0.50880348682404,0.77332282066345,0.9642658829689,0.22918865084648,0.13393487036228,-0.40792152285576],[0.15650016069412,-0.37311336398125,-0.50880348682404,0.77332282066345,0.9642658829689,0.22918865084648,0.13393487036228,-0.40792152285576],[0.15650016069412,-0.37311336398125,-0.50880348682404,0.77332282066345,0.9642658829689,0.22918865084648,0.13393487036228,-0.40792152285576]],"episode_frame":2,"batch_sel":1,"write_weights":[[0.11393681168556,0.088412128388882,0.088412128388882,0.16998264193535,0.16998264193535,0.16998264193535,0.16998264193535,0.090608038008213,0.088412128388882,0.088412038981915],[0.11393681168556,0.088412128388882,0.088412128388882,0.16998264193535,0.16998264193535,0.16998264193535,0.16998264193535,0.090608038008213,0.088412128388882,0.088412038981915],[0.11393681168556,0.088412128388882,0.088412128388882,0.16998264193535,0.16998264193535,0.16998264193535,0.16998264193535,0.090608038008213,0.088412128388882,0.088412038981915],[0.11393681168556,0.088412128388882,0.088412128388882,0.16998264193535,0.16998264193535,0.16998264193535,0.16998264193535,0.090608038008213,0.088412128388882,0.088412038981915]],"input":[0.71692917961627,0.48673094855621,0.35444922908209,0.88314970210195,0.08079280378297,0.49630946549587,0.1689789632801,0.79189391387627,1,0,0],"memory":[[-0.38211551308632,-0.027162417769432,-0.067836970090866,0.62907874584198,1.9653959274292,0.45099422335625,0.65826910734177,0.33068108558655],[-0.18865948915482,-0.25944495201111,-0.29913339018822,0.49681928753853,1.3405381441116,0.0078402608633041,0.22680681943893,0.14687010645866],[-0.18865948915482,-0.25944495201111,-0.29913339018822,0.49681928753853,1.3405381441116,0.0078402608633041,0.22680681943893,0.14687010645866],[-0.33134782314301,0.24406985938549,-0.063661709427834,0.24753141403198,0.6586389541626,0.44300878047943,0.40281102061272,-0.062763631343842],[-0.33134782314301,0.24406985938549,-0.063661709427834,0.24753141403198,0.6586389541626,0.44300878047943,0.40281102061272,-0.062763631343842],[-0.33134883642197,0.24406886100769,-0.063662707805634,0.24753041565418,0.65863794088364,0.44300776720047,0.40281000733376,-0.062764629721642],[-0.33134782314301,0.24406985938549,-0.063661709427834,0.24753141403198,0.6586389541626,0.44300878047943,0.40281102061272,-0.062763631343842],[-0.077631831169128,0.10313848406076,0.02180502563715,0.061726480722427,0.12818840146065,0.16297240555286,0.15061804652214,-0.031921207904816],[-0.18865948915482,-0.25944495201111,-0.29913339018822,0.49681928753853,1.3405381441116,0.0078402608633041,0.22680681943893,0.14687010645866],[-0.18866042792797,-0.25944596529007,-0.29913437366486,0.4968181848526,1.340537071228,0.0078392326831818,0.2268058359623,0.14686913788319]],"read_weights":[[0.083869270980358,0.068329550325871,0.068329550325871,0.12269658595324,0.12269658595324,0.12269664555788,0.12269658595324,0.15202613174915,0.068329550325871,0.068329535424709],[0.10105560719967,0.08747273683548,0.08747273683548,0.10639709234238,0.10639709234238,0.10639705508947,0.10639709234238,0.123465038836,0.08747273683548,0.087472699582577],[0.091719657182693,0.083828657865524,0.083828657865524,0.10954235494137,0.10954235494137,0.10954227298498,0.10954235494137,0.1347963809967,0.083828657865524,0.083828620612621],[0.10769353806973,0.099616691470146,0.099616691470146,0.097667559981346,0.097667559981346,0.097667530179024,0.097667559981346,0.10316941142082,0.099616691470146,0.099616676568985]],"gt":[1,0,0],"r_k":[[-0.16326554119587,0.32066243886948,0.069176867604256,-0.79959160089493,-0.38392055034637,0.57337057590485,0.32355937361717,-0.40325954556465],[-0.012268493883312,-0.15729883313179,0.43804630637169,-0.069238163530827,-0.012639102526009,-0.04080156981945,0.47295814752579,-0.20426806807518],[0.43796896934509,0.14019536972046,0.056161101907492,-0.31171354651451,-0.27527070045471,0.30184677243233,-0.12282698601484,-0.16988016664982],[0.00080989283742383,-0.31750944256783,0.16509582102299,-0.053038325160742,0.010502888821065,0.097486458718777,0.24836896359921,0.036604508757591]],"pred_proba":[0.43529337644577,0.32230496406555,0.24240162968636]},{"read_out":[[-0.3329274058342,0.10182786732912,-0.26953387260437,0.2673887014389,1.2459048032761,0.32130178809166,0.2697779238224,0.059113502502441],[-0.32103943824768,0.054159007966518,-0.27178597450256,0.30562087893486,1.3019886016846,0.29255390167236,0.2822208404541,0.082911804318428],[-0.31449496746063,0.066633276641369,-0.27589303255081,0.275226354599,1.2563016414642,0.28517982363701,0.25255301594734,0.072712615132332],[-0.32244443893433,0.043839253485203,-0.2710557281971,0.32172891497612,1.3283877372742,0.29203680157661,0.29462540149689,0.089983083307743]],"w_k":[[0.41517239809036,-0.54716312885284,-0.61667078733444,0.61846721172333,0.9205904006958,-0.22072918713093,-0.33657282590866,-0.3601236641407],[0.41517239809036,-0.54716312885284,-0.61667078733444,0.61846721172333,0.9205904006958,-0.22072918713093,-0.33657282590866,-0.3601236641407],[0.41517239809036,-0.54716312885284,-0.61667078733444,0.61846721172333,0.9205904006958,-0.22072918713093,-0.33657282590866,-0.3601236641407],[0.41517239809036,-0.54716312885284,-0.61667078733444,0.61846721172333,0.9205904006958,-0.22072918713093,-0.33657282590866,-0.3601236641407]],"episode_frame":3,"batch_sel":1,"write_weights":[[0.097670383751392,0.09034525603056,0.09034525603056,0.088577531278133,0.18164864182472,0.1816486120224,0.18164864182472,0.18663841485977,0.09034525603056,0.090345241129398],[0.097670383751392,0.09034525603056,0.09034525603056,0.088577531278133,0.18164864182472,0.1816486120224,0.18164864182472,0.18663841485977,0.09034525603056,0.090345241129398],[0.097670383751392,0.09034525603056,0.09034525603056,0.088577531278133,0.18164864182472,0.1816486120224,0.18164864182472,0.18663841485977,0.09034525603056,0.090345241129398],[0.097670383751392,0.09034525603056,0.09034525603056,0.088577531278133,0.18164864182472,0.1816486120224,0.18164864182472,0.18663841485977,0.09034525603056,0.090345241129398]],"input":[0.71692917961627,0.48673094855621,0.35444922908209,0.88314970210195,0.08079280378297,0.49630946549587,0.1689789632801,0.79189391387627,1,0,0],"memory":[[-0.4363988339901,0.051762603223324,-0.088514469563961,0.58087128400803,2.0623815059662,0.55536943674088,0.71098434925079,0.33232361078262],[-0.24140602350235,-0.18450796604156,-0.31547203660011,0.45193666219711,1.4278026819229,0.10208024084568,0.27298024296761,0.14963507652283],[-0.24140602350235,-0.18450796604156,-0.31547203660011,0.45193666219711,1.4278026819229,0.10208024084568,0.27298024296761,0.14963507652283],[-0.37648597359657,0.31000882387161,-0.095531344413757,0.20126533508301,0.7638156414032,0.53714179992676,0.44711703062057,-0.061649329960346],[-0.43336778879166,0.29861199855804,-0.34115302562714,0.15128475427628,1.2417707443237,0.45331108570099,0.20913082361221,-0.036669015884399],[-0.43336874246597,0.29861095547676,-0.34115406870842,0.15128381550312,1.2417697906494,0.45331007242203,0.20912981033325,-0.036670036613941],[-0.43336778879166,0.29861199855804,-0.34115302562714,0.15128475427628,1.2417707443237,0.45331108570099,0.20913082361221,-0.036669015884399],[-0.10404339432716,0.057497709989548,-0.28506308794022,-0.10456535220146,0.59585183858871,0.016785763204098,-0.19139936566353,0.028065100312233],[-0.24140602350235,-0.18450796604156,-0.31547203660011,0.45193666219711,1.4278026819229,0.10208024084568,0.27298024296761,0.14963507652283],[-0.24140694737434,-0.18450900912285,-0.31547302007675,0.45193558931351,1.4278016090393,0.10207918286324,0.27297922968864,0.14963409304619]],"read_weights":[[0.093408361077309,0.078387916088104,0.078387916088104,0.14014469087124,0.11800660938025,0.11800663173199,0.11800660938025,0.098875485360622,0.078387916088104,0.078387916088104],[0.10923194885254,0.10270020365715,0.10270020365715,0.10792971402407,0.096013441681862,0.096013441681862,0.096013441681862,0.083997197449207,0.10270020365715,0.10270020365715],[0.093618176877499,0.092683896422386,0.092683896422386,0.10136011987925,0.1020238623023,0.1020238623023,0.1020238623023,0.12821455299854,0.092683896422386,0.092683896422386],[0.11826366186142,0.10915395617485,0.10915395617485,0.10311557352543,0.092135675251484,0.092135630548,0.092135675251484,0.065598011016846,0.10915395617485,0.10915390402079]],"gt":[1,0,0],"r_k":[[-0.27919259667397,0.41318809986115,-0.009128893725574,-0.76818948984146,-0.32578974962234,0.61432254314423,0.30265700817108,-0.48664593696594],[0.064107313752174,-0.13138516247272,0.33186042308807,-0.24062649905682,0.061428926885128,-0.20000526309013,0.38022971153259,-0.2947159409523],[0.35213971138,-0.067545928061008,-0.08736477047205,-0.35465550422668,-0.18692570924759,0.1664736866951,-0.0485351793468,-0.049725018441677],[-0.063006795942783,-0.30579662322998,0.13064631819725,0.1110251173377,0.25960999727249,0.20975308120251,0.30790561437607,0.10893234610558]],"pred_proba":[0.35318270325661,0.40310543775558,0.24371184408665]},{"read_out":[[-0.33192783594131,0.19755475223064,-0.32897445559502,0.19639970362186,1.3407695293427,0.36223849654198,0.18845584988594,0.040588770061731],[-0.31533727049828,0.15861290693283,-0.34746643900871,0.22334505617619,1.4068415164948,0.32537996768951,0.17020726203918,0.05824613571167],[-0.29265883564949,0.15534988045692,-0.34603914618492,0.19157199561596,1.3269464969635,0.29527741670609,0.12786576151848,0.049481641501188],[-0.33839657902718,0.16783365607262,-0.34265479445457,0.24910162389278,1.4687142372131,0.36021506786346,0.21491788327694,0.064841568470001]],"w_k":[[0.52882218360901,-0.52536338567734,-0.57848680019379,0.65527367591858,0.8877409696579,-0.29064851999283,-0.360008507967,-0.34178024530411],[0.52882218360901,-0.52536338567734,-0.57848680019379,0.65527367591858,0.8877409696579,-0.29064851999283,-0.360008507967,-0.34178024530411],[0.52882218360901,-0.52536338567734,-0.57848680019379,0.65527367591858,0.8877409696579,-0.29064851999283,-0.360008507967,-0.34178024530411],[0.52882218360901,-0.52536338567734,-0.57848680019379,0.65527367591858,0.8877409696579,-0.29064851999283,-0.360008507967,-0.34178024530411]],"episode_frame":4,"batch_sel":1,"write_weights":[[0.10791520774364,0.18710589408875,0.18710589408875,0.09409262239933,0.084073506295681,0.084073461592197,0.084073506295681,0.059857971966267,0.18710589408875,0.1871058344841],[0.10791520774364,0.18710589408875,0.18710589408875,0.09409262239933,0.084073506295681,0.084073461592197,0.084073506295681,0.059857971966267,0.18710589408875,0.1871058344841],[0.10791520774364,0.18710589408875,0.18710589408875,0.09409262239933,0.084073506295681,0.084073461592197,0.084073506295681,0.059857971966267,0.18710589408875,0.1871058344841],[0.10791520774364,0.18710589408875,0.18710589408875,0.09409262239933,0.084073506295681,0.084073461592197,0.084073506295681,0.059857971966267,0.18710589408875,0.1871058344841]],"input":[0.71692917961627,0.48673094855621,0.35444922908209,0.88314970210195,0.08079280378297,0.49630946549587,0.1689789632801,0.79189391387627,1,0,0],"memory":[[-0.47879385948181,0.14954552054405,-0.10157679766417,0.5356627702713,2.1554288864136,0.65994739532471,0.74649530649185,0.32827031612396],[-0.24183830618858,-0.09609180688858,-0.54804372787476,0.44319349527359,1.9385877847672,0.094019770622253,0.05167356133461,0.13267815113068],[-0.24183830618858,-0.09609180688858,-0.54804372787476,0.44319349527359,1.9385877847672,0.094019770622253,0.05167356133461,0.13267815113068],[-0.4015137553215,0.3868690431118,-0.12243827432394,0.16761393845081,0.86611473560333,0.6236247420311,0.47016018629074,-0.069506697356701],[-0.46190410852432,0.37310475111008,-0.36202636361122,0.11318399757147,1.3291386365891,0.52975797653198,0.22739015519619,-0.038731396198273],[-0.46190503239632,0.37310364842415,-0.3620274066925,0.11318306624889,1.3291375637054,0.52975690364838,0.22738912701607,-0.038732416927814],[-0.46190410852432,0.37310475111008,-0.36202636361122,0.11318399757147,1.3291386365891,0.52975797653198,0.22739015519619,-0.038731396198273],[-0.13686910271645,0.12670847773552,-0.29873245954514,-0.16007950901985,0.65486663579941,0.06965483725071,-0.18646450340748,0.041651532053947],[-0.24183830618858,-0.09609180688858,-0.54804372787476,0.44319349527359,1.9385877847672,0.094019770622253,0.05167356133461,0.13267815113068],[-0.00043225288391113,0.088416114449501,-0.23257172107697,-0.0087431594729424,0.51078504323959,-0.0080605074763298,-0.221306681633,-0.01695691421628]],"read_weights":[[0.093816079199314,0.075680248439312,0.075680248439312,0.13864928483963,0.11699367314577,0.11699369549751,0.11699367314577,0.10430410504341,0.075680248439312,0.085208795964718],[0.10504729300737,0.10008551925421,0.10008551925421,0.10226610302925,0.099310852587223,0.099310874938965,0.099310852587223,0.10016370564699,0.10008551925421,0.094333723187447],[0.080696128308773,0.092856131494045,0.092856131494045,0.08915814012289,0.095630280673504,0.095630332827568,0.095630280673504,0.13357612490654,0.092856131494045,0.13111034035683],[0.1316260099411,0.10127156227827,0.10127156227827,0.12133601307869,0.10370453447104,0.10370446741581,0.10370453447104,0.069049693644047,0.10127156227827,0.063059970736504]],"gt":[1,0,0],"r_k":[[-0.25598165392876,0.46961072087288,0.010263880714774,-0.79668712615967,-0.37795397639275,0.60381680727005,0.32409617304802,-0.47385668754578],[0.053981024771929,-0.061815161257982,0.23505778610706,-0.35198551416397,0.097529262304306,-0.31352192163467,0.31501141190529,-0.27954298257828],[0.35050275921822,-0.073816329240799,-0.21690811216831,-0.52464288473129,-0.21616540849209,0.052371717989445,-0.13438053429127,-0.15749606490135],[-0.083391398191452,-0.31206926703453,0.18946407735348,0.18832942843437,0.2364806085825,0.33538022637367,0.40285122394562,0.093757465481758]],"pred_proba":[0.39636999368668,0.35807666182518,0.24555334448814]},{"read_out":[[-0.27984738349915,0.1715597063303,-0.49119082093239,0.25220307707787,1.7030940055847,0.23679214715958,0.0072140097618103,-0.012454965151846],[-0.19652424752712,0.094258695840836,-0.54093813896179,0.2480284422636,1.6562813520432,0.08043847233057,-0.13782213628292,-0.035999964922667],[-0.16889165341854,0.067904353141785,-0.55270385742188,0.24764463305473,1.6379930973053,0.029597755521536,-0.1815660148859,-0.042451050132513],[-0.28833439946175,0.15874210000038,-0.49704226851463,0.28327009081841,1.7898304462433,0.24534748494625,0.030870234593749,0.0046757655218244]],"w_k":[[0.65407484769821,-0.61748015880585,-0.73998022079468,0.55119228363037,0.94879829883575,-0.69006204605103,-0.60727846622467,-0.48378032445908],[0.65407484769821,-0.61748015880585,-0.73998022079468,0.55119228363037,0.94879829883575,-0.69006204605103,-0.60727846622467,-0.48378032445908],[0.65407484769821,-0.61748015880585,-0.73998022079468,0.55119228363037,0.94879829883575,-0.69006204605103,-0.60727846622467,-0.48378032445908],[0.65407484769821,-0.61748015880585,-0.73998022079468,0.55119228363037,0.94879829883575,-0.69006204605103,-0.60727846622467,-0.48378032445908]],"episode_frame":5,"batch_sel":1,"write_weights":[[0.11331761628389,0.08718529343605,0.22627934813499,0.24355295300484,0.089279852807522,0.089279793202877,0.089279852807522,0.19853934645653,0.22627934813499,0.054288703948259],[0.11331761628389,0.08718529343605,0.22627934813499,0.24355295300484,0.089279852807522,0.089279793202877,0.089279852807522,0.19853934645653,0.22627934813499,0.054288703948259],[0.11331761628389,0.08718529343605,0.22627934813499,0.24355295300484,0.089279852807522,0.089279793202877,0.089279852807522,0.19853934645653,0.22627934813499,0.054288703948259],[0.11331761628389,0.08718529343605,0.22627934813499,0.24355295300484,0.089279852807522,0.089279793202877,0.089279852807522,0.19853934645653,0.22627934813499,0.054288703948259]],"input":[0.76458563818596,0.57599880429916,0.84072863147594,0.86231394531205,0.067413025069982,0.49410796468146,0.81741509749554,0.61053850920871,1,0,0],"memory":[[-0.47551003098488,0.20414511859417,-0.13429419696331,0.53930366039276,2.2954149246216,0.70787024497986,0.73027467727661,0.31231647729874],[-0.24214287102222,-0.050115097314119,-0.57484066486359,0.42729559540749,2.0474996566772,0.12353383004665,0.033650524914265,0.12854750454426],[-0.085737198591232,-0.22361366450787,-1.01873087883,0.54041260480881,2.739559173584,-0.35304081439972,-0.53842413425446,-0.036303237080574],[-0.23172727227211,0.25286918878555,-0.61306643486023,0.2877185344696,1.7082540988922,0.17168188095093,-0.13499885797501,-0.25542694330215],[-0.45342713594437,0.41036242246628,-0.40184465050697,0.10654680430889,1.456707239151,0.54715466499329,0.19639109075069,-0.050838969647884],[-0.45342805981636,0.41036128997803,-0.40184572339058,0.10654582083225,1.4567060470581,0.54715353250504,0.19639006257057,-0.050839975476265],[-0.45342713594437,0.41036242246628,-0.40184465050697,0.10654680430889,1.456707239151,0.54715466499329,0.19639109075069,-0.050838969647884],[0.15511643886566,-0.14348283410072,-0.48001593351364,0.072768248617649,0.78784936666489,-0.49049100279808,-0.61655253171921,-0.15813934803009],[-0.085737198591232,-0.22361366450787,-1.01873087883,0.54041260480881,2.739559173584,-0.35304081439972,-0.53842413425446,-0.036303237080574],[-0.0071396008133888,0.12017740309238,-0.26264205574989,-0.053042486310005,0.59441006183624,-0.020733665674925,-0.26264899969101,-0.0061464821919799]],"read_weights":[[0.11843367666006,0.08851607888937,0.075303047895432,0.096098177134991,0.12977083027363,0.12977081537247,0.12977083027363,0.06612902879715,0.075303047895432,0.090904466807842],[0.06889009475708,0.088996753096581,0.10421541333199,0.099903926253319,0.089187391102314,0.089187487959862,0.089187391102314,0.13574287295341,0.10421541333199,0.13047321140766],[0.06143531575799,0.086141884326935,0.11088040471077,0.098460502922535,0.075491800904274,0.075491853058338,0.075491800904274,0.17184057831764,0.11088040471077,0.13388548791409],[0.15204302966595,0.10777068138123,0.083695515990257,0.091494426131248,0.11933033168316,0.11933023482561,0.11933033168316,0.054334931075573,0.083695515990257,0.068975016474724]],"gt":[0,0,1],"r_k":[[-0.35796213150024,0.34065943956375,0.46552649140358,-0.83695292472839,-0.38607546687126,0.659334897995,0.44175297021866,-0.27589747309685],[-0.42049586772919,0.36495730280876,-0.61242765188217,-0.81746912002563,0.1560135781765,-0.7307265996933,-0.52479773759842,-0.11477895081043],[0.72950398921967,-0.037629693746567,-0.59453248977661,-0.69269132614136,-0.020766982808709,-0.55719041824341,-0.85599774122238,-0.59332406520844],[-0.39752036333084,-0.43621420860291,0.7682431936264,0.38853552937508,0.098232850432396,0.87932455539703,0.86295413970947,0.54030519723892]],"pred_proba":[0.30559119582176,0.15477310121059,0.53963565826416]},{"read_out":[[-0.85696303844452,0.70007503032684,0.36495047807693,0.09635653346777,0.81896048784256,0.74224162101746,0.73373121023178,-0.29613035917282],[-0.72196501493454,0.55327451229095,0.14501342177391,0.16945353150368,1.1094648838043,0.56731307506561,0.52345138788223,-0.23869195580482],[-0.56676661968231,0.40054804086685,-0.068336926400661,0.20870953798294,1.2888607978821,0.34669238328934,0.26448854804039,-0.20884947478771],[-0.83433014154434,0.66695010662079,0.2944923043251,0.13642582297325,0.97592747211456,0.72908526659012,0.70688599348068,-0.26077726483345]],"w_k":[[-0.41825011372566,0.32557132840157,0.55012273788452,0.38531371951103,0.079967625439167,0.14133349061012,0.69020485877991,-0.061452876776457],[-0.41825011372566,0.32557132840157,0.55012273788452,0.38531371951103,0.079967625439167,0.14133349061012,0.69020485877991,-0.061452876776457],[-0.41825011372566,0.32557132840157,0.55012273788452,0.38531371951103,0.079967625439167,0.14133349061012,0.69020485877991,-0.061452876776457],[-0.41825011372566,0.32557132840157,0.55012273788452,0.38531371951103,0.079967625439167,0.14133349061012,0.69020485877991,-0.061452876776457]],"episode_frame":6,"batch_sel":1,"write_weights":[[0.12976153194904,0.23852449655533,0.071430161595345,0.078086160123348,0.24839010834694,0.10184270888567,0.24839010834694,0.046372294425964,0.071430161595345,0.20541423559189],[0.12976153194904,0.23852449655533,0.071430161595345,0.078086160123348,0.24839010834694,0.10184270888567,0.24839010834694,0.046372294425964,0.071430161595345,0.20541423559189],[0.12976153194904,0.23852449655533,0.071430161595345,0.078086160123348,0.24839010834694,0.10184270888567,0.24839010834694,0.046372294425964,0.071430161595345,0.20541423559189],[0.12976153194904,0.23852449655533,0.071430161595345,0.078086160123348,0.24839010834694,0.10184270888567,0.24839010834694,0.046372294425964,0.071430161595345,0.20541423559189]],"input":[0.76458563818596,0.57599880429916,0.84072863147594,0.86231394531205,0.067413025069982,0.49410796468146,0.81741509749554,0.61053850920871,0,0,1],"memory":[[-0.66005992889404,0.36805713176727,0.075258299708366,0.56890451908112,2.1860921382904,0.85440570116043,0.92046940326691,0.29432141780853],[-0.88189148902893,0.72569477558136,1.0285645723343,-0.081432983279228,-0.58563590049744,0.75332069396973,1.0524580478668,-0.4082447886467],[-0.26690718531609,-0.076661735773087,-0.83204805850983,0.53441739082336,2.6282529830933,-0.22736747562885,-0.38223189115524,-0.074486404657364],[-0.41189306974411,0.40124362707138,-0.42256659269333,0.29008859395981,1.6004436016083,0.29950278997421,0.02987414598465,-0.29146480560303],[-1.3441345691681,1.1456588506699,0.64257204532623,0.037427648901939,0.87158203125,1.3089337348938,1.2706812620163,-0.4590570628643],[-0.63773488998413,0.56810748577118,-0.19705736637115,0.12636455893517,1.3501390218735,0.68575298786163,0.38268649578094,-0.080456331372261],[-1.3441345691681,1.1456588506699,0.64257204532623,0.037427648901939,0.87158203125,1.3089337348938,1.2706812620163,-0.4590570628643],[-0.061874479055405,0.022152617573738,-0.27164852619171,0.045610941946507,0.65600603818893,-0.35772132873535,-0.45483946800232,-0.21317318081856],[-0.26690718531609,-0.076661735773087,-0.83204805850983,0.53441739082336,2.6282529830933,-0.22736747562885,-0.38223189115524,-0.074486404657364],[-0.91461330652237,0.85640716552734,0.78068244457245,-0.156046256423,-0.0058975219726562,0.73614752292633,0.79556566476822,-0.43560171127319]],"read_weights":[[0.07733641564846,0.17134541273117,0.046330139040947,0.066064096987247,0.14356699585915,0.091168984770775,0.14356699585915,0.043643280863762,0.046330139040947,0.17064760625362],[0.099314086139202,0.12268655747175,0.086671710014343,0.089195385575294,0.10934215784073,0.086985416710377,0.10934215784073,0.089221030473709,0.086671710014343,0.1205697208643],[0.073353201150894,0.080684296786785,0.12204328179359,0.10648196190596,0.073886401951313,0.086415633559227,0.073886401951313,0.18112483620644,0.12204328179359,0.080080658197403],[0.11370190232992,0.14472638070583,0.055921103805304,0.071597062051296,0.14053843915462,0.10035721957684,0.14053843915462,0.0364845469594,0.055921103805304,0.14021383225918]],"gt":[0,0,1],"r_k":[[-0.44103038311005,0.56067752838135,0.50588166713715,-0.86072069406509,-0.40998902916908,0.75621652603149,0.48803973197937,-0.35219120979309],[-0.057260304689407,-0.085244283080101,0.63852041959763,0.13702610135078,0.18180859088898,-0.26083618402481,0.17763915657997,-0.35839030146599],[0.24446834623814,0.12205712497234,-0.33688744902611,-0.24219924211502,-0.14985351264477,-0.30419486761093,-0.15215204656124,-0.14319781959057],[-0.3860522210598,0.021575601771474,0.76589071750641,0.072656914591789,0.097682029008865,0.75090777873993,0.85245537757874,0.33123174309731]],"pred_proba":[0.1881854981184,0.24535627663136,0.56645822525024]},{"read_out":[[-0.86793267726898,0.69042259454727,0.4446240067482,-0.048955917358398,0.63321882486343,0.78996783494949,0.77829557657242,-0.04064092040062],[-0.85224390029907,0.65277737379074,0.38023507595062,0.0031084343791008,0.81160819530487,0.76838862895966,0.75774973630905,-0.014209158718586],[-0.85336512327194,0.67048794031143,0.44840675592422,-0.036709908396006,0.63911068439484,0.80513346195221,0.80247038602829,-0.001903872936964],[-0.88069611787796,0.69878822565079,0.46606129407883,-0.041037250310183,0.6424605846405,0.83074283599854,0.82593548297882,-0.016442310065031]],"w_k":[[0.093446157872677,-0.32910847663879,0.13808260858059,0.61812835931778,0.0096937362104654,0.32952147722244,0.11715764552355,0.32008370757103],[0.093446157872677,-0.32910847663879,0.13808260858059,0.61812835931778,0.0096937362104654,0.32952147722244,0.11715764552355,0.32008370757103],[0.093446157872677,-0.32910847663879,0.13808260858059,0.61812835931778,0.0096937362104654,0.32952147722244,0.11715764552355,0.32008370757103],[0.093446157872677,-0.32910847663879,0.13808260858059,0.61812835931778,0.0096937362104654,0.32952147722244,0.11715764552355,0.32008370757103]],"episode_frame":7,"batch_sel":1,"write_weights":[[0.13776233792305,0.14079748094082,0.054403007030487,0.096800521016121,0.13672322034836,0.12477992475033,0.13672322034836,0.062641210854053,0.054403007030487,0.13640743494034],[0.13776233792305,0.14079748094082,0.054403007030487,0.096800521016121,0.13672322034836,0.12477992475033,0.13672322034836,0.062641210854053,0.054403007030487,0.13640743494034],[0.13776233792305,0.14079748094082,0.054403007030487,0.096800521016121,0.13672322034836,0.12477992475033,0.13672322034836,0.062641210854053,0.054403007030487,0.13640743494034],[0.13776233792305,0.14079748094082,0.054403007030487,0.096800521016121,0.13672322034836,0.12477992475033,0.13672322034836,0.062641210854053,0.054403007030487,0.13640743494034]],"input":[0.71692917961627,0.48673094855621,0.35444922908209,0.88314970210195,0.08079280378297,0.49630946549587,0.1689789632801,0.79189391387627,0,0,1],"memory":[[-0.92848718166351,0.57296657562256,0.3988915681839,0.32785099744797,1.8298217058182,1.254856467247,1.3145997524261,0.59399574995041],[-1.0317261219025,0.86454826593399,1.2208124399185,-0.21560843288898,-0.75209748744965,0.93967878818512,1.2522308826447,-0.23039782047272],[-0.37252098321915,0.021312490105629,-0.70755660533905,0.40350389480591,2.5070867538452,-0.12146358937025,-0.26187920570374,0.031695082783699],[-0.66324377059937,0.58096885681152,-0.11809051036835,0.062205344438553,1.2568073272705,0.68047177791595,0.39815440773964,-0.0077895522117615],[-1.4859457015991,1.2812850475311,0.82345354557037,-0.095291987061501,0.71792632341385,1.4767380952835,1.4546511173248,-0.29354411363602],[-0.25911775231361,0.18972676992416,0.3198025226593,-0.22419503331184,-0.34674829244614,0.39260715246201,0.38126027584076,0.30067825317383],[-1.4859457015991,1.2812850475311,0.82345354557037,-0.095291987061501,0.71792632341385,1.4767380952835,1.4546511173248,-0.29354411363602],[-0.3192825615406,0.19994442164898,0.041298866271973,-0.20605245232582,0.30156981945038,0.015562415122986,-0.094724506139755,0.076592952013016],[-0.37252098321915,0.021312490105629,-0.70755660533905,0.40350389480591,2.5070867538452,-0.12146358937025,-0.26187920570374,0.031695082783699],[-1.0607599020004,0.99092853069305,0.96861958503723,-0.28586256504059,-0.16893023252487,0.91930091381073,0.99111866950989,-0.26132589578629]],"read_weights":[[0.082248419523239,0.11782979220152,0.059620749205351,0.099650897085667,0.12225167453289,0.10717818140984,0.12225167453289,0.10099867731333,0.059620749205351,0.12834917008877],[0.11574719846249,0.12226010113955,0.090375758707523,0.091545224189758,0.11041633039713,0.098282605409622,0.11041633039713,0.059304058551788,0.090375758707523,0.11127665638924],[0.11683126538992,0.12119451910257,0.058154381811619,0.088298305869102,0.11378347873688,0.14806501567364,0.11378347873688,0.069236472249031,0.058154381811619,0.11249870061874],[0.1160336881876,0.11621111631393,0.052142899483442,0.094000488519669,0.12319830060005,0.12231969833374,0.12319830060005,0.079448319971561,0.052142899483442,0.12130429595709]],"gt":[1,0,0],"r_k":[[-0.36624580621719,0.91444820165634,-0.30098727345467,-0.89502680301666,-0.27884331345558,0.90267735719681,0.075843073427677,-0.68362784385681],[0.73772466182709,-0.53560221195221,0.95150542259216,0.68213093280792,0.17314910888672,0.00044975426862948,0.90810471773148,-0.58259850740433],[-0.4407465159893,-0.20867849886417,-0.060625106096268,0.036475367844105,-0.26256254315376,0.41642412543297,0.89607524871826,0.63909387588501],[-0.22151674330235,0.16994354128838,0.40559449791908,-0.24629090726376,0.162254601717,0.46321362257004,0.5228031873703,0.25394141674042]],"pred_proba":[0.29075518250465,0.62910807132721,0.080136656761169]},{"read_out":[[-0.93091857433319,0.79942786693573,0.52531492710114,-0.069895394146442,0.74833178520203,0.88391697406769,0.8067102432251,-0.0082778930664062],[-0.73143029212952,0.58246940374374,0.28330394625664,0.023797582834959,1.0127133131027,0.63411366939545,0.52433693408966,0.048645786941051],[-0.49490773677826,0.34520509839058,0.028662629425526,0.10074028372765,1.1952854394913,0.33736005425453,0.18380054831505,0.084432266652584],[-0.90511208772659,0.7716925740242,0.53151178359985,-0.069905959069729,0.72138124704361,0.87679237127304,0.8049111366272,0.030998496338725]],"w_k":[[0.5907107591629,-0.64197409152985,-0.63646614551544,0.83950710296631,0.94789510965347,-0.42741903662682,-0.66089344024658,-0.40183302760124],[0.5907107591629,-0.64197409152985,-0.63646614551544,0.83950710296631,0.94789510965347,-0.42741903662682,-0.66089344024658,-0.40183302760124],[0.5907107591629,-0.64197409152985,-0.63646614551544,0.83950710296631,0.94789510965347,-0.42741903662682,-0.66089344024658,-0.40183302760124],[0.5907107591629,-0.64197409152985,-0.63646614551544,0.83950710296631,0.94789510965347,-0.42741903662682,-0.66089344024658,-0.40183302760124]],"episode_frame":8,"batch_sel":1,"write_weights":[[0.11279054731131,0.11296301335096,0.07863549888134,0.091373175382614,0.11975491046906,0.1468508541584,0.11975491046906,0.10517773032188,0.07863549888134,0.11791384220123],[0.11279054731131,0.11296301335096,0.07863549888134,0.091373175382614,0.11975491046906,0.1468508541584,0.11975491046906,0.10517773032188,0.07863549888134,0.11791384220123],[0.11279054731131,0.11296301335096,0.07863549888134,0.091373175382614,0.11975491046906,0.1468508541584,0.11975491046906,0.10517773032188,0.07863549888134,0.11791384220123],[0.11279054731131,0.11296301335096,0.07863549888134,0.091373175382614,0.11975491046906,0.1468508541584,0.11975491046906,0.10517773032188,0.07863549888134,0.11791384220123]],"input":[0.76458563818596,0.57599880429916,0.84072863147594,0.86231394531205,0.067413025069982,0.49410796468146,0.81741509749554,0.61053850920871,1,0,0],"memory":[[-0.96961849927902,0.66770476102829,0.44258835911751,0.24940896034241,1.8896895647049,1.3170382976532,1.3159511089325,0.66134345531464],[-1.0609287023544,0.94923329353333,1.2532620429993,-0.28353127837181,-0.67836254835129,0.99556404352188,1.2440640926361,-0.16786961257458],[-0.1809463351965,-0.13854093849659,-0.84515684843063,0.47234469652176,2.78932762146,-0.37861064076424,-0.64986836910248,0.094495736062527],[-0.68530476093292,0.64521634578705,-0.095959827303886,0.017804998904467,1.3252776861191,0.72492003440857,0.38886713981628,0.036401480436325],[-1.5198928117752,1.3660258054733,0.85597038269043,-0.15177617967129,0.80785447359085,1.5324751138687,1.4390171766281,-0.23567500710487],[-0.1167326271534,0.076793730258942,0.22615456581116,-0.18567276000977,-0.013529658317566,0.1309317946434,-0.061141908168793,0.40847587585449],[-1.5198928117752,1.3660258054733,0.85597038269043,-0.15177617967129,0.80785447359085,1.5324751138687,1.4390171766281,-0.23567500710487],[0.17521294951439,-0.15968990325928,-0.13230806589127,0.095750540494919,0.33599454164505,-0.27239936590195,-0.43227776885033,0.060549415647984],[-0.1809463351965,-0.13854093849659,-0.84515684843063,0.47234469652176,2.78932762146,-0.37861064076424,-0.64986836910248,0.094495736062527],[-1.0910248756409,1.0722596645355,0.99773633480072,-0.3393469452858,-0.077524721622467,0.97357565164566,0.97466158866882,-0.2055851817131]],"read_weights":[[0.096233204007149,0.14068703353405,0.05254115536809,0.10664966702461,0.14096397161484,0.081098563969135,0.14096397161484,0.037261515855789,0.05254115536809,0.15105979144573],[0.1103957593441,0.1080761179328,0.10205011814833,0.091090478003025,0.10083893686533,0.082531921565533,0.10083893686533,0.099758163094521,0.10205011814833,0.10236940532923],[0.081720769405365,0.062728397548199,0.14524096250534,0.084766738116741,0.063657380640507,0.10130493342876,0.063657380640507,0.1906873434782,0.14524096250534,0.060995146632195],[0.12399804592133,0.14475314319134,0.04584151506424,0.090647131204605,0.13025783002377,0.11924933642149,0.13025783002377,0.033034179359674,0.04584151506424,0.13611944019794]],"gt":[0,0,1],"r_k":[[-0.32498586177826,0.8507884144783,0.21420373022556,-0.89641773700714,-0.11365201324224,0.88621461391449,0.29901465773582,-0.69936084747314],[0.58812761306763,-0.28118127584457,0.76481121778488,0.044470332562923,0.36784499883652,-0.53025478124619,0.73435366153717,-0.28002461791039],[0.41736787557602,-0.21080759167671,-0.37478041648865,-0.27971187233925,0.034570518881083,-0.25997459888458,0.031407676637173,0.12343925237656],[-0.30892622470856,0.0011482848785818,0.83825182914734,0.090767540037632,-0.15480650961399,0.88671159744263,0.84877127408981,0.59393340349197]],"pred_proba":[0.13878600299358,0.17113000154495,0.6900839805603]},{"read_out":[[-0.96332097053528,0.90105891227722,0.74322843551636,-0.20848128199577,0.35075587034225,1.0732367038727,1.0287663936615,0.20702832937241],[-0.90880107879639,0.82979267835617,0.63564091920853,-0.15449093282223,0.55240279436111,1.0049645900726,0.94484531879425,0.24103020131588],[-0.92300659418106,0.87194681167603,0.75876009464264,-0.22418728470802,0.24524301290512,1.0573025941849,1.0191916227341,0.23456154763699],[-0.68547022342682,0.58460211753845,0.29276651144028,-0.040528226643801,0.98657882213593,0.67115426063538,0.54772812128067,0.25631037354469]],"w_k":[[0.21168687939644,-0.047118078917265,0.61437898874283,0.79061728715897,-0.61735725402832,0.82682907581329,0.68097901344299,0.47567880153656],[0.21168687939644,-0.047118078917265,0.61437898874283,0.79061728715897,-0.61735725402832,0.82682907581329,0.68097901344299,0.47567880153656],[0.21168687939644,-0.047118078917265,0.61437898874283,0.79061728715897,-0.61735725402832,0.82682907581329,0.68097901344299,0.47567880153656],[0.21168687939644,-0.047118078917265,0.61437898874283,0.79061728715897,-0.61735725402832,0.82682907581329,0.68097901344299,0.47567880153656]],"episode_frame":9,"batch_sel":1,"write_weights":[[0.12810142338276,0.14407509565353,0.050310995429754,0.094906732439995,0.12964767217636,0.1186907440424,0.12964767217636,0.032879441976547,0.050310995429754,0.13548183441162],[0.12810142338276,0.14407509565353,0.050310995429754,0.094906732439995,0.12964767217636,0.1186907440424,0.12964767217636,0.032879441976547,0.050310995429754,0.13548183441162],[0.12810142338276,0.14407509565353,0.050310995429754,0.094906732439995,0.12964767217636,0.1186907440424,0.12964767217636,0.032879441976547,0.050310995429754,0.13548183441162],[0.12810142338276,0.14407509565353,0.050310995429754,0.094906732439995,0.12964767217636,0.1186907440424,0.12964767217636,0.032879441976547,0.050310995429754,0.13548183441162]],"input":[0.23334929603152,0.21934102312662,0.85842811595649,0.74819913785905,0.35075203888118,0.50202384148724,0.16817407519557,0.81942572654225,0,0,1],"memory":[[-1.2016975879669,0.98573684692383,0.82560181617737,0.070896908640862,1.4820626974106,1.8051217794418,1.8104237318039,0.91868990659714],[-1.2587825059891,1.1973960399628,1.5234152078629,-0.44799506664276,-0.963787317276,1.3217865228653,1.5825916528702,0.01989609003067],[-0.37389427423477,0.14667092263699,-0.50382387638092,0.29673027992249,2.4265265464783,0.073914706707001,-0.1910488307476,0.31223726272583],[-0.18890050053596,0.27517479658127,0.35858416557312,-0.12745305895805,-0.37854042649269,0.46193501353264,0.46204632520676,0.24088850617409],[-1.7006216049194,1.5962527990341,1.1132118701935,-0.29772028326988,0.53653597831726,1.8450214862823,1.7615923881531,-0.057129845023155],[-0.2966051697731,0.31294766068459,0.46591529250145,-0.37309300899506,-0.24803259968758,0.40468674898148,0.2337900698185,0.57553416490555],[-1.7006216049194,1.5962527990341,1.1132118701935,-0.29772028326988,0.53653597831726,1.8450214862823,1.7615923881531,-0.057129845023155],[0.01068964600563,0.0717453956604,0.085296183824539,-0.12107093632221,0.11562779545784,0.0037302076816559,-0.13410630822182,0.19413626194],[-0.37389427423477,0.14667092263699,-0.50382387638092,0.29673027992249,2.4265265464783,0.073914706707001,-0.1910488307476,0.31223726272583],[-1.2748636007309,1.3067582845688,1.2636085748672,-0.48296400904655,-0.35772505402565,1.2961050271988,1.3065906763077,-0.02016793191433]],"read_weights":[[0.094787642359734,0.12525025010109,0.06241363286972,0.11590767651796,0.1263512223959,0.097376994788647,0.1263512223959,0.059574745595455,0.06241363286972,0.1295729726553],[0.11907994747162,0.1114287674427,0.094149954617023,0.10963663458824,0.11049948632717,0.081043988466263,0.11049948632717,0.063516937196255,0.094149954617023,0.10599479079247],[0.10658117383718,0.12713737785816,0.04350371658802,0.13793574273586,0.11238420754671,0.13411127030849,0.11238420754671,0.060932297259569,0.04350371658802,0.12152629345655],[0.074442729353905,0.066641792654991,0.18738755583763,0.06194581836462,0.074452497065067,0.065739527344704,0.074452497065067,0.13770759105682,0.18738755583763,0.069842360913754]],"gt":[0,1,0],"r_k":[[-0.43645745515823,0.93336725234985,-0.78728199005127,-0.96188062429428,-0.5688488483429,0.83331799507141,0.47077396512032,-0.88463628292084],[0.91607487201691,-0.7602127790451,0.99503618478775,0.86864429712296,0.35448557138443,0.5076242685318,0.99675506353378,-0.76765894889832],[-0.89030069112778,-0.093185164034367,0.3376530110836,-0.59157991409302,-0.65252512693405,0.88208103179932,0.99666404724121,0.7807195186615],[0.48540985584259,0.030914416536689,-0.69256204366684,-0.085882216691971,0.32397359609604,-0.7325119972229,-0.60538721084595,-0.58760172128677]],"pred_proba":[0.70118683576584,0.29826679825783,0.00054636370623484]},{"read_out":[[-0.71491122245789,0.77929639816284,0.43839865922928,-0.32908326387405,0.31420615315437,0.61083859205246,0.70120763778687,0.06603380292654],[-0.18061301112175,0.35875651240349,-0.17451629042625,-0.16507293283939,0.67500174045563,-0.014723069965839,0.10009356588125,0.059207141399384],[0.26794320344925,0.03923761844635,-0.63105374574661,-0.077907264232635,0.74228501319885,-0.54760730266571,-0.38399454951286,-0.024060353636742],[-0.66905218362808,0.73218238353729,0.42476105690002,-0.33069348335266,0.28131401538849,0.56962126493454,0.65550446510315,0.094527140259743]],"w_k":[[0.94646716117859,-0.89716470241547,-0.94104444980621,0.71734690666199,-0.036738514900208,-0.98752999305725,-0.94163423776627,-0.68198525905609],[0.94646716117859,-0.89716470241547,-0.94104444980621,0.71734690666199,-0.036738514900208,-0.98752999305725,-0.94163423776627,-0.68198525905609],[0.94646716117859,-0.89716470241547,-0.94104444980621,0.71734690666199,-0.036738514900208,-0.98752999305725,-0.94163423776627,-0.68198525905609],[0.94646716117859,-0.89716470241547,-0.94104444980621,0.71734690666199,-0.036738514900208,-0.98752999305725,-0.94163423776627,-0.68198525905609]],"episode_frame":10,"batch_sel":1,"write_weights":[[0.61701089143753,0.027575904503465,0.077539652585983,0.61183977127075,0.030807919800282,0.027202554047108,0.61701494455338,0.64318948984146,0.077539652585983,0.028900276869535],[0.61701089143753,0.027575904503465,0.077539652585983,0.61183977127075,0.030807919800282,0.027202554047108,0.61701494455338,0.64318948984146,0.077539652585983,0.028900276869535],[0.61701089143753,0.027575904503465,0.077539652585983,0.61183977127075,0.030807919800282,0.027202554047108,0.61701494455338,0.64318948984146,0.077539652585983,0.028900276869535],[0.61701089143753,0.027575904503465,0.077539652585983,0.61183977127075,0.030807919800282,0.027202554047108,0.61701494455338,0.64318948984146,0.077539652585983,0.028900276869535]],"input":[0.76458563818596,0.57599880429916,0.84072863147594,0.86231394531205,0.067413025069982,0.49410796468146,0.81741509749554,0.61053850920871,0,1,0],"memory":[[0.32070255279541,0.081147193908691,-0.79195940494537,0.11386440694332,1.4953709840775,-0.22851145267487,0.17255735397339,0.47379064559937],[-1.1930623054504,1.1403113603592,1.3780763149261,-0.54357701539993,-0.85666924715042,1.1581728458405,1.4866633415222,-0.0046641808003187],[-0.27930456399918,0.14065437018871,-0.60657769441605,0.21544577181339,2.4345178604126,-0.068978548049927,-0.2709636092186,0.3432645201683],[1.5124354362488,-0.91851264238358,-1.6283587217331,0.034395813941956,0.035691052675247,-2.0477206707001,-1.6596156358719,-0.46025577187538],[-1.6318638324738,1.5459589958191,0.97532743215561,-0.38801407814026,0.6307458281517,1.6889320611954,1.6734204292297,-0.074896082282066],[-0.24778205156326,0.25665238499641,0.33544659614563,-0.46505558490753,-0.14591324329376,0.24981495738029,0.12676215171814,0.54625999927521],[-0.18163359165192,0.68883806467056,-0.50387644767761,-0.25428479909897,0.55098056793213,-0.19062042236328,0.11603391170502,-0.50585699081421],[1.5255566835403,-0.80135238170624,-1.4823133945465,-0.058411315083504,0.060116916894913,-1.9992805719376,-1.773530960083,-0.22531026601791],[-0.27930456399918,0.14065437018871,-0.60657769441605,0.21544577181339,2.4345178604126,-0.068978548049927,-0.2709636092186,0.3432645201683],[-1.2102472782135,1.2525568008423,1.1238163709641,-0.57521098852158,-0.25729337334633,1.1371037960052,1.2121223211288,-0.04269290715456]],"read_weights":[[0.053699772804976,0.18153364956379,0.061564464122057,0.028614914044738,0.18087626993656,0.14322116971016,0.075046636164188,0.028763201087713,0.061564464122057,0.18511542677879],[0.11388078331947,0.098839342594147,0.1042046174407,0.091582134366035,0.096602164208889,0.10433896631002,0.095851346850395,0.092088557779789,0.1042046174407,0.098407462239265],[0.12714037299156,0.045128162950277,0.10133031755686,0.16992424428463,0.049570959061384,0.061196267604828,0.12888507544994,0.16846305131912,0.10133031755686,0.047031257301569],[0.057753592729568,0.18568727374077,0.059508286416531,0.032861340790987,0.16308408975601,0.17726649343967,0.053713880479336,0.033705927431583,0.059508286416531,0.17691078782082]],"gt":[0,0,1],"r_k":[[-0.73289078474045,0.58153748512268,0.31375795602798,-0.050305500626564,-0.24596713483334,0.83224093914032,0.52576512098312,0.22067104279995],[0.44869047403336,-0.24468612670898,0.71988987922668,-0.58699071407318,0.55249965190887,-0.67152321338654,0.71129769086838,-0.02280780673027],[0.32226476073265,-0.068981885910034,-0.88916689157486,-0.50111377239227,0.088844433426857,-0.30783888697624,-0.16623039543629,-0.083057604730129],[-0.38100218772888,0.27763637900352,0.93063408136368,-0.10839054733515,-0.42021417617798,0.95157492160797,0.86938035488129,0.8468941450119]],"pred_proba":[0.099282130599022,0.053578104823828,0.84713977575302]},{"read_out":[[-0.83994197845459,0.92688155174255,0.54715526103973,-0.33005240559578,-0.045935589820147,0.7410649061203,0.93905717134476,-0.032648589462042],[-0.55192220211029,0.69187623262405,0.2396240234375,-0.26179218292236,0.13039298355579,0.40483546257019,0.62340712547302,-0.016653828322887],[-0.76013004779816,0.85465675592422,0.47998860478401,-0.31298068165779,-0.0098586343228817,0.66359925270081,0.86537194252014,0.0028562662191689],[-0.93773400783539,0.9797705411911,0.68685585260391,-0.34467041492462,-0.10905961692333,0.87955009937286,1.0594214200974,0.021108541637659]],"w_k":[[-0.14181756973267,0.17667916417122,0.32222154736519,0.85009682178497,-0.037338353693485,0.48453578352928,0.55823922157288,-0.22562390565872],[-0.14181756973267,0.17667916417122,0.32222154736519,0.85009682178497,-0.037338353693485,0.48453578352928,0.55823922157288,-0.22562390565872],[-0.14181756973267,0.17667916417122,0.32222154736519,0.85009682178497,-0.037338353693485,0.48453578352928,0.55823922157288,-0.22562390565872],[-0.14181756973267,0.17667916417122,0.32222154736519,0.85009682178497,-0.037338353693485,0.48453578352928,0.55823922157288,-0.22562390565872]],"episode_frame":11,"batch_sel":1,"write_weights":[[0.057113595306873,0.18362957239151,0.069930359721184,0.032497186213732,0.17235839366913,0.18638363480568,0.053118649870157,0.033332414925098,0.069930359721184,0.17495034635067],[0.057113595306873,0.18362957239151,0.069930359721184,0.032497186213732,0.17235839366913,0.18638363480568,0.053118649870157,0.033332414925098,0.069930359721184,0.17495034635067],[0.057113595306873,0.18362957239151,0.069930359721184,0.032497186213732,0.17235839366913,0.18638363480568,0.053118649870157,0.033332414925098,0.069930359721184,0.17495034635067],[0.057113595306873,0.18362957239151,0.069930359721184,0.032497186213732,0.17235839366913,0.18638363480568,0.053118649870157,0.033332414925098,0.069930359721184,0.17495034635067]],"input":[0.71692917961627,0.48673094855621,0.35444922908209,0.88314970210195,0.08079280378297,0.49630946549587,0.1689789632801,0.79189391387627,0,0,1],"memory":[[0.10343369841576,0.26655429601669,-0.61749428510666,-0.00090138614177704,1.3086638450623,-0.058784171938896,0.40621078014374,0.46947294473648],[-1.4582877159119,1.4077306985855,1.6326808929443,-0.57771575450897,-1.0428569316864,1.426230430603,1.81742811203,0.033174224197865],[-0.72635841369629,0.53082001209259,-0.24791947007179,0.14855033159256,2.0332653522491,0.41813734173775,0.3319776058197,0.21115282177925],[1.2992712259293,-0.74724161624908,-1.4562647342682,-0.093690350651741,-0.15010470151901,-1.9100033044815,-1.4488333463669,-0.46015629172325],[-2.1332197189331,2.014800786972,1.4137989282608,-0.38912087678909,0.2171368598938,2.2680938243866,2.3738350868225,-0.17542310059071],[-0.77021461725235,0.74360197782516,0.78663074970245,-0.5055279135704,-0.57752847671509,0.83271360397339,0.83586537837982,0.45827767252922],[-0.38841837644577,0.86530333757401,-0.33030185103416,-0.34400022029877,0.37707254290581,-0.028770238161087,0.3422577381134,-0.50910532474518],[1.3124842643738,-0.62982511520386,-1.3103680610657,-0.18633976578712,-0.12550839781761,-1.8609211444855,-1.5624681711197,-0.22515109181404],[-0.44705387949944,0.39016562700272,0.35865822434425,-0.066895432770252,-0.40125241875648,0.48711588978767,0.6029412150383,-0.13211169838905],[-1.4698082208633,1.5132451057434,1.3730164766312,-0.60439968109131,-0.44051444530487,1.4009749889374,1.5380464792252,-0.009757861495018]],"read_weights":[[0.055046483874321,0.13305246829987,0.069816537201405,0.038040842860937,0.13489182293415,0.12576466798782,0.12967737019062,0.037178661674261,0.13915339112282,0.13737776875496],[0.10696641355753,0.10969602316618,0.1074476018548,0.086794584989548,0.11144353449345,0.094039335846901,0.082908175885677,0.083451859652996,0.11186977475882,0.10538269579411],[0.085852213203907,0.13005048036575,0.074840478599072,0.04815686494112,0.12328227609396,0.13906626403332,0.094875380396843,0.047512520104647,0.1308518499136,0.1255117058754],[0.058477189391851,0.15477040410042,0.070127472281456,0.027304844930768,0.14434465765953,0.15625487267971,0.064761281013489,0.027872934937477,0.14608493447304,0.15000139176846]],"gt":[1,0,0],"r_k":[[-0.68211245536804,0.93489688634872,-0.10060342401266,-0.95888096094131,-0.44673103094101,0.92624974250793,0.63595759868622,-0.84443259239197],[0.7557520866394,-0.58089834451675,0.96603655815125,0.69341039657593,0.47680979967117,-0.074075721204281,0.96233880519867,-0.54613208770752],[-0.20776312053204,0.014933168888092,-0.2571933567524,-0.50249737501144,-0.28832593560219,0.21305160224438,0.87175118923187,0.3389108479023],[-0.034867942333221,0.26229324936867,0.72475206851959,-0.0054757045581937,-0.18938714265823,0.66351366043091,0.62459945678711,0.33209154009819]],"pred_proba":[0.65775907039642,0.30686447024345,0.035376388579607]},{"read_out":[[-0.80195373296738,0.93921631574631,0.61706918478012,-0.32020196318626,-0.032678455114365,0.77666789293289,0.7994424700737,0.010213078930974],[-0.34759646654129,0.57799792289734,0.18708288669586,-0.25575703382492,0.040421470999718,0.25669860839844,0.34152665734291,-0.0057148160412908],[0.28315061330795,0.095635041594505,-0.43641299009323,-0.18126291036606,0.12236189097166,-0.49549928307533,-0.31556314229965,-0.076588779687881],[-0.90294736623764,0.99058198928833,0.77217620611191,-0.33298015594482,-0.10495284199715,0.92055404186249,0.906957924366,0.069381847977638]],"w_k":[[0.41497480869293,-0.61983907222748,-0.64214754104614,0.90069001913071,0.97314715385437,-0.23864176869392,-0.64966982603073,-0.47469401359558],[0.41497480869293,-0.61983907222748,-0.64214754104614,0.90069001913071,0.97314715385437,-0.23864176869392,-0.64966982603073,-0.47469401359558],[0.41497480869293,-0.61983907222748,-0.64214754104614,0.90069001913071,0.97314715385437,-0.23864176869392,-0.64966982603073,-0.47469401359558],[0.41497480869293,-0.61983907222748,-0.64214754104614,0.90069001913071,0.97314715385437,-0.23864176869392,-0.64966982603073,-0.47469401359558]],"episode_frame":12,"batch_sel":1,"write_weights":[[0.057330250740051,0.17134827375412,0.088365472853184,0.026769302785397,0.14151355624199,0.15319018065929,0.063491091132164,0.027326250448823,0.16283315420151,0.16667279601097],[0.057330250740051,0.17134827375412,0.088365472853184,0.026769302785397,0.14151355624199,0.15319018065929,0.063491091132164,0.027326250448823,0.16283315420151,0.16667279601097],[0.057330250740051,0.17134827375412,0.088365472853184,0.026769302785397,0.14151355624199,0.15319018065929,0.063491091132164,0.027326250448823,0.16283315420151,0.16667279601097],[0.057330250740051,0.17134827375412,0.088365472853184,0.026769302785397,0.14151355624199,0.15319018065929,0.063491091132164,0.027326250448823,0.16283315420151,0.16667279601097]],"input":[0.76458563818596,0.57599880429916,0.84072863147594,0.86231394531205,0.067413025069982,0.49410796468146,0.81741509749554,0.61053850920871,1,0,0],"memory":[[0.088516049087048,0.33145439624786,-0.57261347770691,-0.043778713792562,1.3131244182587,0.011374942958355,0.43889689445496,0.50581187009811],[-1.3902584314346,1.3634614944458,1.6510572433472,-0.49762338399887,-0.79621481895447,1.4167972803116,1.4758670330048,0.11075642704964],[0.11836345493793,-0.08972380310297,-0.031247191131115,0.055084437131882,0.158287525177,-0.048949748277664,-0.31789422035217,0.056661777198315],[1.3029747009277,-0.70845282077789,-1.4382951259613,-0.12693211436272,-0.15946885943413,-1.8601744174957,-1.4151935577393,-0.44161397218704],[-2.191112279892,2.1203780174255,1.495269536972,-0.39187261462212,0.32711386680603,2.3844428062439,2.3876011371613,-0.13030254840851],[-0.84559136629105,0.85612857341766,0.88595139980316,-0.50944983959198,-0.46140733361244,0.94359749555588,0.83594107627869,0.51411777734756],[-0.39872035384178,0.90226179361343,-0.30245587229729,-0.34263840317726,0.43214184045792,0.019235230982304,0.32864266633987,-0.48767346143723],[1.3149011135101,-0.59146332740784,-1.2918593883514,-0.21816736459732,-0.13319489359856,-1.8122586011887,-1.5304688215256,-0.20669746398926],[-0.37178555130959,0.33811020851135,0.37025195360184,0.012955047190189,-0.16090893745422,0.47102916240692,0.25797006487846,-0.056899562478065],[-1.3979555368423,1.462304353714,1.3854775428772,-0.51945674419403,-0.19241578876972,1.3863623142242,1.1927070617676,0.063842870295048]],"read_weights":[[0.064934588968754,0.13533842563629,0.040948729962111,0.037881154567003,0.14147894084454,0.12873896956444,0.13235318660736,0.037732902914286,0.13693569600582,0.14365743100643],[0.10981840640306,0.10355373471975,0.09669417142868,0.10877729207277,0.099971435964108,0.093046098947525,0.090316154062748,0.10640343278646,0.092474229633808,0.098945029079914],[0.13753812015057,0.042080111801624,0.14538060128689,0.21313665807247,0.045330982655287,0.044759530574083,0.079879954457283,0.21065291762352,0.039141736924648,0.042099349200726],[0.061695829033852,0.16162776947021,0.036493826657534,0.027530144900084,0.14760786294937,0.16660326719284,0.064213141798973,0.02806268632412,0.15311129391193,0.1530542075634]],"gt":[0,0,1],"r_k":[[-0.39720460772514,0.83928251266479,0.36361876130104,-0.93346148729324,0.049352291971445,0.93207657337189,0.31002509593964,-0.7735601067543],[0.60210877656937,-0.47880753874779,0.87258148193359,0.020207857713103,0.40668317675591,-0.5965690612793,0.71899628639221,-0.36456856131554],[0.56505918502808,-0.26876619458199,-0.49544721841812,-0.11773177236319,0.18852600455284,-0.36278095841408,0.0072374423034489,0.047554239630699],[-0.46101585030556,0.13180264830589,0.92186868190765,-0.061059404164553,-0.40134313702583,0.94444459676743,0.91024607419968,0.67876714468002]],"pred_proba":[0.027143919840455,0.0033884693402797,0.96946752071381]},{"read_out":[[-0.70693522691727,0.85291075706482,0.54293584823608,-0.38886713981628,-0.066507443785667,0.69180846214294,0.78789347410202,0.12084546685219],[-0.56308996677399,0.73706781864166,0.41939237713814,-0.37896817922592,-0.066881939768791,0.53092879056931,0.65699017047882,0.13272526860237],[-0.76146638393402,0.86191940307617,0.64460372924805,-0.38453310728073,-0.10322001576424,0.78751611709595,0.84668320417404,0.17497134208679],[0.11470703035593,0.27857974171638,-0.27784207463264,-0.38200315833092,-0.098753891885281,-0.34602153301239,-0.043781161308289,-0.0067231031134725]],"w_k":[[-0.31176695227623,0.15815034508705,0.38966807723045,0.8398123383522,0.37915420532227,0.81552386283875,0.82035434246063,-0.013854769058526],[-0.31176695227623,0.15815034508705,0.38966807723045,0.8398123383522,0.37915420532227,0.81552386283875,0.82035434246063,-0.013854769058526],[-0.31176695227623,0.15815034508705,0.38966807723045,0.8398123383522,0.37915420532227,0.81552386283875,0.82035434246063,-0.013854769058526],[-0.31176695227623,0.15815034508705,0.38966807723045,0.8398123383522,0.37915420532227,0.81552386283875,0.82035434246063,-0.013854769058526]],"episode_frame":13,"batch_sel":1,"write_weights":[[0.061556149274111,0.16126184165478,0.036411203444004,0.029731838032603,0.14953769743443,0.16849009692669,0.064067758619785,0.030263174325228,0.15276464819908,0.152707695961],[0.061556149274111,0.16126184165478,0.036411203444004,0.029731838032603,0.14953769743443,0.16849009692669,0.064067758619785,0.030263174325228,0.15276464819908,0.152707695961],[0.061556149274111,0.16126184165478,0.036411203444004,0.029731838032603,0.14953769743443,0.16849009692669,0.064067758619785,0.030263174325228,0.15276464819908,0.152707695961],[0.061556149274111,0.16126184165478,0.036411203444004,0.029731838032603,0.14953769743443,0.16849009692669,0.064067758619785,0.030263174325228,0.15276464819908,0.152707695961]],"input":[0.23334929603152,0.21934102312662,0.85842811595649,0.74819913785905,0.35075203888118,0.50202384148724,0.16817407519557,0.81942572654225,0,0,1],"memory":[[-0.15982791781425,0.56414341926575,-0.36896556615829,-0.23098772764206,1.211415886879,0.27153408527374,0.76131308078766,0.59738624095917],[-1.6902453899384,1.6407017707825,1.8832334280014,-0.64169216156006,-0.8001297712326,1.7565560340881,1.8560825586319,0.20998772978783],[-0.093285664916039,0.11020337790251,0.147256731987,-0.12441205978394,0.048300631344318,0.16570560634136,-0.041832268238068,0.14000825583935],[0.91064012050629,-0.3517969250679,-1.0851432085037,-0.36271595954895,-0.34334188699722,-1.4144045114517,-0.85140758752823,-0.29624229669571],[-0.42799758911133,0.3801081776619,0.35148584842682,-0.13121046125889,-0.039122425019741,0.52878135442734,0.60065370798111,0.12623058259487],[-1.2814258337021,1.2473251819611,1.2467606067657,-0.65962320566177,-0.49235439300537,1.4719488620758,1.4384527206421,0.65237832069397],[-0.61792278289795,1.0977032184601,-0.12343487143517,-0.42590978741646,0.39163944125175,0.28467819094658,0.6349795460701,-0.42315784096718],[0.92558205127716,-0.2375676035881,-0.94076943397522,-0.45085030794144,-0.31401100754738,-1.3694907426834,-0.97058039903641,-0.061968564987183],[-0.65309453010559,0.59732937812805,0.591477394104,-0.11214388161898,-0.15671539306641,0.79368060827255,0.61863315105438,0.037484802305698],[-1.6883127689362,1.728989481926,1.6125892400742,-0.64678931236267,-0.19256541132927,1.7210264205933,1.5666083097458,0.15868552029133]],"read_weights":[[0.082762628793716,0.11780692636967,0.084292210638523,0.047450177371502,0.11895103752613,0.11523064225912,0.14687879383564,0.045542359352112,0.12004478275776,0.12104047089815],[0.10682087391615,0.11191281676292,0.082114242017269,0.083897136151791,0.11710058152676,0.10271582752466,0.093893356621265,0.078543767333031,0.1139477789402,0.10905362665653],[0.083559729158878,0.12945146858692,0.10542949289083,0.034239646047354,0.13630737364292,0.13860741257668,0.086853601038456,0.034492265433073,0.12645895779133,0.12460010498762],[0.095330536365509,0.048937484622002,0.059321001172066,0.26035690307617,0.048977043479681,0.047287214547396,0.086037680506706,0.25299963355064,0.049993123859167,0.050759375095367]],"gt":[0,1,0],"r_k":[[-0.71225136518478,0.94234263896942,-0.54377818107605,-0.98048800230026,-0.34035733342171,0.92312967777252,0.73972576856613,-0.89197713136673],[0.89017581939697,-0.77498376369476,0.99466162919998,0.80410993099213,0.58868956565857,0.22021636366844,0.99788516759872,-0.85747313499451],[-0.89950054883957,-0.19869866967201,0.10794896632433,-0.66867792606354,-0.49059596657753,0.81867659091949,0.99689966440201,0.68280363082886],[0.41403472423553,0.0050056511536241,-0.32436174154282,0.12251527607441,0.17232865095139,-0.32918676733971,-0.31951469182968,-0.27932676672935]],"pred_proba":[0.21435283124447,0.78542292118073,0.00022414137492888]},{"read_out":[[-0.60308682918549,0.8529007434845,0.34810003638268,-0.45267939567566,-0.12867483496666,0.44553184509277,0.66855716705322,-0.012358898296952],[-0.084982708096504,0.46034288406372,-0.17378704249859,-0.34584113955498,-0.10596876591444,-0.16843412816525,0.17379601299763,-0.10181437432766],[-0.13106721639633,0.50587773323059,-0.1565628349781,-0.35874834656715,-0.061814315617085,-0.1085289567709,0.23636361956596,-0.072858452796936],[-0.6169285774231,0.85242873430252,0.39583903551102,-0.4569628238678,-0.15777114033699,0.47265595197678,0.68722784519196,0.014532304368913]],"w_k":[[0.89733308553696,-0.85001587867737,-0.89433175325394,0.8255061507225,-0.22872468829155,-0.94401180744171,-0.80776220560074,-0.64047282934189],[0.89733308553696,-0.85001587867737,-0.89433175325394,0.8255061507225,-0.22872468829155,-0.94401180744171,-0.80776220560074,-0.64047282934189],[0.89733308553696,-0.85001587867737,-0.89433175325394,0.8255061507225,-0.22872468829155,-0.94401180744171,-0.80776220560074,-0.64047282934189],[0.89733308553696,-0.85001587867737,-0.89433175325394,0.8255061507225,-0.22872468829155,-0.94401180744171,-0.80776220560074,-0.64047282934189]],"episode_frame":14,"batch_sel":1,"write_weights":[[0.067609928548336,0.034707240760326,0.3328555226326,0.47543334960938,0.32551941275597,0.32432097196579,0.061019290238619,0.17943136394024,0.035455916076899,0.035999353975058],[0.067609928548336,0.034707240760326,0.3328555226326,0.47543334960938,0.32551941275597,0.32432097196579,0.061019290238619,0.17943136394024,0.035455916076899,0.035999353975058],[0.067609928548336,0.034707240760326,0.3328555226326,0.47543334960938,0.32551941275597,0.32432097196579,0.061019290238619,0.17943136394024,0.035455916076899,0.035999353975058],[0.067609928548336,0.034707240760326,0.3328555226326,0.47543334960938,0.32551941275597,0.32432097196579,0.061019290238619,0.17943136394024,0.035455916076899,0.035999353975058]],"input":[0.71692917961627,0.48673094855621,0.35444922908209,0.88314970210195,0.08079280378297,0.49630946549587,0.1689789632801,0.79189391387627,0,1,0],"memory":[[-0.10178501158953,0.57962101697922,-0.47482359409332,-0.33410513401031,1.2188605070114,0.14514237642288,0.70415377616882,0.59418451786041],[-1.6451077461243,1.6211581230164,1.7529183626175,-0.74660438299179,-0.73916608095169,1.6275433301926,1.7895418405533,0.17377427220345],[1.035126209259,-0.69166934490204,-1.225649356842,0.26476588845253,-0.16515809297562,-1.434508562088,-1.0672361850739,-0.57672613859177],[2.0090403556824,-0.93914932012558,-2.2830476760864,-0.14669677615166,-0.65892148017883,-2.9230613708496,-1.9601476192474,-0.77885800600052],[0.61386406421661,-0.32440024614334,-0.90990972518921,0.11476515233517,-0.17799285054207,-0.92552906274796,-0.46914237737656,-0.4673820734024],[-0.24424731731415,0.54013204574585,-0.0071483850479126,-0.40957605838776,-0.62941890954971,0.01989221572876,0.36174607276917,0.058200359344482],[-0.56104362010956,1.1021411418915,-0.22837254405022,-0.51787501573563,0.40416690707207,0.15837255120277,0.56941485404968,-0.43385243415833],[1.024468421936,-0.14505779743195,-1.0103360414505,-0.58609616756439,-0.42131215333939,-1.5524997711182,-1.0774313211441,0.0080522000789642],[-0.60673540830612,0.57921189069748,0.46110099554062,-0.21662120521069,-0.098199471831322,0.66522932052612,0.55433374643326,0.00239597260952],[-1.6427850723267,1.7111585140228,1.4856885671616,-0.74904268980026,-0.13589629530907,1.5938550233841,1.500923871994,0.12458871304989]],"read_weights":[[0.088495351374149,0.1619661450386,0.032163567841053,0.033349551260471,0.035662934184074,0.13640461862087,0.14066314697266,0.035644058138132,0.1711370497942,0.16451354324818],[0.12034134566784,0.11237327754498,0.093529596924782,0.092312872409821,0.093353390693665,0.085281066596508,0.099053800106049,0.090030215680599,0.10407240688801,0.10965199768543],[0.14251263439655,0.097724437713623,0.073882579803467,0.077571108937263,0.083420529961586,0.12237798422575,0.12160175293684,0.080315001308918,0.10235273092985,0.098241247236729],[0.096212722361088,0.18423256278038,0.034374102950096,0.036385126411915,0.034527380019426,0.13091614842415,0.093363538384438,0.041812416166067,0.1733226031065,0.1748534142971]],"gt":[1,0,0],"r_k":[[-0.69203388690948,0.64866483211517,-0.040760986506939,-0.28224366903305,-0.27758571505547,0.84872514009476,0.52218198776245,-0.14353960752487],[0.60118597745895,-0.44900444149971,0.91469526290894,-0.19206930696964,0.55525767803192,-0.46435913443565,0.92201238870621,-0.26312112808228],[-0.14783447980881,-0.096646793186665,-0.79631811380386,-0.44395565986633,-0.034273218363523,0.24732436239719,0.66172468662262,0.23073679208755],[-0.077065087854862,0.21525309979916,0.7941483259201,-0.2438829690218,-0.31928884983063,0.73840469121933,0.69623589515686,0.6554491519928]],"pred_proba":[0.77439385652542,0.14650432765484,0.079101704061031]},{"read_out":[[-0.76745837926865,0.86037564277649,0.38943207263947,-0.35396885871887,0.0051999129354954,0.46455547213554,0.6494961977005,-0.12184683978558],[-0.27984827756882,0.48217761516571,-0.084283903241158,-0.25225919485092,-0.021198980510235,-0.082396775484085,0.21701055765152,-0.20788802206516],[0.39188975095749,-0.01562937349081,-0.73827135562897,-0.12623985111713,-0.13866059482098,-0.85680973529816,-0.40017086267471,-0.37927800416946],[-0.85446733236313,0.92624187469482,0.52494746446609,-0.37349432706833,-0.039948642253876,0.5925258398056,0.75072592496872,-0.077047310769558]],"w_k":[[0.10743875801563,-0.41318967938423,-0.57884246110916,0.89937043190002,0.96589225530624,-0.19198487699032,-0.36142668128014,-0.67199945449829],[0.10743875801563,-0.41318967938423,-0.57884246110916,0.89937043190002,0.96589225530624,-0.19198487699032,-0.36142668128014,-0.67199945449829],[0.10743875801563,-0.41318967938423,-0.57884246110916,0.89937043190002,0.96589225530624,-0.19198487699032,-0.36142668128014,-0.67199945449829],[0.10743875801563,-0.41318967938423,-0.57884246110916,0.89937043190002,0.96589225530624,-0.19198487699032,-0.36142668128014,-0.67199945449829]],"episode_frame":15,"batch_sel":1,"write_weights":[[0.1092386841774,0.18157728016376,0.033878680318594,0.035860721021891,0.034029748290777,0.12902930378914,0.106430567801,0.055622428655624,0.17082457244396,0.18674595654011],[0.1092386841774,0.18157728016376,0.033878680318594,0.035860721021891,0.034029748290777,0.12902930378914,0.106430567801,0.055622428655624,0.17082457244396,0.18674595654011],[0.1092386841774,0.18157728016376,0.033878680318594,0.035860721021891,0.034029748290777,0.12902930378914,0.106430567801,0.055622428655624,0.17082457244396,0.18674595654011],[0.1092386841774,0.18157728016376,0.033878680318594,0.035860721021891,0.034029748290777,0.12902930378914,0.106430567801,0.055622428655624,0.17082457244396,0.18674595654011]],"input":[0.76458563818596,0.57599880429916,0.84072863147594,0.86231394531205,0.067413025069982,0.49410796468146,0.81741509749554,0.61053850920871,1,0,0],"memory":[[-0.40644392371178,0.65186494588852,-0.36788871884346,-0.33316445350647,1.2503781318665,0.1338794529438,0.69258213043213,0.45257043838501],[-1.8276920318604,1.7708523273468,1.8687731027603,-0.68250143527985,-0.58173894882202,1.7818331718445,1.8936393260956,0.1202716678381],[0.97282266616821,-0.63700783252716,-1.1711678504944,0.21869632601738,-0.20327872037888,-1.3889869451523,-1.01451420784,-0.57521313428879],[1.943495631218,-0.88320016860962,-2.2260386943817,-0.19281080365181,-0.69595086574554,-2.8783836364746,-1.9089037179947,-0.77625757455826],[0.54708045721054,-0.26965224742889,-0.85194224119186,0.06562215089798,-0.21932581067085,-0.88468897342682,-0.42065462470055,-0.46336758136749],[-0.39820694923401,0.64776962995529,0.093897297978401,-0.3829607963562,-0.53829729557037,0.10633559525013,0.41611233353615,0.032407201826572],[-0.84953397512436,1.1505501270294,-0.15370443463326,-0.46966278553009,0.48647791147232,0.13574033975601,0.53667604923248,-0.60215765237808],[-0.23507890105247,0.027035545557737,0.058533154428005,-0.0039877444505692,-0.00012019649147987,-0.039551548659801,-0.027163203805685,-0.13787253201008],[-0.78225910663605,0.71579849720001,0.56839507818222,-0.15096034109592,0.055766984820366,0.80254113674164,0.64319342374802,-0.051105555146933],[-1.9822555780411,1.8196988105774,1.5925786495209,-0.64717072248459,0.046029269695282,1.6524049043655,1.5196624994278,-0.069462895393372]],"read_weights":[[0.088635846972466,0.14096915721893,0.034740619361401,0.036064643412828,0.038415063172579,0.12409593164921,0.14165590703487,0.10322673618793,0.14545242488384,0.1467436850071],[0.11229931563139,0.10104451328516,0.10561756044626,0.10293102264404,0.1051844060421,0.081721566617489,0.097515739500523,0.098811365664005,0.095867298543453,0.099007196724415],[0.085471153259277,0.04044508934021,0.20104655623436,0.20687021315098,0.20279116928577,0.057136181741953,0.069732345640659,0.054858081042767,0.040592294186354,0.041056875139475],[0.09041790664196,0.18061558902264,0.033205308020115,0.033652007579803,0.033570937812328,0.12909385561943,0.086519174277782,0.078960776329041,0.16816112399101,0.16580334305763]],"gt":[0,0,1],"r_k":[[-0.57940053939819,0.80578672885895,0.44086921215057,-0.94662970304489,0.06374092400074,0.91270625591278,0.49005824327469,-0.86575162410736],[0.47365352511406,-0.36453750729561,0.77101236581802,0.029533289372921,0.51805132627487,-0.67085802555084,0.7563636302948,-0.34200319647789],[0.61625218391418,-0.12447207421064,-0.4960353076458,-0.27356654405594,0.17743934690952,-0.41110453009605,-0.15722854435444,-0.14932155609131],[-0.35349628329277,0.09176079928875,0.93026506900787,0.15042467415333,-0.3893555700779,0.9175523519516,0.91511368751526,0.6393928527832]],"pred_proba":[0.024544913321733,0.0015497461427003,0.97390538454056]},{"read_out":[[-0.73144745826721,0.77764618396759,0.23410230875015,-0.35556256771088,0.12511752545834,0.4145935177803,0.667908847332,-0.051608640700579],[-0.41742417216301,0.53672099113464,-0.047308966517448,-0.31244623661041,0.044910751283169,0.048570558428764,0.38622888922691,-0.11154671758413],[-0.60087418556213,0.66384238004684,0.12930625677109,-0.32924565672874,0.1189656406641,0.29124468564987,0.57369613647461,-0.031718920916319],[-0.80048990249634,0.80533087253571,0.34218442440033,-0.35106885433197,0.11797117441893,0.5352264046669,0.74345242977142,-0.0013441373594105]],"w_k":[[-0.073268681764603,-0.14536464214325,-0.12105791270733,0.81277990341187,0.71194988489151,0.25178247690201,0.20031103491783,-0.17776022851467],[-0.073268681764603,-0.14536464214325,-0.12105791270733,0.81277990341187,0.71194988489151,0.25178247690201,0.20031103491783,-0.17776022851467],[-0.073268681764603,-0.14536464214325,-0.12105791270733,0.81277990341187,0.71194988489151,0.25178247690201,0.20031103491783,-0.17776022851467],[-0.073268681764603,-0.14536464214325,-0.12105791270733,0.81277990341187,0.71194988489151,0.25178247690201,0.20031103491783,-0.17776022851467]],"episode_frame":16,"batch_sel":1,"write_weights":[[0.089261531829834,0.19109490513802,0.045569885522127,0.033221624791622,0.03314159065485,0.12744283676147,0.085412658751011,0.090740174055099,0.17879971861839,0.1636828482151],[0.089261531829834,0.19109490513802,0.045569885522127,0.033221624791622,0.03314159065485,0.12744283676147,0.085412658751011,0.090740174055099,0.17879971861839,0.1636828482151],[0.089261531829834,0.19109490513802,0.045569885522127,0.033221624791622,0.03314159065485,0.12744283676147,0.085412658751011,0.090740174055099,0.17879971861839,0.1636828482151],[0.089261531829834,0.19109490513802,0.045569885522127,0.033221624791622,0.03314159065485,0.12744283676147,0.085412658751011,0.090740174055099,0.17879971861839,0.1636828482151]],"input":[0.71692917961627,0.48673094855621,0.35444922908209,0.88314970210195,0.08079280378297,0.49630946549587,0.1689789632801,0.79189391387627,0,0,1],"memory":[[-0.5655170083046,0.78721261024475,-0.2573676109314,-0.43862360715866,1.2467888593674,0.27358916401863,0.87621223926544,0.52486407756805],[-0.41818815469742,0.32222536206245,0.22817440330982,-0.13648468255997,0.063622429966927,0.43173635005951,0.53410863876343,0.12249358743429],[0.59412264823914,-0.40534788370132,-0.96247208118439,0.0068082213401794,-0.30106344819069,-1.0983982086182,-0.58049499988556,-0.4431879222393],[1.7760254144669,-0.77815186977386,-2.0900769233704,-0.36143532395363,-0.77639251947403,-2.8124649524689,-1.763988494873,-0.66911774873734],[0.38061845302582,-0.16443718969822,-0.71841913461685,-0.10049742460251,-0.29885324835777,-0.81618309020996,-0.27442219853401,-0.35871729254723],[-0.56316041946411,0.79388231039047,0.21583220362663,-0.45546644926071,-0.48149400949478,0.26224374771118,0.60710477828979,0.10988707095385],[-0.99518090486526,1.2673075199127,-0.059745453298092,-0.52370488643646,0.52238118648529,0.27533769607544,0.71132707595825,-0.54572319984436],[-0.57958912849426,0.26629850268364,0.21812769770622,-0.11419071257114,-0.0012154839932919,0.31348568201065,0.4228926897049,-0.059857025742531],[-1.1892192363739,1.0242636203766,0.78639644384384,-0.27506083250046,0.11965472251177,1.2232744693756,1.1643660068512,0.064275279641151],[-2.1755533218384,2.0011568069458,1.7328518629074,-0.72671419382095,0.12396720051765,1.8514349460602,1.7530751228333,0.016478314995766]],"read_weights":[[0.099075950682163,0.12392146885395,0.03788786008954,0.036850489675999,0.042770076543093,0.12497965246439,0.14374403655529,0.13012464344501,0.12984450161457,0.1308012008667],[0.10408125072718,0.10974042117596,0.095853410661221,0.091953776776791,0.094287239015102,0.084673017263412,0.098041206598282,0.10566405951977,0.10843509435654,0.10727047175169],[0.12912677228451,0.14111861586571,0.054490063339472,0.051652982831001,0.058130394667387,0.11362016946077,0.09489843249321,0.12558336555958,0.12117478996515,0.11020431667566],[0.098084919154644,0.15774677693844,0.026826897636056,0.027544319629669,0.027992872521281,0.12761284410954,0.091668486595154,0.13709123432636,0.15457908809185,0.15085247159004]],"gt":[1,0,0],"r_k":[[-0.66344040632248,0.87511622905731,-0.01248237118125,-0.95471894741058,0.077346220612526,0.93327414989471,0.55954396724701,-0.83673202991486],[0.67418360710144,-0.51958703994751,0.94666713476181,0.36546432971954,0.55843138694763,-0.30912652611732,0.94414764642715,-0.66990602016449],[-0.24055904150009,-0.3104852437973,-0.2261560857296,-0.16608563065529,0.00079005939187482,0.22942550480366,0.87156027555466,0.41087704896927],[-0.21299278736115,0.23422455787659,0.7483217716217,-0.028423845767975,-0.13409949839115,0.75149285793304,0.68957072496414,0.47462311387062]],"pred_proba":[0.76856553554535,0.18308086693287,0.048353679478168]},{"read_out":[[-0.85321408510208,0.9014298915863,0.39627987146378,-0.36628529429436,0.15069329738617,0.64149636030197,0.84294259548187,-0.022107781842351],[-0.60709369182587,0.71505784988403,0.17597974836826,-0.34446910023689,0.076116800308228,0.34928333759308,0.61904805898666,-0.063443921506405],[-0.75099390745163,0.81345295906067,0.31963753700256,-0.34959197044373,0.13731001317501,0.54545575380325,0.76676779985428,-0.0042408318258822],[-0.86379981040955,0.87960493564606,0.45380273461342,-0.34566396474838,0.13837546110153,0.69870102405548,0.86031818389893,0.011257741600275]],"w_k":[[0.15838250517845,-0.30722120404243,-0.33967283368111,0.91818761825562,0.95184081792831,0.3845699429512,-0.008823374286294,-0.52864271402359],[0.15838250517845,-0.30722120404243,-0.33967283368111,0.91818761825562,0.95184081792831,0.3845699429512,-0.008823374286294,-0.52864271402359],[0.15838250517845,-0.30722120404243,-0.33967283368111,0.91818761825562,0.95184081792831,0.3845699429512,-0.008823374286294,-0.52864271402359],[0.15838250517845,-0.30722120404243,-0.33967283368111,0.91818761825562,0.95184081792831,0.3845699429512,-0.008823374286294,-0.52864271402359]],"episode_frame":17,"batch_sel":1,"write_weights":[[0.10220371931791,0.15702639520168,0.026704385876656,0.031985260546207,0.0324317663908,0.12703007459641,0.095816589891911,0.13646517693996,0.15387316048145,0.15016357600689],[0.10220371931791,0.15702639520168,0.026704385876656,0.031985260546207,0.0324317663908,0.12703007459641,0.095816589891911,0.13646517693996,0.15387316048145,0.15016357600689],[0.10220371931791,0.15702639520168,0.026704385876656,0.031985260546207,0.0324317663908,0.12703007459641,0.095816589891911,0.13646517693996,0.15387316048145,0.15016357600689],[0.10220371931791,0.15702639520168,0.026704385876656,0.031985260546207,0.0324317663908,0.12703007459641,0.095816589891911,0.13646517693996,0.15387316048145,0.15016357600689]],"input":[0.71692917961627,0.48673094855621,0.35444922908209,0.88314970210195,0.08079280378297,0.49630946549587,0.1689789632801,0.79189391387627,1,0,0],"memory":[[-0.81446832418442,1.0264611244202,0.017856985330582,-0.52446329593658,1.2000015974045,0.60640078783035,1.2005171775818,0.58602702617645],[-0.61589336395264,0.53315806388855,0.40208369493484,-0.17447654902935,0.13525979220867,0.68457823991776,0.75663554668427,0.12740936875343],[0.53019797801971,-0.32370242476463,-0.90569937229156,-0.050259597599506,-0.35224983096123,-0.99250030517578,-0.47145155072212,-0.43886333703995],[1.6086407899857,-0.61648714542389,-1.8932509422302,-0.44761720299721,-0.87738680839539,-2.5641801357269,-1.5103360414505,-0.61836749315262],[-0.169847458601,0.16384454071522,0.19990007579327,-0.087195821106434,-0.10220025479794,0.25163799524307,0.2570852637291,0.051692336797714],[-0.71877926588058,0.9564728140831,0.3491622209549,-0.46641072630882,-0.40248376131058,0.47076979279518,0.78336548805237,0.10405404120684],[-1.2204163074493,1.4771633148193,0.1782388985157,-0.55578774213791,0.52800416946411,0.61373090744019,1.0196743011475,-0.51998972892761],[-0.75267064571381,0.45070505142212,0.36704480648041,-0.13931410014629,0.067809551954269,0.54756754636765,0.62543541193008,-0.063779234886169],[-1.3766360282898,1.2243981361389,0.94450134038925,-0.29683282971382,0.20636196434498,1.4758062362671,1.3799897432327,0.056326627731323],[-2.3557617664337,2.1938893795013,1.8814944028854,-0.74118733406067,0.21570356190205,2.1009693145752,1.9632285833359,0.0025782249867916]],"read_weights":[[0.097039990127087,0.11227823793888,0.040878687053919,0.039068423211575,0.10949870198965,0.11920627206564,0.13204392790794,0.11645434051752,0.11610177159309,0.11742962896824],[0.10258299857378,0.10621525347233,0.097086071968079,0.094216026365757,0.10581208020449,0.087719954550266,0.09680599719286,0.10335602611303,0.1037361100316,0.10246947407722],[0.11804287880659,0.1203835606575,0.054735466837883,0.05266846716404,0.12349565327168,0.11236917972565,0.095492519438267,0.11029639095068,0.10977624356747,0.10273961722851],[0.090544499456882,0.1307775080204,0.029927337542176,0.029430463910103,0.14523911476135,0.1116583943367,0.088542863726616,0.12182819843292,0.12841649353504,0.12363516539335]],"gt":[1,0,0],"r_k":[[-0.43255797028542,0.86258143186569,-0.020816342905164,-0.96611994504929,-0.019531760364771,0.90513068437576,0.48999300599098,-0.92377090454102],[0.71910268068314,-0.51072907447815,0.93039512634277,0.3715628683567,0.51217448711395,-0.43423941731453,0.95223265886307,-0.57463508844376],[-0.0033067865297198,-0.22873358428478,-0.11419413238764,-0.35320407152176,-0.072462037205696,0.21647426486015,0.77105343341827,0.23006808757782],[0.0069546564482152,-0.0096742529422045,0.60607957839966,0.15782532095909,-0.20758405327797,0.55394518375397,0.68613731861115,0.12136274576187]],"pred_proba":[0.73812675476074,0.20912326872349,0.052749954164028]},{"read_out":[[-0.96583592891693,1.0731205940247,0.59765934944153,-0.48905128240585,0.12023790180683,0.96542572975159,1.1454565525055,0.08022678643465],[-0.8810418844223,1.0005853176117,0.54570835828781,-0.47769147157669,0.088037110865116,0.88653337955475,1.0759494304657,0.081796452403069],[-0.98838686943054,1.0592600107193,0.65787655115128,-0.46795079112053,0.12615405023098,1.0363631248474,1.1779273748398,0.1174815967679],[-0.24024823307991,0.64142513275146,-0.090931788086891,-0.52677321434021,-0.19094264507294,0.017387822270393,0.47622293233871,-0.087903119623661]],"w_k":[[0.081502437591553,-0.22566106915474,0.097334742546082,0.91432899236679,0.70089519023895,0.79964101314545,0.56330817937851,-0.14972847700119],[0.081502437591553,-0.22566106915474,0.097334742546082,0.91432899236679,0.70089519023895,0.79964101314545,0.56330817937851,-0.14972847700119],[0.081502437591553,-0.22566106915474,0.097334742546082,0.91432899236679,0.70089519023895,0.79964101314545,0.56330817937851,-0.14972847700119],[0.081502437591553,-0.22566106915474,0.097334742546082,0.91432899236679,0.70089519023895,0.79964101314545,0.56330817937851,-0.14972847700119]],"episode_frame":18,"batch_sel":1,"write_weights":[[0.090358935296535,0.13255888223648,0.031915389001369,0.031419537961483,0.14494146406651,0.11142956465483,0.088361404836178,0.12362790852785,0.1281533241272,0.12338178604841],[0.090358935296535,0.13255888223648,0.031915389001369,0.031419537961483,0.14494146406651,0.11142956465483,0.088361404836178,0.12362790852785,0.1281533241272,0.12338178604841],[0.090358935296535,0.13255888223648,0.031915389001369,0.031419537961483,0.14494146406651,0.11142956465483,0.088361404836178,0.12362790852785,0.1281533241272,0.12338178604841],[0.090358935296535,0.13255888223648,0.031915389001369,0.031419537961483,0.14494146406651,0.11142956465483,0.088361404836178,0.12362790852785,0.1281533241272,0.12338178604841]],"input":[0.23334929603152,0.21934102312662,0.85842811595649,0.74819913785905,0.35075203888118,0.50202384148724,0.16817407519557,0.81942572654225,1,0,0],"memory":[[-0.98519134521484,1.2332986593246,0.20314487814903,-0.66496217250824,1.1724989414215,0.90513736009598,1.4933153390884,0.65182554721832],[-0.86933064460754,0.88053375482559,0.77703374624252,-0.37558740377426,0.084088571369648,1.2642712593079,1.3338327407837,0.29219314455986],[-0.15334576368332,0.2242343723774,0.25001522898674,-0.14620776474476,-0.13413313031197,0.39937487244606,0.40860998630524,0.12142187356949],[1.4581716060638,-0.39563488960266,-1.6460620164871,-0.59121811389923,-1.0091809034348,-2.1701059341431,-1.107003569603,-0.49788635969162],[-0.39149951934814,0.42516094446182,0.42916470766068,-0.25554719567299,-0.079119302332401,0.61420130729675,0.60594761371613,0.12603622674942],[-0.8940281867981,1.1646407842636,0.54250007867813,-0.58548176288605,-0.38059812784195,0.78783595561981,1.0865176916122,0.16699185967445],[-1.3793859481812,1.6588170528412,0.34758239984512,-0.64670795202255,0.54008132219315,0.91910839080811,1.3071756362915,-0.47251188755035],[-0.9942969083786,0.78126585483551,0.72819292545319,-0.32253962755203,0.020309969782829,1.1146904230118,1.1880238056183,0.093287289142609],[-1.5794856548309,1.4596438407898,1.1523897647858,-0.43891215324402,0.22920522093773,1.8193476200104,1.7073706388474,0.11936189234257],[-2.5523648262024,2.4196422100067,2.0808639526367,-0.87346732616425,0.24082663655281,2.4366326332092,2.2814490795135,0.060584157705307]],"read_weights":[[0.095275476574898,0.10093118995428,0.099616967141628,0.051885105669498,0.10317489504814,0.11417148262262,0.12302292138338,0.10416434705257,0.10422112047672,0.10353644192219],[0.095429830253124,0.10962922126055,0.11091319471598,0.077526539564133,0.10693067312241,0.088284559547901,0.094229675829411,0.1084236651659,0.10620336979628,0.102429240942],[0.095660552382469,0.11440891027451,0.1199696213007,0.02814032882452,0.11662071943283,0.11032363772392,0.088493168354034,0.11365484446287,0.10792910307646,0.10479914397001],[0.086760468780994,0.068205617368221,0.065673507750034,0.33822402358055,0.066350564360619,0.072024114429951,0.092113323509693,0.069214448332787,0.070554532110691,0.070879399776459]],"gt":[0,1,0],"r_k":[[-0.46625944972038,0.8748921751976,-0.64165759086609,-0.97405904531479,-0.33459892868996,0.85317546129227,0.60149592161179,-0.94906175136566],[0.87448680400848,-0.72511696815491,0.99218618869781,0.7364467382431,0.50723665952682,0.15245746076107,0.99659025669098,-0.8108686208725],[-0.82513517141342,-0.14147379994392,0.27128672599792,-0.63134264945984,-0.4638440310955,0.85261273384094,0.99385970830917,0.66211050748825],[0.51278626918793,-0.1686307489872,-0.54073888063431,0.21784202754498,0.27912899851799,-0.71618866920471,-0.31658047437668,-0.56700229644775]],"pred_proba":[0.085267446935177,0.91435974836349,0.00037276628427207]},{"read_out":[[-0.80699318647385,1.0648930072784,0.38442659378052,-0.56032133102417,0.16577677428722,0.72371119260788,0.96086609363556,0.033911909908056],[-0.20937043428421,0.6454793214798,-0.094954758882523,-0.45377761125565,-0.030072424560785,0.067622154951096,0.38190838694572,-0.054371170699596],[-0.29682165384293,0.71132075786591,-0.036317437887192,-0.46625423431396,0.012392748147249,0.16949614882469,0.47570031881332,-0.035585656762123],[-0.7580760717392,1.0212448835373,0.36605489253998,-0.55321455001831,0.13090524077415,0.68372225761414,0.92249590158463,0.046373121440411]],"w_k":[[0.94950306415558,-0.89835947751999,-0.90635579824448,0.82247638702393,-0.46454736590385,-0.97224479913712,-0.91859596967697,-0.58645391464233],[0.94950306415558,-0.89835947751999,-0.90635579824448,0.82247638702393,-0.46454736590385,-0.97224479913712,-0.91859596967697,-0.58645391464233],[0.94950306415558,-0.89835947751999,-0.90635579824448,0.82247638702393,-0.46454736590385,-0.97224479913712,-0.91859596967697,-0.58645391464233],[0.94950306415558,-0.89835947751999,-0.90635579824448,0.82247638702393,-0.46454736590385,-0.97224479913712,-0.91859596967697,-0.58645391464233]],"episode_frame":19,"batch_sel":1,"write_weights":[[0.049891721457243,0.039221730083227,0.46271431446075,0.61944484710693,0.46310368180275,0.041417561471462,0.052969887852669,0.039801858365536,0.46552115678787,0.040759291499853],[0.049891721457243,0.039221730083227,0.46271431446075,0.61944484710693,0.46310368180275,0.041417561471462,0.052969887852669,0.039801858365536,0.46552115678787,0.040759291499853],[0.049891721457243,0.039221730083227,0.46271431446075,0.61944484710693,0.46310368180275,0.041417561471462,0.052969887852669,0.039801858365536,0.46552115678787,0.040759291499853],[0.049891721457243,0.039221730083227,0.46271431446075,0.61944484710693,0.46310368180275,0.041417561471462,0.052969887852669,0.039801858365536,0.46552115678787,0.040759291499853]],"input":[0.71692917961627,0.48673094855621,0.35444922908209,0.88314970210195,0.08079280378297,0.49630946549587,0.1689789632801,0.79189391387627,0,1,0],"memory":[[-0.87277972698212,1.2007689476013,0.083335287868977,-0.74634730815887,1.2191820144653,0.75960582494736,1.3759580850601,0.65411615371704],[-0.75347518920898,0.8375655412674,0.63999760150909,-0.46067595481873,0.15698601305485,1.1118395328522,1.2122453451157,0.2830738723278],[1.5384860038757,-0.88826167583466,-1.3762347698212,0.24051001667976,-0.4291772544384,-1.738716840744,-1.5465316772461,-0.36873117089272],[3.073947429657,-1.2054359912872,-2.9716000556946,-0.40377461910248,-1.6475539207458,-3.9837002754211,-2.7222499847412,-0.74501967430115],[1.1449315547943,-0.46197128295898,-0.94325989484787,-0.012849003076553,-0.51219028234482,-1.1216987371445,-0.93885791301727,-0.24189001321793],[-0.78555357456207,1.1220290660858,0.41892686486244,-0.66432958841324,-0.31842046976089,0.64237201213837,0.96439582109451,0.15789379179478],[-1.2651411294937,1.6282045841217,0.22994658350945,-0.72524642944336,0.57761883735657,0.77344381809235,1.1903496980667,-0.4673815369606],[-0.87847632169724,0.73848420381546,0.59196209907532,-0.40719577670097,0.091739311814308,0.96236181259155,1.066211938858,0.084500283002853],[-0.043904781341553,0.57680159807205,-0.21539688110352,-0.19421491026878,-0.21247625350952,0.086674690246582,0.16667318344116,-0.24436555802822],[-2.4408764839172,2.3807408809662,1.9527535438538,-0.9540308713913,0.30352315306664,2.2909693717957,2.1651065349579,0.054765112698078]],"read_weights":[[0.11872610449791,0.14151640236378,0.027442466467619,0.027944467961788,0.027925914153457,0.13333995640278,0.13464288413525,0.14550013840199,0.099755249917507,0.14320643246174],[0.11611922830343,0.1129035577178,0.093535043299198,0.093677766621113,0.093282222747803,0.098549976944923,0.10132845491171,0.10918168723583,0.076235741376877,0.10518632829189],[0.12744741141796,0.11249017715454,0.074641056358814,0.079039797186852,0.078177951276302,0.10893646627665,0.1067376062274,0.1086814776063,0.11077274382114,0.093075275421143],[0.11513032764196,0.15445750951767,0.031978890299797,0.034570332616568,0.034662768244743,0.14767304062843,0.1074868068099,0.14773538708687,0.082516431808472,0.14378839731216]],"gt":[1,0,0],"r_k":[[-0.62650221586227,0.42447590827942,-0.036963414400816,0.15388859808445,-0.05810584872961,0.75482988357544,0.38971164822578,-0.023784859105945],[0.68811118602753,-0.45304185152054,0.91381055116653,-0.33093973994255,0.58680528402328,-0.53903526067734,0.9137390255928,-0.21715557575226],[-0.051145054399967,-0.13831174373627,-0.82762765884399,-0.24307073652744,-0.02076905220747,0.30833885073662,0.65189403295517,0.23987996578217],[-0.12371698021889,0.32895451784134,0.7325165271759,-0.32626369595528,-0.44718390703201,0.70774763822556,0.61419415473938,0.64006388187408]],"pred_proba":[0.85566365718842,0.068628810346127,0.075707532465458]},{"read_out":[[-0.62725460529327,0.96422654390335,0.27213817834854,-0.52754253149033,0.018447063863277,0.64877933263779,0.96645176410675,-0.0055374670773745],[-0.25947219133377,0.68410444259644,-0.0059164501726627,-0.46727758646011,-0.11189686506987,0.2359858751297,0.58862513303757,-0.050169244408607],[-0.7493793964386,1.0295344591141,0.38625890016556,-0.54870140552521,0.077709473669529,0.80042922496796,1.1103888750076,0.048906989395618],[0.75459003448486,0.0022012945264578,-0.83041208982468,-0.32468321919441,-0.5315774679184,-0.9436206817627,-0.48241311311722,-0.25361686944962]],"w_k":[[-0.1748476177454,0.021325528621674,0.1083696782589,0.90827286243439,0.69730651378632,0.77859020233154,0.72305655479431,-0.33896484971046],[-0.1748476177454,0.021325528621674,0.1083696782589,0.90827286243439,0.69730651378632,0.77859020233154,0.72305655479431,-0.33896484971046],[-0.1748476177454,0.021325528621674,0.1083696782589,0.90827286243439,0.69730651378632,0.77859020233154,0.72305655479431,-0.33896484971046],[-0.1748476177454,0.021325528621674,0.1083696782589,0.90827286243439,0.69730651378632,0.77859020233154,0.72305655479431,-0.33896484971046]],"episode_frame":20,"batch_sel":1,"write_weights":[[0.11668517440557,0.15418609976768,0.031922698020935,0.034509588032961,0.034601859748363,0.14917069673538,0.10905507951975,0.14747579395771,0.082371436059475,0.14529287815094],[0.11668517440557,0.15418609976768,0.031922698020935,0.034509588032961,0.034601859748363,0.14917069673538,0.10905507951975,0.14747579395771,0.082371436059475,0.14529287815094],[0.11668517440557,0.15418609976768,0.031922698020935,0.034509588032961,0.034601859748363,0.14917069673538,0.10905507951975,0.14747579395771,0.082371436059475,0.14529287815094],[0.11668517440557,0.15418609976768,0.031922698020935,0.034509588032961,0.034601859748363,0.14917069673538,0.10905507951975,0.14747579395771,0.082371436059475,0.14529287815094]],"input":[0.23334929603152,0.21934102312662,0.85842811595649,0.74819913785905,0.35075203888118,0.50202384148724,0.16817407519557,0.81942572654225,1,0,0],"memory":[[-1.302764415741,1.622524023056,0.5032764673233,-0.9157327413559,1.1254088878632,1.3475171327591,2.0372767448425,0.69522482156754],[-1.0632215738297,1.1401724815369,0.90951108932495,-0.5855718255043,0.1928263604641,1.4989762306213,1.6228293180466,0.28750595450401],[1.3927787542343,-0.7421470284462,-1.2514338493347,0.12151391804218,-0.52245932817459,-1.5738079547882,-1.3610210418701,-0.358912140131],[2.9236459732056,-1.054151892662,-2.8413097858429,-0.52676320075989,-1.7416660785675,-3.8140232563019,-2.5307450294495,-0.73275995254517],[0.99526780843735,-0.3114030957222,-0.81372046470642,-0.13496008515358,-0.60524767637253,-0.95268380641937,-0.74827611446381,-0.22996993362904],[-1.224879860878,1.5510869026184,0.84445321559906,-0.80906939506531,-0.34609144926071,1.2458910942078,1.6341743469238,0.19297187030315],[-1.6686547994614,2.0195474624634,0.62323307991028,-0.85266160964966,0.51493918895721,1.342402100563,1.8259032964706,-0.43870136141777],[-1.1777364015579,1.0296485424042,0.85201704502106,-0.5205437541008,0.13017663359642,1.3409123420715,1.4670412540436,0.086076475679874],[-0.24922457337379,0.78059065341949,-0.024002909660339,-0.29132002592087,-0.23052108287811,0.34603399038315,0.45265373587608,-0.22610679268837],[-0.43553739786148,0.42133069038391,0.4142362177372,-0.12919345498085,-0.019286528229713,0.60554873943329,0.66672343015671,0.021513435989618]],"read_weights":[[0.10934986919165,0.11508528888226,0.041100215166807,0.046023439615965,0.047014780342579,0.12506473064423,0.13231782615185,0.11841322481632,0.1508504152298,0.11478028446436],[0.1016386821866,0.11075603216887,0.095715805888176,0.088162414729595,0.090447150170803,0.097017407417297,0.10094735771418,0.11016612499952,0.085818774998188,0.11933017522097],[0.1273404955864,0.13756994903088,0.030903359875083,0.033921215683222,0.034352388232946,0.13773731887341,0.1189316213131,0.13658925890923,0.10786344110966,0.13479097187519],[0.052940592169762,0.047444976866245,0.21901804208755,0.2091118991375,0.20529697835445,0.048157945275307,0.056329850107431,0.047810688614845,0.065263941884041,0.048625126481056]],"gt":[0,1,0],"r_k":[[-0.54901671409607,0.89460039138794,-0.51878976821899,-0.98069947957993,-0.38523599505424,0.89866703748703,0.69884353876114,-0.94847011566162],[0.83949625492096,-0.75973933935165,0.99254983663559,0.78744369745255,0.54293608665466,0.004442207980901,0.99740427732468,-0.81089103221893],[-0.75529986619949,-0.037084702402353,0.068469688296318,-0.67317008972168,-0.45038765668869,0.79482418298721,0.99186038970947,0.58503663539886],[0.49687007069588,-0.12518525123596,-0.2773012816906,0.24301692843437,0.18662269413471,-0.56085062026978,-0.11412148922682,-0.46232515573502]],"pred_proba":[0.023059682920575,0.97689437866211,4.6044384362176e-05]},{"read_out":[[-0.2724281847477,0.80443638563156,-0.19815178215504,-0.53678458929062,-0.031615205109119,0.076536312699318,0.5523915886879,-0.18622559309006],[0.41324520111084,0.23950219154358,-0.69975459575653,-0.35222569108009,-0.20319058001041,-0.65894174575806,-0.13350570201874,-0.23665982484818],[0.43562877178192,0.22142943739891,-0.72139871120453,-0.34236389398575,-0.17191918194294,-0.66321790218353,-0.12958157062531,-0.21971191465855],[-0.1900731921196,0.7401807308197,-0.24730025231838,-0.52636522054672,-0.077563360333443,-0.010355807840824,0.47486859560013,-0.17913097143173]],"w_k":[[0.91415631771088,-0.89237368106842,-0.90671062469482,0.85337495803833,-0.31523790955544,-0.9650132060051,-0.87453728914261,-0.60451585054398],[0.91415631771088,-0.89237368106842,-0.90671062469482,0.85337495803833,-0.31523790955544,-0.9650132060051,-0.87453728914261,-0.60451585054398],[0.91415631771088,-0.89237368106842,-0.90671062469482,0.85337495803833,-0.31523790955544,-0.9650132060051,-0.87453728914261,-0.60451585054398],[0.91415631771088,-0.89237368106842,-0.90671062469482,0.85337495803833,-0.31523790955544,-0.9650132060051,-0.87453728914261,-0.60451585054398]],"episode_frame":21,"batch_sel":1,"write_weights":[[0.46123552322388,0.45810917019844,0.12459529191256,0.11895986646414,0.11678963154554,0.027396159246564,0.032045003026724,0.45831722021103,0.037127442657948,0.45878052711487],[0.46123552322388,0.45810917019844,0.12459529191256,0.11895986646414,0.11678963154554,0.027396159246564,0.032045003026724,0.45831722021103,0.037127442657948,0.45878052711487],[0.46123552322388,0.45810917019844,0.12459529191256,0.11895986646414,0.11678963154554,0.027396159246564,0.032045003026724,0.45831722021103,0.037127442657948,0.45878052711487],[0.46123552322388,0.45810917019844,0.12459529191256,0.11895986646414,0.11678963154554,0.027396159246564,0.032045003026724,0.45831722021103,0.037127442657948,0.45878052711487]],"input":[0.71692917961627,0.48673094855621,0.35444922908209,0.88314970210195,0.08079280378297,0.49630946549587,0.1689789632801,0.79189391387627,0,1,0],"memory":[[-0.0072567462921143,0.7096711397171,-0.83696758747101,-0.58697122335434,0.88779044151306,-0.33855545520782,0.67796111106873,0.2373633980751],[0.23265790939331,0.22126764059067,-0.44058001041412,-0.26096922159195,-0.033966511487961,-0.19233179092407,0.26154541969299,-0.17541497945786],[1.5083340406418,-0.72006589174271,-1.3148641586304,0.043338134884834,-0.58474051952362,-1.7218923568726,-1.4530111551285,-0.29812639951706],[3.0330700874329,-1.0352712869644,-2.902899980545,-0.60174870491028,-1.7989647388458,-3.9576101303101,-2.6229679584503,-0.67664861679077],[1.1039702892303,-0.29356187582016,-0.87671804428101,-0.20975151658058,-0.66012459993362,-1.0951832532883,-0.83843660354614,-0.17515337467194],[-1.177557349205,1.4903117418289,0.72187721729279,-0.88241839408875,-0.2617359161377,1.1173909902573,1.5419744253159,0.16017040610313],[-1.615042924881,1.9676954746246,0.50750136375427,-0.92176306247711,0.58371531963348,1.2188305854797,1.743455529213,-0.46271219849586],[1.2961262464523,-0.91861319541931,-1.3495390415192,0.32520654797554,